-3
14
-17
17
7
-13
-2
5
21
-5
-2
-4
3
-3
0
2
4
4
-1
-14
-73
8
-27
-90
-2
-58
-90
4
6
1
-2
-1
-2
-2
0
-1
10
24
13
16
9
-6
13
4
-38
-1
-3
-1
-7
-1
-2
1
10
12
-1
-11
-30
28
7
-24
-56
-79
-69
-36
14
19
-26
0
3
-35
-11
-16
13
-4
17
0
-1
-3
-6
-1
6
-29
-3
7
-27
-5
0
-8
6
4
-13
-1
-8
-8
3
-8
10
17
10
1
-3
5
-3
-3
-1
-3
1
-3
6
-49
-27
5
-37
17
33
-9
40
5
17
11
5
9
16
34
28
49
1
-25
-61
12
-20
-46
12
-3
23
-5
5
-2
-1
1
-1
-2
4
-4
5
3
1
-3
3
-3
5
7
6
11
9
-1
12
16
1
12
13
-3
15
-8
-4
-18
-9
-26
-42
-42
-44
0
-1
6
-6
2
-4
-4
3
4
2
4
1
1
-1
-2
3
2
2
12
-2
-15
16
-25
7
41
-11
-10
-34
-34
-5
-51
-47
-12
-71
-61
-12
-8
-25
-44
18
-20
18
50
-9
-18
-16
-4
-36
20
14
-33
-22
-12
-46
-42
0
-17
-26
-3
0
14
4
10
-5
-13
14
13
-11
-37
17
-29
-52
-22
21
14
-5
18
1
20
32
25
-3
-3
12
-7
-2
0
-5
-6
-5
22
-11
-8
48
9
5
-17
-48
-44
9
-11
-3
14
-3
-9
16
1
13
6
1
9
5
1
2
1
0
3
-2
5
1
-1
3
-3
-1
1
-2
-3
8
0
11
19
13
13
32
2
-3
3
0
-6
-4
1
-4
5
1
12
1
-2
0
1
-8
-4
1
1
24
-10
-14
9
-27
-33
-22
-42
-35
-52
-21
-11
-27
-21
-7
-30
-29
22
16
-11
15
17
-13
11
-1
-52
-57
-3
0
1
-20
-9
-1
9
-28
-6
-2
10
-26
20
11
-5
-15
-29
1
29
24
29
24
-1
25
-5
-12
14
-21
2
19
5
3
5
21
23
-2
9
-21
1
-10
-15
17
-37
-30
-13
35
-13
-41
11
-20
-7
23
52
15
-1
-28
3
-6
-10
-1
11
5
5
-8
-31
-25
2
-5
-37
-10
-23
-35
-13
-19
-46
5
-4
-2
22
-1
-19
-45
10
31
-31
11
33
-72
-30
11
16
1
9
28
-2
-2
-3
0
-9
-6
0
-4
2
0
-3
-2
-4
2
23
33
7
23
4
42
68
27
-12
-13
0
6
5
1
-12
18
24
20
22
-4
-18
12
-17
-44
1
8
15
-3
4
4
-2
-5
1
4
-2
2
0
-3
-1
2
6
3
-6
-5
-4
4
-3
2
2
0
1
3
-2
1
-5
-2
-2
-4
6
-1
1
-4
3
-18
6
-39
6
6
-17
17
-5
-17
4
4
-1
3
-3
5
-3
-3
1
0
-4
2
-2
-4
0
6
3
2
-33
-20
-4
-10
-6
17
-18
7
15
-21
-34
-32
-19
-51
3
-40
-55
2
12
4
-3
26
3
8
-6
-8
0
-31
-15
-23
-7
14
-1
-26
-15
-38
0
-5
1
4
-4
1
3
4
6
-59
-52
-24
-16
9
12
14
3
20
3
3
-5
4
4
0
-5
2
4
-48
-2
16
2
39
41
32
11
12
-11
-7
3
-9
-2
6
-1
-2
5
-9
5
26
-3
11
11
-23
-16
-9
-17
-7
8
13
1
-2
10
-11
-28
-17
25
6
-36
-16
-2
-36
-29
-21
4
18
15
21
10
15
27
22
-42
0
1
3
-1
-8
-32
6
-7
-76
-2
4
-2
2
2
-5
1
-1
-4
-36
-64
-17
-21
3
23
-13
9
11
10
24
-19
0
2
0
1
18
-15
-18
0
16
11
-2
12
20
-3
3
1
-2
0
-1
-2
1
-1
-3
-3
5
0
6
2
2
-5
5
-2
5
8
-1
-8
-1
1
-7
-4
-5
0
-34
-1
11
14
10
-12
30
15
19
-1
-2
-3
-1
4
1
2
1
0
-4
-2
4
5
-3
3
-3
3
-5
9
-20
1
-6
-3
22
-1
-1
-18
-25
-46
33
21
-6
26
34
10
18
-94
-72
-76
-41
-6
33
-17
9
29
-1
-6
-21
-13
-4
-15
-15
5
21
27
10
21
40
11
32
34
11
-3
-54
-12
-24
-6
14
24
-1
8
24
24
9
-4
12
14
9
32
17
11
1
-1
-11
-9
-9
-10
-7
-4
-1
14
-41
-31
-6
-22
-7
-32
-15
-2
18
7
17
3
11
-1
8
11
-17
-6
-3
-5
5
3
0
-2
10
1
2
4
-4
-5
4
3
0
6
0
-5
-32
-97
9
-21
-33
-7
-12
-25
6
3
-4
-2
-3
4
-2
4
-3
-8
9
0
0
-3
1
1
1
-3
-33
9
-25
-30
12
4
7
-12
-23
-43
-16
0
8
2
6
11
13
5
-14
-30
6
-11
-11
-3
-5
10
-1
-13
-8
-7
1
3
-6
-15
3
17
17
-2
-51
-5
-37
-34
-15
2
14
4
-1
12
0
6
16
-3
-10
2
18
-3
15
2
0
-6
16
3
1
4
-21
-12
-1
-19
-13
-10
-12
-4
6
-16
-4
1
-17
22
28
6
7
18
0
-12
0
14
7
25
18
28
-77
-34
-1
-21
14
14
9
9
10
-128
-116
-128
-31
-5
15
4
15
22
1
15
33
9
29
25
10
-7
-3
6
8
8
-6
-6
-10
-7
10
-2
-5
5
2
4
5
3
3
0
3
-91
-45
-27
-2
10
28
9
19
10
-1
-14
-29
7
16
11
34
4
-26
-28
-11
-33
-12
6
-24
3
9
-22
3
2
-3
-5
6
3
-5
7
3
-2
-9
-1
-1
-6
0
-4
-2
1
3
-5
-4
-2
6
2
-1
-4
3
3
0
-5
7
-2
-2
8
-4
-3
-128
-85
-120
-71
12
7
-25
17
9
2
-3
-7
0
1
-4
-3
-3
4
-1
-1
-3
-2
-1
2
-4
-4
-7
-40
11
3
-6
28
14
-3
1
-37
-31
-7
10
5
22
28
13
22
19
23
14
-3
0
7
-5
6
29
15
-17
-17
-14
-7
3
-6
16
19
-29
3
1
1
-5
2
2
-6
3
-3
-5
2
10
-16
-5
1
1
0
-7
1
-1
-5
-1
1
3
-6
-2
3
-18
-29
-2
-5
-16
-7
31
11
16
-3
-4
-5
3
-10
-6
-8
-11
-4
-6
2
-34
13
13
2
22
-13
-103
19
36
8
19
34
-29
8
20
-26
-14
14
21
-21
33
21
-14
-7
10
3
1
-37
-15
5
-34
-2
9
-39
3
11
-15
11
8
-21
26
12
-23
3
-2
4
-6
-4
-2
-4
4
3
-35
4
0
-29
-52
-52
-4
-84
-56
-24
2
45
-24
-19
21
-41
12
22
18
18
-36
4
7
-35
21
14
-14
-3
3
-2
-5
-2
-2
2
0
3
-3
0
4
1
-2
3
1
1
-3
-6
-1
-6
0
-5
-9
0
-11
-5
13
15
25
12
17
10
-17
7
-20
-2
4
4
3
-2
0
6
4
0
-8
3
-4
-2
0
-1
4
1
6
-13
1
-13
13
-8
-46
21
-26
-51
12
-3
-16
20
19
-55
-24
-59
-41
-37
-30
-12
-28
-20
3
-22
-33
-10
-3
-1
-11
-5
24
14
34
18
21
-15
-36
-23
-27
-5
-15
4
37
8
-14
4
-24
-16
15
-62
32
-43
-89
-52
-12
2
-38
1
2
-21
61
39
-3
-1
-7
-6
0
-1
-8
-13
-2
12
-7
-2
22
-12
-15
13
-15
-51
2
5
-17
0
-9
11
-31
16
23
0
3
3
3
-1
-1
9
11
1
-5
-8
2
3
-4
-4
-1
-5
4
-11
8
18
-10
-6
4
-2
19
-18
0
1
1
-2
-4
-5
3
-1
4
0
6
-1
0
6
-2
-1
-9
-5
-15
-4
10
-1
12
30
-6
-60
-37
17
7
-48
-10
-19
-27
-35
3
-8
22
1
-35
31
8
-44
50
10
-41
0
-2
14
-6
5
11
-6
-2
13
-12
16
30
31
28
-3
31
1
-42
-14
17
24
6
11
1
-30
-2
21
-39
-8
-7
-14
14
10
-36
27
23
7
2
-32
7
-12
-43
-20
-10
7
-21
-1
-5
-7
-9
26
-35
2
27
-58
-4
17
-78
-3
7
-77
23
25
-1
4
9
21
25
-12
5
-16
-36
-8
0
-16
-10
-10
-24
-19
-17
-19
6
18
7
16
4
-39
-15
-5
5
-23
8
35
-6
1
23
-14
-13
-26
-3
-4
-2
1
-5
-4
-3
-2
0
-5
14
-37
-27
12
-50
22
-4
-47
26
23
14
4
22
-9
1
1
23
-2
5
17
-12
12
22
-11
13
4
0
0
4
-3
3
-2
-4
-2
-1
-4
-2
1
-5
-4
-1
3
-3
-4
3
-3
-3
1
-6
1
2
4
1
1
-2
-1
-3
0
4
2
-4
3
4
29
-1
10
2
-44
25
-9
-46
2
-1
1
2
-2
-2
3
3
-3
1
0
-7
-2
2
-4
-7
1
5
-15
3
-16
-7
13
-11
-34
-17
-16
27
26
-28
15
8
-63
-54
-45
-20
-7
-10
-18
22
-23
-28
-15
-9
-5
-2
-5
-6
-2
0
2
-4
-7
-5
1
-1
-4
1
2
2
-6
-6
0
-10
-5
-11
-11
-11
-10
-6
0
-11
-2
3
1
4
-4
3
-5
3
1
0
-6
0
-5
4
2
-5
-3
0
-3
0
-1
-5
-1
1
-4
2
4
3
-10
-5
-5
-3
-9
1
-1
-7
-6
1
-6
-5
-6
0
-1
1
-2
-5
1
-11
1
-9
-6
-4
-10
-10
-2
0
2
-6
-4
-1
-10
-6
-4
-2
-10
-1
-9
-7
-7
-6
0
-10
-1
-1
-1
4
3
5
3
-2
0
-4
-5
-2
-7
-2
-6
0
-11
-12
-9
-3
-4
-10
-6
-6
-9
-6
-10
2
2
2
-3
-11
0
-11
-4
1
2
-4
-3
-1
-3
-6
-2
1
4
1
-4
0
6
-4
3
-4
3
1
2
1
4
5
2
-1
-5
3
-1
-3
-5
-9
-5
-3
-9
-9
-9
-5
-5
-2
4
0
-4
-3
4
4
3
-2
-2
4
4
-2
-1
4
4
-4
-5
-1
-10
-4
-5
6
-2
-8
-10
-8
-9
1
-4
0
-13
4
-13
-8
2
-3
-5
-2
-3
-3
1
-7
-4
-9
-10
-16
-6
-12
1
-6
-2
-15
-1
-4
0
1
-9
-7
-8
-8
-2
-3
-2
-6
-5
2
0
-10
-4
-5
-2
5
-7
-5
-9
0
-3
-7
-4
-1
3
-2
-5
2
-3
3
-1
4
-14
0
-6
-7
-7
-4
0
-6
-8
-2
-8
1
0
-5
3
-5
-8
-1
-3
3
-2
-2
-5
2
4
4
3
5
2
-2
-3
1
-3
-4
-1
3
-8
-5
-1
-4
2
-8
0
-8
-2
-5
-3
-6
-1
0
-6
-4
-1
-5
-1
-2
-5
-3
1
-2
-1
3
-1
-12
-6
-10
-4
-1
-9
-2
-2
-11
-3
2
1
1
-3
0
-4
-5
0
-11
-1
-9
-8
-2
0
-8
-9
-13
-10
-11
-6
-5
1
-4
-3
-7
-8
-8
-4
-4
-8
-3
-12
5
-3
1
-3
-4
5
-1
1
4
-2
-1
-10
-7
-6
-2
-8
-2
-7
-5
-10
2
-1
-2
-10
1
-4
-3
-6
-4
-11
-1
-13
2
-1
-9
-2
-11
-16
-5
-8
1
-11
-6
-9
-2
-5
0
-6
-9
0
-9
-7
-7
-3
-9
-7
-13
-10
1
0
-10
-2
-9
-3
-3
-2
-7
7
-6
-6
-3
1
-9
-7
-5
-7
-7
-6
-9
1
-4
-3
-5
-6
3
-3
2
-3
1
-1
-4
1
4
1
-6
-6
-8
-6
-16
-7
-8
-14
3
-8
3
0
-7
2
-6
-13
-12
-7
-3
-5
-7
-9
-9
3
-6
-9
1
3
1
-2
-2
-3
-2
-1
-2
-3
3
3
1
0
-5
-4
-2
-2
0
-2
-1
-1
-4
-2
3
-2
-5
3
-4
2
3
-2
-2
4
-2
-4
-3
1
4
-9
-5
-12
-6
-8
-4
-2
2
2
-1
0
-1
4
-6
0
2
-4
-4
-3
5
4
4
4
-5
2
-3
1
-6
-4
-3
-2
-6
-2
-1
-1
0
2
-7
-7
-11
-12
-9
-11
-7
-7
-3
-6
2
-5
-10
-8
-3
-6
14
-5
-3
19
10
16
10
-5
-2
-2
6
-2
2
6
-4
2
-7
-23
-73
-7
-15
-7
9
0
13
8
3
-5
3
5
-3
0
2
-1
-10
-27
-12
10
2
-4
23
18
14
7
8
11
10
12
7
10
7
4
21
1
-15
13
-3
1
-10
0
29
2
-5
-12
4
4
15
0
-4
10
-30
-11
-8
-6
20
17
-54
-32
5
-14
-44
-53
20
3
-5
6
-13
-23
-13
-5
-31
3
13
13
-3
-15
-5
6
0
4
-1
0
2
3
5
-5
14
1
-2
19
-10
-3
-7
2
32
-55
-39
-6
5
11
4
-16
-12
-5
42
20
-3
43
8
-1
9
-6
-9
0
-2
-4
1
-4
-1
2
5
-4
-4
2
-5
3
4
3
4
-2
-4
-9
-6
-6
3
0
-2
3
6
2
-39
-10
-36
-13
5
-12
21
15
1
-1
-6
-3
5
3
1
0
4
2
2
4
-2
1
3
-3
-3
-7
3
-12
2
56
-5
21
35
-6
5
12
-58
-20
-57
5
-7
13
32
22
22
-20
-25
-54
14
-10
-23
-9
-5
14
11
1
-2
16
5
-3
-14
1
-21
-32
-46
-49
20
9
9
11
18
1
25
18
23
21
5
-11
-11
-11
-9
-101
-64
-41
-20
-11
5
1
1
-5
-2
0
3
-5
-4
5
0
-2
5
-28
7
50
-6
1
18
17
27
25
-37
-40
-24
-4
-6
-8
-4
4
6
-3
8
9
12
7
5
-2
1
-2
3
5
-2
1
8
2
0
-3
1
-13
5
36
-2
2
29
1
3
26
4
3
-4
6
1
4
-6
3
1
-7
5
3
3
2
-2
0
1
-5
-2
7
2
-17
-20
-9
-16
-35
-11
-22
-43
-45
7
-3
5
24
13
-3
-4
1
46
32
10
11
17
14
37
-2
-11
-17
-25
-41
-72
-6
-37
-79
8
-7
-7
-13
-6
5
-45
-29
-14
-10
20
40
-12
8
-2
-16
-1
-10
-128
-88
-38
-63
1
16
-11
-16
15
-39
-7
-5
9
7
22
37
19
21
-28
-11
2
1
-20
-13
4
-6
9
-128
-68
-43
-29
5
1
-9
-15
-22
17
12
7
8
-1
-15
-7
-12
-24
-15
10
-42
3
-25
-17
12
7
6
13
17
38
-11
12
2
-4
8
1
33
34
23
7
-3
2
-22
9
-3
4
-1
1
-5
-7
-5
-7
-5
2
12
17
-4
2
-11
0
-7
-1
9
-23
-18
-40
-32
-24
-20
0
-8
14
26
19
47
22
-12
-6
-52
-74
-71
-3
0
3
-2
-2
-3
-4
0
-1
-3
2
-3
3
0
-3
-6
2
-4
-5
0
6
1
4
5
-6
4
4
-1
3
-3
-3
-5
-4
9
6
-5
18
22
9
3
-1
13
0
-2
-3
-2
-2
1
1
1
1
0
0
-6
5
3
-2
0
1
0
-3
-5
-5
5
-11
11
6
6
9
-13
-1
9
45
14
2
15
-4
21
22
14
45
-54
-42
28
12
11
35
20
25
44
-6
-3
3
20
9
13
-19
8
28
-5
-1
0
1
0
-4
2
-1
2
8
11
6
16
6
-2
22
13
-12
2
-2
-3
-2
-5
-3
1
-1
-3
-11
-26
-3
-13
8
3
-8
12
1
-5
-4
1
-4
3
10
-1
-9
-4
6
7
11
20
8
-12
-13
-26
-71
-29
-25
-5
1
-7
1
33
18
-4
-28
-41
-31
-5
5
-4
-19
11
-45
47
-8
-12
24
7
8
28
18
15
-16
-11
-1
12
9
35
2
8
34
2
6
2
2
3
4
4
3
-2
27
-5
1
25
2
-34
7
4
-67
7
-34
-23
3
-5
3
-26
-3
28
28
18
-6
0
11
-2
30
32
38
1
-4
4
1
2
-6
1
-6
0
-1
1
-4
2
-4
3
-2
4
2
16
12
9
5
4
2
7
3
2
-4
-19
-13
-21
7
-6
-14
0
-29
-5
5
-1
-3
0
-3
-3
3
-2
3
-6
4
-3
2
-5
1
-3
-2
22
4
-6
20
13
-4
-57
-14
-65
4
-39
-81
-20
-30
-38
-77
-47
-73
-1
-7
19
-7
-20
-24
25
26
-19
13
8
4
-1
19
20
-55
-36
-93
13
2
7
19
6
4
21
21
25
10
6
43
2
0
26
-35
-27
-10
-18
-22
-9
3
0
13
-3
0
27
-8
-3
10
-2
-1
2
-11
7
7
30
8
-15
-6
14
-10
-82
-39
-25
12
-22
6
7
13
-17
-17
-2
9
2
-5
1
1
-5
3
5
6
-5
-1
-1
1
-5
-4
5
4
0
-1
10
24
0
12
4
-5
-26
-6
-12
1
-1
-4
-4
-4
2
8
5
1
4
9
10
9
2
8
1
-1
6
21
19
28
-7
-7
-32
-28
-31
-78
-42
-8
-13
7
6
31
-7
2
29
-15
-33
-17
-9
-14
-19
-44
-60
-79
-18
-4
-15
-17
-10
-35
4
-8
-3
1
34
36
4
20
26
-11
-18
-66
50
39
12
9
2
-6
-98
-34
-40
-80
-49
-11
-11
17
4
1
-8
-5
-11
-25
-50
-23
14
-23
-56
-9
-30
43
16
-27
3
-27
-5
17
0
26
-17
-17
-29
2
8
3
18
2
8
24
-6
16
10
15
3
-47
0
-53
27
21
36
2
-17
-5
-10
0
-30
5
1
-17
-10
16
38
-51
-26
-25
39
30
19
3
-20
8
-128
-102
-93
-5
-5
-6
-9
-4
-1
0
-5
-3
-1
-5
32
-12
-19
3
-4
-13
-12
-19
5
15
18
5
-2
8
3
28
29
20
17
5
-4
2
-72
-18
21
-1
-2
-5
4
1
6
-3
-3
-1
-3
3
-4
5
-3
-2
-3
2
-1
1
-5
-4
-1
1
-2
-5
0
5
4
7
5
3
-1
4
3
4
4
28
24
18
15
-11
25
-20
-7
-28
5
-1
4
-3
1
2
0
-1
0
-7
1
-5
-1
9
1
-1
-4
-4
-6
6
14
-28
-10
-3
-4
-6
0
22
-22
-83
-3
-15
-31
-104
-97
-77
-41
-17
-25
29
23
-31
-53
-7
-55
-12
19
29
23
20
7
34
12
30
-3
1
6
2
-4
-1
-4
-1
-1
2
12
-10
9
6
-22
-9
-22
-40
2
-5
-2
0
1
6
1
-1
-2
-13
2
-1
1
16
-16
-15
-13
-25
-8
4
7
-5
3
10
-7
2
5
19
8
-7
27
16
-11
-53
-70
-128
-5
13
29
17
6
1
-2
-5
-32
-33
-22
-24
-32
-6
-24
-23
0
-16
36
20
10
29
6
3
49
8
-7
24
-6
26
10
11
29
31
24
38
-1
3
-5
1
5
2
-1
0
1
29
1
-24
19
-14
-38
15
-27
-7
-13
-27
-1
-23
-22
22
20
10
49
-2
2
3
29
-6
-8
19
-14
-1
2
4
1
0
3
3
-2
0
4
1
-2
-1
-1
-1
-3
4
-1
6
11
4
3
7
5
7
6
8
-1
4
18
21
2
12
17
-35
-44
-35
3
-1
-4
-2
2
-3
3
2
3
2
2
-1
-2
-2
1
-2
5
1
-16
4
8
15
8
-16
11
-12
-40
12
7
-4
-2
-1
18
19
12
12
-9
-10
-21
14
8
-14
4
-7
-24
14
9
6
23
26
1
-50
-17
-60
11
-12
-21
3
-7
9
34
43
35
15
12
3
11
21
4
3
17
3
5
-23
2
21
-12
-1
48
26
39
4
0
2
-2
-5
-2
-5
-1
-1
-13
4
-1
-23
-22
1
-37
-52
-43
-11
-2
6
3
-2
5
31
4
10
2
4
11
8
9
7
-2
5
2
-1
-2
0
3
-4
-4
0
-3
-4
-5
-7
-2
-19
-11
11
-8
5
11
5
4
4
4
-1
2
3
4
2
2
-3
-3
5
1
3
-4
-3
0
-8
4
-15
-16
-8
-37
-38
-92
-95
10
-4
13
29
-6
38
48
40
38
-27
-8
-4
7
-2
-21
6
-13
-20
-8
0
-11
-18
-19
-6
-12
-14
28
-16
5
16
-10
-4
-13
-58
-20
-31
-20
-6
14
4
-16
-6
-31
-31
-27
-12
-1
20
22
-4
8
23
6
-2
-23
-22
-25
-37
-12
-2
-17
-24
2
-6
-28
-26
-18
-37
17
-8
1
42
-15
18
-2
0
3
-1
49
4
31
6
14
6
-1
6
-2
-16
-3
-22
-9
9
-13
3
3
-15
28
9
-23
-13
3
35
13
13
22
-10
-17
8
-5
-1
-11
13
16
16
-24
-27
-35
-2
-2
6
2
-1
6
1
4
6
0
-9
-9
3
3
4
10
9
-10
-4
-13
16
21
20
30
15
26
39
-21
-17
-43
-1
4
-27
-25
-1
-25
-1
3
4
-4
0
2
-2
-3
-4
-2
-5
-3
2
-4
5
-4
1
-3
4
-2
-2
3
-3
3
4
4
0
10
8
0
8
2
5
-5
4
-4
-6
7
1
-6
0
-14
9
16
8
-6
-1
0
-4
0
-2
3
-2
2
-6
-6
4
-1
-5
-4
-10
-3
-2
2
13
22
24
3
4
11
6
8
20
7
-30
-23
-31
-23
-16
-35
-7
-14
24
10
-23
2
4
7
16
18
-1
3
15
-15
-1
-6
-1
-1
2
2
-4
3
0
2
-3
-4
-1
2
-9
14
1
-11
6
-2
-9
-5
0
2
2
0
-1
4
0
4
-5
2
-6
-5
-2
-14
-19
-10
-19
4
5
-5
-1
-2
3
-4
-4
-2
-1
1
-13
-3
7
-10
-1
1
-8
-2
-15
-12
8
7
-14
1
16
-4
-15
-5
-5
1
0
1
-11
-3
-3
-10
-7
-9
5
-12
-7
-16
-1
-13
-5
-16
-19
9
11
-3
8
6
-7
-12
-13
4
1
1
3
3
1
-3
-2
5
-9
1
0
-14
-7
-12
8
-8
-2
-1
-1
5
10
1
-5
-7
-12
-1
-3
4
5
-14
-12
-10
-9
5
-2
2
-3
-1
5
2
3
-2
0
1
-1
-2
-4
-3
4
-3
3
-5
0
5
5
-1
3
-2
2
1
-5
-4
-19
-18
-11
-15
2
-2
5
-9
-11
-1
1
2
-1
-3
1
3
0
-2
-5
2
3
-5
3
-4
-3
0
-1
-14
-14
-8
-4
-11
-5
-3
10
-4
-8
-7
-5
-11
-1
-9
-3
-3
-3
-13
11
-4
-27
-1
-5
-14
-15
-12
-14
4
8
0
12
4
-2
-13
-10
-8
2
-7
-14
-4
-4
-12
-8
-13
-17
4
10
-7
-22
-11
9
2
4
-10
-11
-4
-4
-3
-5
-17
-10
0
-3
0
-4
3
-2
-1
3
1
5
-3
-4
10
-7
-11
-8
-3
1
-9
2
-18
-3
-8
3
-3
-6
-15
-12
5
-1
1
-3
5
1
2
3
2
-4
-4
-1
5
-5
0
0
5
4
-2
-1
32
7
-7
0
2
-3
-17
-1
-3
-5
-1
0
-4
0
2
-1
1
2
3
3
-4
-2
-2
2
-4
-20
5
9
-2
17
12
2
-14
-15
-12
-7
-8
-6
-12
-13
9
5
-8
-16
9
-11
-11
-11
-4
-2
2
-13
-13
-7
-2
-12
-9
-9
-10
-3
-4
-14
0
6
1
15
11
2
-2
-2
-10
-13
0
-13
-1
5
-9
0
-8
-15
1
-4
-7
7
0
-8
-1
-9
-10
6
-1
0
7
-1
2
-4
-4
-3
-3
-11
-9
5
0
0
-15
4
-18
-20
-11
-8
-3
1
-13
-16
-22
-12
-3
-2
-9
1
-11
7
2
-17
-9
8
14
-15
0
5
-13
-25
-10
-17
-2
-6
-6
-1
-10
0
2
-11
-5
-19
-6
2
-11
-8
-4
-7
-11
-3
-4
-5
-1
3
1
1
-3
-4
9
16
9
-11
-1
10
-4
8
-2
-25
11
2
-11
4
-1
2
-9
-6
-21
-4
6
10
-8
-11
17
-2
0
3
-3
3
1
2
5
-5
4
-3
-4
-2
-4
-4
-4
-4
0
1
0
-2
-5
2
3
-5
-2
1
-4
-5
2
-3
3
-5
-1
-2
-1
-5
-3
-3
23
10
-17
11
7
-15
-8
-9
-1
-2
-4
-2
3
-1
5
-2
5
4
-2
-2
-5
5
-4
3
3
-2
0
2
4
-3
-16
-11
1
5
-8
-19
3
-4
-8
-8
-9
-14
0
-10
-6
-13
-4
5
-22
-1
8
-8
-4
18
12
11
19
-3
-39
43
40
-35
-3
3
2
-2
2
-4
-1
-1
-5
-21
-27
25
-2
-20
28
-16
-26
18
4
-6
3
-5
3
3
3
-2
-4
-43
-7
-16
-13
-5
7
-28
22
22
-6
-4
-8
-10
-9
-11
-4
-11
-1
-9
-31
-13
8
-3
-10
37
-2
-89
9
6
25
-17
-9
-19
6
-42
-128
2
4
4
-8
-16
-5
-2
6
4
-19
-4
36
-30
14
-43
-15
-5
-73
14
15
13
29
1
-29
59
36
-128
0
3
4
4
5
3
-2
-3
5
-18
-3
11
-28
-12
11
-21
10
29
34
3
-47
15
7
-101
29
13
-72
-11
-7
-4
3
-35
-20
-6
-1
-19
-1
-5
2
2
-6
-6
3
-4
-6
-2
-6
-4
0
3
-1
-4
6
-3
-4
4
7
-1
1
2
0
-2
3
10
8
40
7
-8
27
34
11
-14
3
-2
2
5
-1
5
3
-3
-5
2
2
-6
-3
-3
-2
3
3
2
25
23
10
-15
2
-9
-11
14
-49
10
16
47
24
15
75
26
36
44
-11
-9
9
-46
-22
24
-43
-4
35
30
-17
-42
39
-18
-35
35
-13
-68
-25
-18
23
-27
-15
2
-2
0
-50
-6
21
31
17
3
20
-9
-19
-8
32
15
-5
6
-3
-21
25
0
-35
7
9
7
0
5
5
1
5
8
13
-4
-17
-1
16
-21
-12
-4
-80
9
10
-15
-14
-16
-82
-12
-31
-128
-6
-5
-1
-5
-7
0
-2
-2
-5
-5
-5
-5
-4
2
-2
0
-1
-4
22
2
-26
20
-12
-75
18
-5
-113
3
-1
2
-3
-6
-1
9
-1
4
-4
2
-7
-3
0
-4
-5
4
2
-6
-28
8
-16
-15
-12
-10
-27
-72
31
25
58
27
22
31
56
57
-5
9
-9
12
4
-3
-7
-1
16
-53
-36
-20
-10
-65
-6
0
-41
-3
12
30
15
-21
14
-36
-17
-1
-55
-103
-6
-3
-2
-20
-1
-15
-4
6
-36
25
10
4
16
-21
-12
35
-6
-60
21
10
0
3
5
-10
6
31
-10
-16
-57
-12
-31
-60
-45
-38
-55
-41
25
14
-4
21
1
-16
53
19
-7
-8
-5
20
5
-9
30
3
-18
-12
3
-15
-10
12
-3
14
-17
-11
14
41
37
24
16
18
-5
44
48
-2
-1
-11
-16
-1
-29
-21
26
-4
-42
-7
4
-4
-3
-7
4
2
-2
-2
-11
-5
-15
-6
-27
-1
-6
3
30
2
-13
0
-31
-37
-23
17
-59
-33
-8
-11
-36
-24
-49
-61
-13
-24
-53
-4
-4
4
0
-8
-2
-2
2
3
-3
-3
4
-5
-4
0
-3
-2
4
-3
-6
3
-4
-1
5
1
-4
1
6
5
0
-2
0
3
2
5
-1
17
2
-2
-2
-26
-6
0
-10
0
0
0
-5
4
-6
-9
2
-4
-2
-4
-4
2
-4
2
-3
-3
-2
-3
18
16
17
-17
19
-2
34
36
-90
18
18
22
14
15
37
-4
53
79
40
-6
25
30
12
-35
29
32
-70
-5
-31
-56
3
9
-96
-13
2
-28
-5
-5
0
-5
3
2
-5
-6
-4
9
-10
-1
1
0
8
-38
-21
-31
-4
1
2
3
0
-3
3
3
-4
-3
-9
16
-12
-10
11
-9
-10
-31
-2
2
-3
-2
4
4
5
1
5
-26
-38
-40
-34
-59
-128
-65
-89
-118
17
-11
-24
-26
-42
-24
-9
-45
-37
-3
-9
13
-2
-26
0
13
0
7
11
-25
48
-71
-40
48
-44
-31
-44
4
-20
-20
-34
-13
-83
-43
-45
-67
4
1
5
-4
4
-3
0
-2
2
-24
0
78
-33
-8
28
-20
-26
-5
-22
21
24
-52
-43
-4
-21
-40
-7
23
-20
-15
-14
-25
-37
-22
-2
-55
3
1
4
5
-6
3
-4
-2
6
-3
2
-6
-2
5
3
0
3
3
3
0
-7
-6
-1
-5
-5
-10
-1
29
-1
-28
17
27
47
23
14
-39
3
6
1
-2
3
6
3
2
2
-3
2
4
1
4
-3
-1
-1
0
-16
26
21
5
13
11
19
-12
11
-30
34
19
34
-19
24
10
40
-14
0
15
50
-9
-10
20
-14
-28
2
-46
-35
-22
-10
-39
-16
-21
-38
-5
-15
-43
11
-11
-72
-113
-5
-71
-116
-34
-8
0
-48
-13
-8
-60
-16
-105
-12
-12
2
-3
-17
-29
7
-3
-56
6
11
6
5
6
10
4
6
8
-12
19
19
34
-8
12
7
4
-62
18
12
29
-44
-30
-27
1
-58
-99
0
-3
-5
-2
2
10
2
3
4
5
-2
-1
3
0
-4
0
-3
2
22
2
12
-14
0
-12
-34
2
21
-2
1
4
-4
3
1
-6
3
3
-3
-2
9
1
8
-2
-2
1
-1
-22
-46
-36
11
-31
-44
5
-54
-25
-9
-6
3
-15
-4
-38
1
0
-22
-7
16
12
6
32
31
39
18
-42
-13
-8
-12
-6
-15
-15
-11
-4
-4
13
-1
-25
19
31
-13
4
-5
-13
-43
20
12
-8
-12
2
26
-16
13
-1
-15
-11
0
-45
-32
6
-31
-62
2
2
21
17
-26
2
22
-20
-51
26
22
55
-10
-33
6
-27
-19
-12
8
-31
2
-11
-11
13
-8
-25
-24
-8
14
0
-16
1
26
4
-1
-16
25
10
29
-11
3
7
-3
-9
-4
-12
13
2
-2
14
29
4
-5
6
-33
6
10
-17
36
-1
-12
-50
-113
4
0
-5
0
-3
1
2
-1
2
-29
-26
-6
-11
-22
-67
-1
-50
-128
-1
-1
1
-17
-32
-50
2
-48
-93
-20
-56
-4
-29
-47
12
-52
-77
-106
-2
0
-4
-1
0
5
-2
3
-4
-4
-5
2
2
3
5
-3
-1
1
5
4
0
-2
-3
-3
-1
5
4
1
3
-4
5
0
-2
-3
-2
-5
-4
10
25
-16
-1
2
-9
8
11
-3
-3
3
4
-1
1
-1
3
4
0
3
3
-3
2
5
2
3
-5
6
12
4
-24
-22
-4
-8
-25
-23
16
15
38
-23
-18
44
22
-15
-20
19
28
70
2
4
44
23
-41
-30
5
-7
-7
-12
-5
2
-34
26
-6
2
-3
-1
3
-5
0
-1
2
0
18
7
20
5
-4
-10
11
4
-9
-3
3
1
6
1
3
4
-4
2
-8
-16
11
-7
-15
-18
-8
-14
6
3
-1
7
-2
-1
5
-2
-2
5
3
0
13
-32
-13
-34
-75
-117
-128
24
10
33
9
-2
-11
6
-8
-128
6
-28
-32
7
-29
-19
-128
-24
14
1
-10
48
3
1
20
5
-39
-35
3
2
25
-7
11
-2
-3
-1
-74
-4
5
5
1
-1
-1
1
1
-2
26
-12
24
29
0
12
-65
10
31
10
10
-8
15
15
21
-13
7
4
22
-7
-11
1
-15
12
-29
-5
-6
1
-3
2
-3
2
-3
1
2
-5
0
-4
2
2
0
3
3
0
3
0
-7
-4
-1
-6
-4
-8
-5
-1
3
-1
2
-1
7
9
-9
-4
-23
4
-3
5
-7
-4
3
0
-3
-3
3
3
0
-2
0
-1
-5
5
3
17
4
29
22
24
18
-8
-4
-43
32
18
34
33
48
41
-18
-13
13
40
10
24
18
13
21
-5
2
30
2
10
0
-58
-20
-37
-38
-85
-91
2
12
24
15
-13
-11
15
0
-9
26
19
2
5
13
13
-42
0
-6
-13
-3
-6
-22
-11
20
-23
3
6
-2
2
0
8
-6
7
2
-6
-8
0
4
4
0
34
-23
-60
-82
-128
9
6
29
0
-19
-9
-36
-59
-64
-3
3
0
7
10
-7
6
-1
5
-1
0
3
-4
3
-2
-2
-3
2
15
-6
-23
22
17
16
19
20
-36
3
2
0
5
-3
4
-1
5
-4
-5
2
13
6
1
3
5
6
2
-1
-5
7
-20
7
-25
-17
-43
-90
8
8
20
-9
-1
26
-13
15
20
23
26
36
21
19
6
13
-29
-69
-2
-16
-23
1
2
-14
0
10
7
-3
6
-13
-29
12
-26
-8
-25
-48
10
3
-30
-10
19
1
-51
0
-30
7
21
18
-22
-19
-10
-67
-44
-17
15
17
29
13
19
-13
-40
-52
-54
-7
-32
-20
14
14
38
13
15
6
6
-11
-15
-32
-14
2
-35
2
26
1
5
-29
-5
3
-18
-41
-23
15
25
-3
15
16
-2
14
8
8
8
-6
6
4
-2
18
26
-29
27
-31
-14
-10
-27
-34
-8
8
-128
-118
-93
8
2
-3
-1
4
7
3
3
5
27
4
17
6
13
15
-13
7
-21
5
19
11
-17
-11
11
20
-4
-27
-14
-28
-45
-43
-20
-53
-90
-63
-31
-1
2
6
4
7
8
-2
-6
4
-2
4
-1
4
-5
-5
1
5
0
-5
-4
2
-4
-5
-1
1
0
2
-3
2
-5
-1
-5
4
-2
0
4
-2
-14
-17
3
-1
5
-9
3
7
-4
-2
-2
-9
-6
-1
-8
-7
1
-2
3
1
-1
-1
5
3
-2
-7
36
25
56
-15
8
18
-58
-29
-42
-7
11
35
-10
9
25
-31
-35
23
-9
15
15
-9
11
7
-18
-28
-11
-15
-12
-15
-6
-6
-16
-22
-9
-3
0
-2
-5
2
0
1
3
0
-1
14
-7
-2
24
-7
-5
48
12
36
-4
-1
-3
3
4
6
1
5
-3
9
-20
-34
37
17
10
67
10
17
8
7
-6
-1
-1
5
8
-13
-6
10
-7
-10
12
-11
7
-6
-7
21
-3
-9
0
0
-10
-2
-11
-15
-31
28
-10
4
-8
-23
-44
12
-43
-42
-2
-10
-12
10
8
12
-38
-31
8
15
-3
2
-1
1
41
-102
-89
-94
6
-3
1
-3
0
4
-6
1
-3
8
-14
-19
25
11
-10
38
19
-16
47
34
22
8
-32
-16
-14
-69
-108
-11
-12
-22
-9
-10
-16
-6
5
18
-1
2
2
0
-1
5
-3
1
6
4
1
-4
-4
3
4
3
1
3
-6
-5
9
0
3
7
4
-2
7
-13
13
-3
15
6
-15
53
16
22
3
-1
1
1
0
4
-8
-1
3
-3
-2
0
-5
2
-5
4
-4
3
-37
-16
-25
8
23
13
21
24
11
-33
-23
-3
-35
9
-41
13
-3
-28
-34
-28
-23
12
-2
-27
29
3
4
24
-12
-2
11
18
11
20
0
0
4
1
21
-12
0
20
-48
-51
-19
0
6
-6
11
2
11
43
4
15
20
10
14
11
9
21
-59
-14
14
1
-4
-2
0
1
-2
-2
6
-4
9
22
16
10
26
40
17
1
1
2
-9
12
-10
-8
30
0
-15
-60
-7
5
2
-7
-4
7
-7
-9
-2
5
3
-5
2
-2
-3
5
-3
-2
20
22
30
1
-18
-17
-35
-69
-128
-4
3
-2
3
-2
4
-4
-4
5
2
-2
4
-2
7
-3
4
-3
-6
11
-8
1
10
13
11
12
18
8
0
-2
0
-25
5
-14
-31
-16
3
11
29
15
15
23
25
31
-3
-13
-32
-18
-5
-25
-18
-12
-2
-11
-4
10
4
1
16
5
33
-7
-8
4
-3
-4
-12
0
9
-17
1
17
-13
11
0
-10
15
9
5
-10
11
12
13
3
16
9
8
-16
52
8
-3
12
3
-26
-33
-35
-94
-37
-45
-128
4
9
4
18
10
2
-11
-16
-4
-39
-26
1
24
20
-8
29
11
4
-1
-2
24
9
16
-6
18
-4
-14
-12
-5
-18
5
15
-4
-21
9
-1
11
-4
5
5
-45
-44
24
-8
-3
2
1
3
-2
-5
10
3
-5
-2
11
0
-4
6
-7
-18
32
8
17
29
20
39
-11
-51
-20
-41
-84
-123
19
-6
3
13
-19
-26
22
25
-5
3
-2
-3
-5
-8
-2
-2
0
11
1
2
-1
1
0
-2
-5
4
-2
0
-3
1
-2
2
-3
-4
0
-2
-2
-1
4
-2
-2
-3
-1
-1
0
13
-12
6
14
7
-4
0
-17
-17
-4
3
0
1
2
-2
-4
-1
1
5
-2
2
3
-6
-4
-8
8
-10
3
1
-16
23
18
13
-17
-3
10
-4
19
39
0
26
-23
11
13
8
9
16
1
-2
-13
-17
-37
-14
-70
-8
-10
-9
-11
-9
9
1
-7
-4
-4
2
-2
-3
-2
1
-3
3
-1
-10
-6
-11
0
-7
-4
1
-8
1
4
-4
4
-5
4
-4
-4
0
4
-8
1
-11
-3
-3
-2
-12
-10
-7
3
-3
-4
-5
-1
-2
-3
4
3
-2
0
-7
1
-2
-4
-4
-11
-6
1
-6
6
-9
-5
4
-4
-1
1
-6
-3
-9
0
-3
-11
-8
-1
-13
3
-8
0
0
-15
0
-5
-9
5
0
-3
0
-12
-2
0
-9
1
-3
-1
4
-4
4
3
5
-1
-5
0
-7
5
1
2
-2
3
-8
-15
3
2
0
-3
-3
-11
-8
0
-10
-3
-6
-8
-5
-5
-1
3
3
3
-3
2
4
1
2
0
3
-4
2
3
-2
2
5
-2
-3
4
6
2
-1
-6
2
3
2
-3
0
-3
-1
3
-8
-9
-11
-5
-1
-9
-4
-12
6
-3
-5
-1
2
3
3
4
3
-1
2
-1
3
4
-3
4
3
5
0
-10
-8
4
-5
-7
4
-9
-11
-1
-7
-9
-7
-6
-2
-14
-5
-7
2
2
0
-11
-6
0
-10
-3
-3
-11
-10
-7
-3
4
0
4
-6
-3
-12
4
0
-1
-4
-7
-9
1
-4
-2
-12
-9
-7
-1
8
7
-6
-8
-7
1
-1
-2
-2
-9
-4
0
-7
-1
5
-2
4
2
-2
-2
-2
5
-4
-5
-5
-11
-1
-9
-8
-4
-16
-4
-6
-9
-3
-1
-9
0
-5
-2
-3
1
-5
-5
0
0
0
5
0
3
2
-2
2
5
2
4
-1
4
1
-5
-12
-7
2
-12
1
-3
-8
-5
-1
0
-2
4
-1
-2
-2
1
0
5
4
5
0
4
3
5
2
-4
-5
-5
0
5
-3
1
-7
-2
-9
0
-4
-3
-1
-7
-2
-7
2
-3
6
-8
-3
4
-8
3
-4
-9
-5
-4
-7
-5
-11
-9
-11
-8
-10
-9
-4
0
0
-6
-13
5
1
-4
5
-2
-5
-10
-6
-10
-9
-2
-14
3
3
-8
-5
-2
-3
-7
4
2
-8
0
-4
2
1
3
-6
1
-3
-10
-4
4
6
-3
-5
-1
-6
2
-5
-6
3
-7
-5
-1
-9
-5
3
-10
-9
-5
0
-2
-8
1
-10
-16
-1
-8
-9
-6
-6
4
-9
-6
-3
-7
-8
-1
4
-3
-5
0
-1
-2
-1
-12
-7
-8
2
-4
-8
-3
-2
-10
3
4
5
-2
4
-2
-3
-5
0
-8
4
-11
-2
2
-5
6
-6
-6
0
-7
-6
-11
6
-1
-12
-1
0
-10
-5
-10
2
0
3
2
-8
-7
0
1
2
1
1
-3
0
2
-2
3
-5
-1
4
4
4
2
-4
4
-4
-4
-2
4
-1
-5
1
1
-3
-5
-4
-1
-2
4
-4
2
-5
-5
-9
-14
-5
-5
7
-2
-2
-9
0
-3
-1
2
2
-3
2
-2
0
3
4
3
-3
-3
-4
-1
-3
-4
-3
-6
-6
-7
-3
2
5
-3
6
-1
0
-7
-1
0
0
-2
-11
4
-3
0
1
-6
1
-3
-16
0
6
-2
2
-19
-24
-29
-24
-32
-32
-19
-23
5
-2
-4
0
-4
1
-1
3
0
1
-17
-31
14
-31
-44
40
9
-24
2
5
5
-7
-2
-1
-1
0
0
21
-18
-23
28
-16
-16
30
-38
-32
-1
-2
6
-6
-9
-3
5
-2
0
8
-16
-16
-1
-13
-35
30
10
-16
-19
-25
-24
-8
-12
-23
6
14
-11
0
4
11
38
43
25
50
33
12
26
-40
-44
15
6
-38
22
27
-50
-25
-1
-27
6
17
-56
21
21
-7
-5
2
0
-2
-3
-3
-6
-2
-3
24
18
19
19
17
22
60
13
-6
3
-6
-7
13
19
25
0
10
1
31
-17
-49
20
8
-56
11
-12
-15
1
-3
1
5
-3
-1
-4
-4
0
1
-2
5
0
-4
4
3
5
2
5
-6
-2
4
-2
1
3
-6
1
-6
0
15
-16
-4
2
17
-2
-15
1
4
3
1
0
-2
8
3
1
3
-2
6
2
3
-3
4
5
1
-60
-19
-13
-18
-26
-3
-18
-23
-23
-21
-29
-45
-28
10
4
-17
10
-9
23
26
29
3
-2
-2
12
-9
-12
-6
-2
-41
-2
-10
-17
29
20
-11
32
-25
-41
43
0
3
15
-12
5
16
11
-9
3
-7
-8
26
-24
-35
-22
-20
-35
6
-13
1
-36
-45
-16
-1
-3
0
-3
0
2
1
5
2
-3
-30
-38
-21
-36
-41
-33
-3
-21
-1
-24
-22
33
7
1
4
14
21
4
0
0
0
5
3
9
2
8
-6
-1
0
-1
2
-4
-1
3
-5
2
-23
-38
5
17
-35
-1
28
4
0
5
2
1
-3
5
-3
-5
-2
3
7
4
3
6
6
13
0
-6
15
-11
8
9
11
18
17
3
25
-5
-31
-46
-3
-4
-34
-2
-26
-35
-37
-19
-1
-14
-9
40
26
11
-26
-5
-2
0
-26
-14
-9
-14
-19
-12
-17
-9
-16
-1
-11
-4
46
8
9
-5
2
7
-20
-7
12
-40
-20
-1
-56
-13
-14
-1
15
14
7
-15
1
-3
-28
-10
-1
0
-12
20
16
4
-7
-37
-22
-6
30
21
-44
-13
-17
-21
-1
-9
12
12
16
20
1
-1
19
9
-3
-10
5
5
6
-3
3
55
26
12
24
14
12
27
16
26
-47
-27
-23
-47
-43
-13
-58
-54
-30
16
4
0
-4
-1
13
4
-13
0
-2
0
0
-3
1
-7
3
3
3
33
-2
2
19
-16
-16
26
-2
-70
-6
-15
-32
-3
-6
-26
-4
-10
-29
34
16
-5
17
15
13
15
4
12
-6
-5
4
-2
0
-5
-4
3
2
4
0
-2
-3
4
-4
-1
-1
-4
4
2
-1
-2
4
-2
1
3
3
-5
3
-1
0
5
0
1
-4
2
35
11
1
11
12
10
18
15
20
5
8
2
-3
5
6
1
0
6
2
2
2
4
3
2
4
5
5
-29
-29
1
-8
-6
-12
-26
-27
-17
-3
-23
-41
3
13
-18
-5
14
-54
-58
-24
-21
-10
-22
-19
-36
-33
-32
-8
-13
-16
-15
-7
-10
4
24
4
-2
3
0
3
-3
4
-4
3
-3
-15
1
-14
-17
-21
10
5
-2
-17
1
-4
-3
-4
-3
-5
-2
-6
4
-6
1
-9
-18
-5
6
16
-5
-19
-5
-2
-6
3
-5
-2
4
3
6
-24
-13
-5
12
-14
-8
-4
-29
-16
1
-22
-2
-1
-16
-9
-8
-5
-7
-19
-12
2
-3
3
-4
-5
5
-9
4
-9
6
11
-6
-11
-12
4
-13
-1
-17
-6
5
-19
-10
-3
-13
-22
0
-5
2
-3
-2
-2
5
-1
3
-25
-20
-5
-16
-8
-9
4
-24
17
8
0
-11
-1
8
-21
2
-5
-7
11
9
-15
13
5
-14
-21
-17
-5
-3
3
-5
-1
2
-5
-3
3
-5
-2
-1
-5
3
4
0
-4
-2
4
-2
-6
-2
1
-2
-5
-4
-2
1
-2
16
5
-27
-3
2
-2
-8
4
6
3
5
1
3
-1
0
1
-4
-4
-1
-1
-6
-5
-1
-5
-4
-3
-22
-14
-6
-6
2
1
-7
-3
12
-5
13
-5
-6
0
-31
-9
6
-19
-5
-9
-14
-15
-14
-10
3
-9
-5
-32
-6
-28
-8
1
-11
-10
-12
-12
9
6
-1
5
8
14
5
8
-4
-10
-1
-8
-2
-17
-5
-13
-10
-2
-8
5
-7
-3
4
-14
-1
19
-2
-2
2
0
-5
1
4
1
-1
1
14
13
5
-13
-9
-16
3
-10
-8
20
-14
6
7
-6
-11
14
8
-14
2
-1
3
5
-1
-5
2
2
-1
0
3
0
5
5
-5
5
-3
-4
9
-4
-11
5
0
-7
13
7
-13
2
1
2
-5
0
2
3
4
-1
0
-2
-2
3
3
3
2
-5
0
13
9
-10
-13
-6
16
-22
-5
-13
5
16
-8
2
-2
-13
-20
-5
-1
-5
-9
6
-3
-29
-24
-11
-27
5
-15
-24
-23
-22
-28
-14
-24
-24
-34
-22
-22
-18
-28
-11
2
-9
-16
-14
-32
5
0
-13
4
-11
-8
12
0
-2
10
-10
5
13
12
8
-4
2
1
3
-16
6
4
-1
-8
-1
20
9
-15
-3
4
-22
14
13
-6
-14
-2
0
-11
3
2
-11
4
0
14
-12
-21
-14
-10
-9
-10
-20
-21
-6
19
-3
-11
-11
0
-4
-11
-11
-15
-14
-21
-7
-9
-25
-14
12
1
-9
-29
-12
-7
1
-8
4
5
-16
-8
1
-1
2
2
3
2
-4
0
-2
-18
-21
1
-19
-1
9
-13
3
1
-2
-14
-16
-1
-18
-1
2
-27
-2
-22
-23
-20
2
-9
3
-17
-12
4
4
3
0
6
-4
3
-3
1
-1
-4
-4
5
-4
2
4
-2
0
5
-1
-2
3
4
3
-2
3
4
-5
4
-4
-1
0
-2
-6
3
-3
5
-21
-30
-11
-23
-16
0
-7
-35
-12
-5
0
1
5
0
2
-1
2
0
1
-4
0
2
-2
3
4
-5
-3
-3
-9
-9
0
-15
-12
-4
-3
1
5
9
1
-9
-1
-8
-29
12
0
22
2
-8
17
-4
3
-2
-3
31
-4
-26
-34
-33
-14
-18
-48
-11
-2
-4
-1
5
0
-3
5
-3
3
5
16
12
19
-4
10
9
8
19
-15
2
-4
4
3
-3
-1
-2
6
-2
-18
-22
-13
-14
-12
-4
10
3
-4
3
-1
-1
0
0
-5
-11
0
-9
5
18
22
-11
6
3
-43
-26
-76
5
-17
16
20
12
17
1
-15
-29
10
-8
2
44
-35
-22
-3
-41
-33
6
-5
28
26
-2
29
14
-16
-24
7
-2
-15
-1
-13
-27
-20
-43
-109
-1
1
1
-5
-5
3
0
-2
1
-1
-30
11
18
-8
5
31
28
37
7
17
-19
1
-18
-19
-21
-42
-53
18
-18
-12
12
2
-1
-47
2
28
4
6
-3
-3
8
-3
5
6
5
-5
1
3
-3
0
3
-5
-6
-6
3
-4
-8
-6
1
-3
3
-4
-9
15
3
-22
12
-6
4
-27
6
6
3
-5
4
-4
-1
-3
7
2
5
-6
0
2
-1
3
-2
1
-5
4
-9
-12
24
-2
4
11
16
21
20
37
36
29
41
29
27
22
-2
4
-4
-28
18
2
7
16
23
-4
13
-1
-2
4
-8
2
-3
-14
23
-34
-8
-1
17
-11
-25
-16
-35
-31
-33
-7
7
4
17
16
-1
32
26
-2
-14
-50
-72
-8
-26
-11
-66
-31
-22
5
7
-2
-4
-3
-4
5
-1
-10
-26
15
20
-12
26
25
-1
36
23
9
19
10
30
22
8
9
-14
-52
-4
-3
-9
4
-2
-2
-1
-1
-10
-2
-4
0
0
3
1
-5
-1
-4
8
6
-3
2
-8
-11
-1
-14
-24
5
5
5
7
5
-1
-4
-1
1
-4
4
1
-2
-2
1
1
0
2
-1
7
1
-19
3
0
-17
-16
-61
22
-7
-28
-9
-21
-1
-71
-22
5
-2
-1
19
5
24
22
21
25
15
-4
-5
-34
-8
-9
4
10
19
-18
14
-1
6
-34
-12
28
-2
-14
-22
-15
5
-2
3
11
-6
-11
14
-10
-29
-11
-50
-24
-20
-9
-37
-17
-9
-15
-4
-1
12
24
2
-15
4
-6
16
24
13
9
-9
-32
16
-4
13
-1
-24
-35
8
-15
-5
-92
-32
-15
18
3
-1
14
22
23
26
9
-6
-7
-1
12
-4
-3
5
2
-8
-4
3
-14
7
-9
2
11
-14
8
12
7
24
13
-8
5
-10
-55
-28
-33
0
0
0
0
3
1
-4
3
0
-10
-3
6
-8
-1
-8
16
12
12
3
11
1
10
0
-10
13
-14
-38
-2
-2
17
-35
-18
-10
-28
-49
-91
2
-3
-1
1
-1
3
0
-8
1
-2
-5
5
-4
-2
4
4
-3
5
4
-5
3
-4
3
-4
0
-1
-3
-5
5
-2
1
4
-5
-4
1
1
-2
11
14
-12
5
0
0
-15
-10
-1
2
0
-2
2
-3
0
-5
-5
6
-6
2
-3
-6
5
-1
1
1
2
4
-4
6
-7
21
-10
2
-2
21
-10
4
24
17
28
19
-2
15
-26
-27
-2
-3
6
21
-6
22
31
16
-2
-20
-16
2
-13
26
13
12
5
4
-2
3
-5
5
-1
-4
-6
-1
5
9
-65
-55
-6
-75
-53
7
5
5
2
-2
-2
-3
-3
0
5
-20
-25
-14
-14
12
-32
21
15
12
6
12
9
2
-1
0
8
5
6
-15
12
13
-43
-6
6
-14
6
13
-5
11
36
-24
13
1
-26
-7
-9
1
-39
28
20
-25
28
-19
-15
-36
1
20
-26
1
9
-13
2
3
-23
-6
-4
-31
-1
-14
-12
19
14
-12
0
5
-1
-3
-3
-1
1
-6
1
-1
-4
36
14
12
-1
39
10
-7
-37
-2
-19
-15
-17
11
29
6
-5
-6
28
46
-21
12
8
21
7
5
-3
-2
-4
0
2
1
5
0
1
3
-3
-2
0
4
5
-4
-2
5
3
-7
-11
-9
8
1
6
3
0
22
3
-2
9
-7
-13
-70
-29
10
-5
1
5
-3
-1
0
-1
3
-1
0
-2
-2
3
-5
-3
5
-3
3
-1
-20
-16
-2
16
12
7
21
11
34
38
25
15
24
13
-20
20
19
-25
-32
1
-26
-43
-34
-7
-14
-17
-54
-20
15
-34
-6
17
-17
13
24
8
3
-45
-14
-3
-13
-36
4
6
-45
-14
54
-13
6
17
10
4
-7
2
-30
-36
-2
-51
-17
-3
-8
10
4
-1
-3
1
-1
-1
5
2
-1
13
0
8
1
23
28
13
31
33
12
-7
-56
12
-4
-18
9
10
-21
8
5
-1
-1
9
-4
-1
-5
-5
-5
-2
-2
4
2
-6
-4
-10
6
-15
-16
34
-34
-1
12
-1
-5
-18
4
2
0
-2
1
-4
1
-4
-2
-4
-1
-9
-12
0
1
-8
-5
-4
-30
-1
9
-30
-25
-21
-45
-29
-36
35
32
1
36
9
-26
-1
25
10
-15
-9
-2
-19
51
21
5
47
15
10
4
-31
5
-14
5
2
-5
-26
-85
-38
24
-58
-42
1
-39
-2
10
-12
-9
12
-28
-2
7
-8
11
-14
31
-24
-29
4
-25
-14
6
1
12
0
10
32
30
27
4
-12
27
18
-10
-26
-10
19
-8
7
40
1
1
35
-32
-9
-2
-25
-23
-60
-29
9
1
12
41
23
9
-4
-5
-5
-23
-30
1
54
-43
-34
-33
-14
11
-15
14
-18
-5
-22
-4
-5
3
11
-13
-123
-62
28
-75
-30
13
-99
-14
-7
-1
-6
0
-1
-6
-7
1
-5
1
-17
-2
37
-45
-6
0
-9
-2
6
-5
-26
-8
-6
-20
-17
-9
-10
-26
-121
-33
52
-128
-53
3
-53
-31
9
1
1
4
1
0
1
9
7
5
-3
1
-1
-2
-5
-5
-1
2
5
2
-2
-5
1
3
3
-4
-5
1
-3
-6
-5
-2
-7
1
4
1
0
-19
8
76
-22
-2
27
-4
2
-7
2
1
2
-1
4
2
4
-2
-2
-3
-8
2
-3
0
-4
-8
8
6
5
20
14
-18
-2
2
21
15
0
2
11
45
3
-3
12
-22
9
11
-13
4
-13
29
26
-4
25
41
22
-37
18
40
-18
-29
5
3
-18
-7
-3
-1
2
6
-1
-2
5
-1
-1
-43
30
35
-24
-5
22
-33
11
-22
1
2
4
4
2
-3
-4
-3
-1
-25
19
46
-29
0
16
7
0
1
4
-5
3
-5
3
0
-4
5
4
-10
22
23
-52
-13
-58
4
-11
-43
-44
-21
-58
-47
-18
9
-12
-76
-38
0
-16
-54
26
5
-48
-12
-4
-38
-36
4
-16
-31
-50
-23
-5
-22
-53
-19
0
-3
-30
-35
-3
-12
-45
-33
-2
-4
-1
0
-4
0
-1
-2
2
5
19
2
5
13
1
-19
-8
-11
-20
-8
-14
-15
-28
-37
7
-20
-12
-23
4
29
-27
-16
-17
-10
-26
-37
-5
-4
2
1
-5
-3
0
-3
-1
-1
4
3
0
2
3
-1
3
-4
2
-9
-5
0
-9
-8
-1
-2
1
-41
44
45
-45
-26
-5
-37
-40
12
4
0
-4
-6
0
3
-2
-5
-5
-1
-4
-4
0
2
4
4
-4
0
-25
-13
-46
-16
-7
1
-34
-53
-32
-21
-68
-58
-30
-32
-21
-26
-7
-65
-20
20
29
1
6
6
-26
-3
-18
2
17
29
-8
-24
13
-20
8
65
-13
-17
9
-22
-54
-13
-23
-24
-1
-4
18
34
-9
11
11
-35
-20
35
-74
8
34
-43
-10
-24
-16
-43
-23
0
5
0
-4
-9
7
0
1
0
-32
-21
24
12
13
21
-32
-13
34
-30
-34
11
-18
-3
-25
-27
-33
-55
1
0
2
1
-5
10
-6
-5
-3
-1
1
-1
-4
2
-5
3
-5
-1
-17
-22
-57
-33
-31
-8
18
-25
-4
-4
1
-4
-1
5
2
-2
2
-3
-1
-6
0
1
-1
-1
-2
-2
4
-25
15
-27
7
19
-23
-14
-1
-19
-60
-24
-1
-37
-43
-28
-31
-28
15
-28
-20
2
-5
3
10
-17
-6
23
-11
3
18
1
-12
7
-9
-11
2
-51
-13
-14
1
-12
14
-13
-22
16
-18
-22
-49
16
13
-51
-27
-42
-40
-42
0
23
-24
-18
-58
-2
-5
-26
-41
-21
8
-17
-10
39
-66
3
48
-3
-28
-95
-5
13
-32
-15
-17
-66
-45
10
34
-60
20
-32
-51
-2
-25
-44
-26
-9
2
14
38
0
-16
26
-13
18
-8
-20
-4
-3
-10
-4
-28
-49
-34
-77
5
-15
-45
-3
1
-23
8
6
13
-23
-3
-18
-36
0
12
-5
3
1
5
2
2
2
3
-3
-1
22
35
-1
15
18
-34
-16
-56
26
16
15
-50
-18
12
-8
-23
-38
-2
32
61
-15
27
-5
4
5
-9
-1
-1
-3
0
2
5
-3
5
3
1
4
1
-4
3
-5
-4
-3
5
4
2
-2
2
-1
-4
-2
-2
3
2
1
-1
4
-2
2
-4
-5
2
-7
10
8
-15
3
20
-24
-14
-2
3
-1
-2
4
-2
5
2
-1
1
-6
1
2
-1
-4
-2
2
3
4
-39
-24
-38
-19
-56
-60
-13
-12
-116
-57
-43
-63
32
-23
-41
-30
-1
-1
-4
-12
1
-46
-38
23
-44
-6
32
-15
6
9
9
-3
-12
-12
-23
-27
5
-3
4
2
-4
4
1
-2
-4
5
12
0
17
27
28
11
5
6
-3
-3
6
1
-1
2
0
-2
1
1
-9
-3
-5
-6
5
-28
-20
-9
1
1
4
-6
-11
1
5
9
13
18
4
9
9
3
16
5
13
12
0
2
2
19
29
15
24
28
18
-44
4
22
17
38
32
-15
22
15
18
20
-22
-3
-1
-11
-26
-18
15
12
9
-9
2
-1
-13
3
-9
10
-6
-3
4
-4
3
5
-3
-3
-5
-19
9
-13
-19
-22
-15
-34
-30
-26
0
16
9
-12
2
16
3
-4
31
-6
11
12
16
-11
1
-12
-13
-9
2
0
-5
1
0
-4
-2
-5
-2
-3
0
2
1
-5
5
1
3
2
3
-3
-1
3
-2
-4
3
-3
-6
-28
-18
-5
-19
16
10
-41
-11
-23
2
0
4
4
6
0
1
-1
0
2
4
-2
6
-2
0
-3
-3
2
-39
8
1
1
6
-2
-46
-19
-18
-120
-6
-42
-120
-29
-39
-114
-26
-12
24
27
-5
15
15
12
-6
3
8
33
7
-29
26
-5
-15
16
0
-3
23
20
18
11
7
13
-8
-24
38
-4
-15
1
0
-21
16
2
11
8
10
27
0
-14
9
-1
-27
-2
2
1
1
12
-4
3
4
4
-3
4
-39
1
29
-13
9
22
-29
7
25
10
7
-28
-23
-3
-1
-43
-21
6
1
-3
-6
3
4
2
-5
-1
4
4
-5
0
-5
-4
-5
-4
5
-4
6
12
25
0
22
15
4
-15
17
3
-5
-4
-3
-1
2
-3
3
1
-1
-5
4
-2
-2
3
0
-7
-1
-20
-16
1
10
3
-12
-26
3
-14
-22
-3
-34
-47
-11
-13
-53
-15
-23
-23
-8
-10
-28
-5
-29
-33
-21
11
-11
-3
3
-16
2
7
-1
-6
7
37
-14
-4
68
3
-16
19
4
-10
-21
9
14
-23
-12
10
21
-5
0
3
22
-4
18
27
-5
-58
16
6
-41
4
17
-54
19
-1
-42
-2
18
-15
-4
9
-22
-2
1
-50
-19
-5
-43
28
7
-39
22
10
-83
11
17
-27
-3
-29
9
0
-6
-15
0
-7
12
9
-13
3
-6
-6
-12
-4
-1
19
11
-12
-19
12
-10
16
5
-1
-16
1
25
0
5
11
-8
-7
2
-7
2
1
-4
3
-1
-1
-4
-6
16
5
13
15
8
19
26
-4
21
37
-3
5
18
4
13
21
10
39
18
14
16
43
18
12
10
22
15
2
2
1
-3
-1
4
0
-3
-6
-4
2
0
4
-2
0
5
2
0
-3
-3
-1
0
-1
0
4
0
3
-2
0
4
-6
-6
-5
-7
5
-4
-4
-3
-16
21
6
0
24
3
1
7
4
-6
0
2
2
-7
-1
2
-6
-2
-2
6
2
4
2
1
3
5
6
-10
-6
-12
-26
-5
9
-6
-36
-16
-70
-89
-55
-77
-80
-52
-54
-34
-13
-18
-95
-22
-15
-119
-32
-36
-8
-13
-12
5
-13
-1
-16
-5
-11
4
-1
5
-1
-4
1
3
-2
2
6
-1
-20
-3
-16
-20
-8
-9
-17
4
0
-5
5
3
3
-5
-1
-2
-16
-6
-10
-3
-21
-16
-10
-6
-6
0
0
-5
-4
-2
-3
0
-5
-2
-1
-14
-16
-1
-25
-8
-3
-5
-14
-15
-4
10
-29
-4
1
-20
-1
-4
-23
-1
-8
-12
0
0
-14
2
-4
21
0
-2
13
0
-8
-3
1
-3
-10
-7
7
-11
-3
-3
-10
-7
-4
-2
5
-2
3
4
2
-3
-5
-3
-11
-12
-5
1
-4
-11
-12
-11
2
-2
-20
-5
10
-20
-6
-12
-10
-12
-2
-1
-3
-6
-1
-5
-4
-13
-7
-1
0
4
-2
5
-2
5
0
4
5
3
4
1
0
5
-3
4
-1
8
-2
7
8
10
8
6
7
9
-23
3
-11
-18
0
-7
-9
-9
0
2
-2
1
-4
2
0
3
3
-5
0
-2
-4
0
-4
-4
0
2
-1
-20
-8
3
1
-2
-2
-12
0
5
-5
2
8
7
-2
3
-5
0
-1
-16
-3
1
-4
-16
-20
-12
-13
-14
-2
3
0
-1
-3
-3
-4
-1
3
-1
-7
-7
-2
-16
-3
12
-17
-7
-5
-3
-18
1
-6
-5
-2
7
12
-11
-15
-8
-2
-20
-3
-12
-25
-3
0
5
4
-4
-1
-4
0
-2
0
-3
1
-11
-9
16
-3
2
-20
12
6
-8
1
0
-16
-2
-4
-19
5
0
-5
-3
-2
-2
2
-4
-3
-1
-5
4
0
4
3
-4
-3
3
5
1
-8
-1
-16
-6
-6
-8
-7
0
1
3
0
-2
2
-2
4
-3
-1
-1
-2
-5
0
1
-2
3
-1
-2
-4
-14
-7
-17
-14
9
-13
-8
-4
0
-4
-5
3
-11
-5
-3
-14
-2
-7
-7
-5
-20
-1
-4
2
-8
3
-12
-8
-19
-19
-5
-13
-8
-11
-11
-30
-13
4
-23
5
-1
0
-1
-4
-17
-15
-5
0
-9
-2
-13
-13
-2
4
2
-2
1
-3
-7
4
-7
-9
-18
6
-12
-6
5
1
-12
12
-4
-9
-5
-4
-11
4
2
-9
0
-1
-20
-1
-7
-8
3
-27
-2
4
-6
0
-9
-8
-6
-18
2
-5
-7
-9
1
-8
-3
0
-10
-10
-22
-9
-6
1
-19
-4
13
-5
1
-10
1
-4
-11
-20
-16
-11
-14
-8
-15
-2
-1
3
1
2
1
-2
2
5
1
-5
-14
-22
-22
-18
1
-7
-23
-4
-1
-8
-11
-8
-3
-7
-10
-3
4
-11
-13
-17
-5
-18
-7
4
-9
2
-5
-2
-5
-1
2
1
2
0
-1
-2
2
-1
-2
3
-1
3
3
4
1
-2
5
-3
-1
1
1
1
-3
4
3
-5
-5
-1
0
4
-5
1
5
-15
-25
2
-8
-6
-11
-14
-3
4
3
-3
3
-5
-3
0
0
1
1
5
-5
5
-1
-2
5
4
5
-5
6
-5
3
10
-6
-5
-8
-12
-9
10
5
2
16
-10
-2
-11
-14
-3
-8
0
-15
-4
6
-7
1
-7
-4
18
-46
-53
1
-14
-3
29
-11
-5
3
6
-5
-4
3
-1
-1
3
5
-7
-36
-90
21
-1
-23
19
8
-27
0
4
5
0
-3
4
1
-1
-1
9
6
-33
18
3
-34
25
2
-21
2
2
-7
1
2
-3
5
1
-5
-15
-9
-24
-2
-11
-31
42
15
17
-39
-54
-82
-27
-30
-87
-14
-12
-21
-9
-5
10
-11
5
-5
-16
6
-4
-3
1
-34
-1
-2
-3
37
22
3
-2
-3
-15
10
3
4
11
37
22
2
5
-2
1
-1
3
4
-6
-1
-31
-21
-57
5
-26
11
81
17
-15
-31
21
12
-2
-15
17
-6
-11
15
-27
-20
-31
-5
-11
-21
38
-15
-19
-4
-5
0
6
-3
-3
-2
-3
1
3
0
4
1
4
-1
6
0
3
0
-6
-3
-9
2
-1
-1
-4
-1
-3
-20
-31
19
-26
-34
38
-14
-24
0
-4
4
3
-3
4
-2
4
3
0
0
-3
3
-3
1
2
-6
5
-62
-44
-37
3
-34
-25
28
-24
-8
-20
-67
-58
22
-24
-40
55
10
3
-55
-81
-95
-4
28
-2
24
33
5
1
4
-8
3
-5
-30
6
-2
-17
-10
17
-11
-5
13
4
35
20
31
-14
-15
-39
13
-29
-18
33
3
-12
-21
14
12
7
0
-6
-54
-40
-41
4
-5
4
7
1
9
15
4
10
4
18
-23
8
-38
0
62
4
36
-13
-8
-4
4
-14
-7
20
23
21
-3
6
0
4
-7
-8
1
-1
-8
-6
5
-4
-5
-2
-2
-5
-4
-3
-19
-10
6
-7
-20
24
-2
-11
23
4
-1
-4
2
3
-4
5
-1
-4
-8
-4
-11
-6
-13
-3
0
0
4
-26
-22
-20
1
-4
-11
0
-7
10
-17
-53
-21
-4
-1
-14
74
19
-2
-12
-50
-40
10
5
30
28
32
22
2
9
4
2
7
-12
3
-2
-7
-17
8
-18
-22
-6
-16
-23
-11
-2
-28
-26
-32
2
-29
-7
-22
-12
-22
13
-2
18
2
9
17
-19
11
-38
-14
-35
-5
-16
-2
-6
14
-1
4
11
34
36
17
6
6
-18
13
16
18
5
12
16
30
15
-23
-8
-15
-35
-18
0
2
-19
-14
-14
-22
-11
-37
-48
-94
13
-10
-19
29
-1
22
-25
-35
-32
-13
-23
-20
-15
-15
-71
-10
9
-10
4
4
14
39
7
27
-3
5
-3
-3
2
2
2
4
0
-14
-34
-54
8
-8
-35
17
8
6
7
7
-16
-3
8
-16
-42
-20
-5
-16
-1
-1
-3
8
23
-9
-2
9
-5
-2
-1
3
3
-3
3
4
4
4
1
-2
-1
2
-3
4
2
-2
-4
1
3
0
5
-4
-3
2
2
-2
-7
5
-3
0
0
-5
1
-5
-26
-38
-106
-16
10
-2
0
15
11
2
5
-1
-6
-3
3
2
2
5
3
-5
-3
-1
-1
-1
0
5
3
-20
-48
-54
17
0
-15
36
-32
-70
-36
-70
-64
-22
-20
-6
21
5
-19
10
8
3
3
16
25
-2
16
20
13
37
25
-9
-5
1
-2
29
5
1
0
1
-2
-4
-4
-1
4
-1
16
-1
-6
17
1
-7
0
-7
-13
-2
1
-6
1
0
-3
5
3
-3
23
19
37
21
-1
25
-1
-3
22
4
-4
0
-10
-9
0
-3
2
-5
-10
-29
-7
-10
-16
-20
-40
-1
-14
9
-16
-29
2
1
3
-14
4
16
-22
-29
-79
32
17
-19
-8
8
26
10
-3
-34
6
7
18
1
-5
-8
3
-1
-39
-3
15
14
-7
-13
-27
-4
1
1
3
-1
-1
3
2
2
-5
-11
24
-14
-19
33
33
15
56
7
-9
-33
9
12
1
-1
9
-6
5
7
30
-10
-14
-3
-17
7
7
-6
2
4
5
4
2
-1
-3
-8
-3
-1
-4
4
5
-4
2
-3
-4
-9
-6
-5
-3
-5
-5
0
-9
-9
3
6
-16
-5
1
-2
-14
4
-9
4
-4
-5
2
-2
2
5
-3
1
-7
-4
-3
-2
-2
-4
4
0
6
16
4
24
-15
-13
27
7
8
24
-17
-3
-23
-27
-13
-13
20
12
17
-5
-10
42
22
-3
13
28
13
45
15
2
4
-2
-12
-29
-6
-32
-22
-36
-36
-45
10
11
-15
26
12
4
10
-7
42
-11
-4
-2
20
15
26
-6
-12
-31
26
4
-3
-15
2
13
-2
1
-3
-1
3
2
-5
2
-2
7
4
-24
-5
0
-19
0
8
-30
4
-5
-9
9
10
24
-2
-7
-14
-6
1
-3
3
-4
1
-5
-8
-6
4
-3
2
-2
1
8
-5
-4
4
35
25
-9
-6
13
-22
-12
26
-15
-3
3
-1
3
2
3
-4
-2
-4
16
17
5
11
7
4
9
6
13
-12
-9
20
20
-13
8
18
3
0
18
30
10
15
1
8
12
24
14
-9
-22
-46
1
-15
-3
23
-10
7
-22
-23
-43
-14
-17
-32
-4
8
-10
0
-5
18
-16
-12
-10
7
-18
-11
9
19
17
-18
13
19
9
0
10
-55
-48
-50
17
-18
-12
18
-21
-5
-19
-1
-30
16
8
-8
-6
5
-29
15
5
-1
1
11
29
12
32
44
0
-12
-15
29
-4
0
0
-22
3
13
-7
18
-18
-26
-2
9
3
9
45
11
59
15
-17
15
-11
-12
22
0
-1
23
-18
-1
24
-7
4
11
3
-20
2
9
-7
-5
4
20
9
4
6
-9
6
-3
-7
-8
-3
-7
39
5
35
3
-9
28
3
13
23
16
-12
-3
18
19
10
18
-17
8
20
-12
21
-2
-10
3
4
5
8
2
4
2
4
4
7
-1
-5
-1
-2
3
2
0
-3
2
-5
2
3
0
-5
2
-3
-5
-3
1
2
-3
-8
2
5
8
5
0
7
2
-3
36
4
43
7
-3
17
-11
-22
-3
2
4
5
-2
1
5
2
1
1
2
3
0
-2
-7
-1
-8
-8
-3
-9
12
9
-18
0
27
3
1
7
-2
20
-12
4
-7
-20
-8
-1
-19
-19
-31
-45
4
-8
-13
15
10
-10
-43
-29
7
-32
-9
8
68
20
6
4
0
-3
-2
-3
-4
-2
-5
2
-64
-38
-21
-37
-56
-15
-74
-54
-29
5
-2
-6
0
4
-1
3
-6
-4
-75
-52
-53
-49
-36
-15
-42
-54
-2
0
0
2
-4
1
-3
-2
-9
-11
-21
-24
-8
-6
-3
34
-13
-48
6
-18
-14
19
-40
-13
24
9
4
11
-24
5
-5
-12
-10
2
-28
-3
27
-23
-30
1
-55
-19
22
-17
2
27
-16
12
26
9
10
8
11
18
9
-1
-3
1
2
4
-6
-2
0
2
3
1
19
33
1
-25
7
-4
10
-21
3
4
18
3
-5
-12
36
38
-5
2
5
-26
-9
2
25
-7
3
-4
-1
-5
3
-2
2
-6
3
-1
-5
-6
-5
3
0
1
4
1
4
8
7
1
-1
5
-1
5
1
-3
-7
23
-7
-65
-37
1
-56
10
19
-6
1
2
0
-1
1
-5
-3
-4
-6
-2
-1
-5
2
-2
-1
0
-1
-26
-2
34
-7
10
14
-43
-16
21
4
42
46
-6
35
24
-19
0
4
-67
-66
-28
-17
-23
-29
-25
-21
-7
27
21
10
-24
5
24
-8
-11
-12
-21
-13
-7
-101
-34
-11
-24
-47
-26
-4
-19
-18
9
-8
-17
-24
-13
-33
-96
7
-30
-75
-23
-10
-45
1
11
5
-2
1
4
3
4
0
-6
5
-47
-8
5
-8
-15
16
-44
-21
7
-21
-5
0
-31
0
4
-12
16
26
4
5
-2
-3
7
8
0
-3
3
2
-4
5
5
-1
1
5
1
-2
-51
15
23
19
1
5
39
18
9
3
-3
4
-1
2
4
0
-1
-6
-9
-3
-6
-9
3
-1
-5
-3
3
-41
0
-2
-27
-3
2
-38
-95
-50
-10
9
26
-92
19
20
21
19
32
-6
-31
-20
3
-14
8
-62
2
19
3
-6
-17
0
-8
-17
-3
-10
-29
-56
-14
-20
3
-40
-4
6
-59
-23
-27
9
46
-31
17
15
-34
15
39
-70
-22
-17
-52
-8
-1
-83
38
4
-12
-2
-9
-25
7
1
2
9
6
-9
21
48
-4
3
16
-2
14
47
-72
-3
4
-78
-34
-6
-26
5
0
12
26
46
-9
-18
6
-80
-45
8
-42
3
-4
-1
-10
-14
4
-31
-8
-9
-3
51
-5
9
31
2
21
40
-4
-10
-15
-29
-58
-10
-121
-105
10
0
4
1
-6
-2
-3
2
1
4
-11
-20
-31
-3
-14
-21
-15
-3
17
7
1
1
-20
-11
4
-26
-1
35
-10
-8
-1
3
-28
-15
-44
-99
-24
-1
-1
-5
-1
-5
-2
-1
-2
-4
-6
4
3
-3
-3
5
1
6
3
3
-1
-5
-1
-1
-4
6
0
1
-1
-2
-2
3
1
5
-1
1
-2
-37
15
13
-2
-11
-18
-9
-17
-6
3
2
-2
2
-1
1
-3
-1
0
-1
-5
1
3
-5
-4
0
-1
2
-24
-22
5
-32
-6
25
1
20
58
30
14
46
10
14
24
4
7
43
-13
-8
28
-1
5
26
-19
25
80
33
9
-4
-35
-15
-16
-23
-19
-10
-2
4
-5
-2
1
-6
2
-6
0
1
-5
19
0
-1
3
35
-26
-8
4
-2
1
4
-4
-2
-6
-3
-3
3
-3
3
0
-17
-28
14
-12
-52
-8
-1
-4
-4
2
-2
-5
-6
-6
-14
-7
-6
5
-5
12
4
-14
15
14
5
48
8
10
42
-32
-12
41
8
-3
7
11
35
23
8
-2
46
8
-31
-9
-19
-24
-14
-25
-54
-33
-1
15
26
3
-5
-11
-13
-4
26
-3
1
-5
-3
-2
6
3
-4
5
9
-7
-48
-1
3
-19
6
-6
-53
11
-24
10
11
-24
-6
-30
-7
75
19
5
-18
-49
-6
15
-51
-28
12
-4
0
-5
2
-5
3
4
-7
-5
2
0
-2
4
6
-3
1
1
-5
-5
1
6
4
5
3
-3
-3
-3
27
8
6
-19
-22
4
-24
0
-15
1
-2
3
-1
0
-4
4
-2
1
5
5
1
-2
0
-6
-4
-1
4
-12
-7
32
-7
4
14
-10
0
6
58
-14
5
3
19
49
-41
9
-1
5
-28
-21
-22
-22
-43
9
-7
-52
-16
-22
13
-7
-11
18
-4
-14
11
4
10
-17
14
3
-16
64
-16
-11
9
-3
36
-4
-5
21
9
-7
-4
25
-12
2
-21
-41
-40
-26
-70
14
9
4
8
9
6
0
9
-1
9
3
2
-20
15
-25
-28
-16
12
10
-2
24
38
-11
-1
-8
-21
-27
-14
4
3
-7
2
3
1
7
3
4
0
0
-4
2
1
1
-1
-4
-8
24
4
10
16
-22
22
-3
38
69
1
-1
-3
0
2
-5
-1
2
3
4
6
2
0
3
-2
1
4
5
-3
-13
-15
-1
-28
-11
6
-17
2
15
1
21
-48
-2
23
-22
-28
-10
0
-9
1
19
5
-11
-5
4
-14
-2
-7
-13
-2
-7
-13
-11
-11
-35
-28
-15
45
-14
-6
19
2
-6
1
-7
-2
-7
-21
-19
-6
-41
-11
67
24
9
19
8
0
7
-3
-33
29
36
14
-7
37
-4
10
-16
3
13
-2
12
25
-7
-18
-1
-3
-3
57
11
-4
12
-18
-23
-13
-2
-16
-27
2
-15
21
-30
-22
17
-31
-15
19
13
-3
-18
2
0
-5
9
-3
3
12
-26
30
-35
-6
13
-27
-9
53
-28
-21
7
13
-23
8
3
-10
17
0
5
-3
2
-6
-7
6
1
-1
15
30
14
14
5
-3
8
8
-15
6
-1
21
5
0
17
0
-1
42
-55
-8
-23
-45
-16
-19
15
-13
-10
2
-5
3
-9
-4
4
2
1
-2
3
-2
0
2
-4
-2
0
5
1
5
-1
3
4
-1
4
1
6
-1
11
6
-5
3
0
-3
2
3
1
-11
7
33
-18
-10
9
-2
-6
19
4
-3
-5
-5
3
-1
-5
-2
-4
4
0
-2
1
1
-1
-2
-7
6
12
-4
21
-4
15
17
-41
-38
10
21
-51
-4
3
-17
20
-23
-34
49
12
3
17
26
11
4
-25
-4
14
5
-7
13
-15
-1
20
-9
-18
-5
3
2
4
-5
-2
5
3
1
0
10
13
3
-3
-24
-10
-21
-16
5
0
3
-2
-6
2
-1
-1
-2
1
11
18
4
-7
-1
0
-12
-7
2
-1
-2
3
2
2
-1
4
2
0
-4
-11
-15
-8
-28
1
-16
-19
-9
-25
-19
-16
0
-1
-22
-12
-19
-5
-20
-26
-19
2
-11
-35
4
-5
-18
1
-30
15
7
-25
-10
-12
-11
-2
7
2
0
-24
9
0
-19
6
-14
-3
-5
1
3
2
5
1
-2
0
12
4
-2
-12
4
5
-10
-36
-21
-3
-22
-9
-5
4
-7
4
9
8
9
-5
-9
-11
-9
-29
5
0
16
-3
-1
3
0
2
-3
4
-4
4
-5
0
-2
3
0
3
-5
1
-1
0
-3
5
3
0
1
1
-4
-1
-6
14
5
-7
12
-7
-27
-13
-2
-4
-1
-5
4
1
5
4
2
-4
-5
-1
-3
1
-2
-6
-2
-4
4
8
10
6
-12
6
13
-11
-32
-28
15
15
-12
-10
-2
-24
3
-3
-10
-2
1
3
3
0
2
-13
-4
-9
22
23
11
6
-24
7
-1
-7
-19
-3
1
-9
-7
-11
-4
-1
4
14
19
7
0
12
-17
-14
-25
-16
-27
-18
3
-9
-2
-6
5
4
-14
1
-12
-3
-6
-3
-4
-2
-4
11
-4
-12
5
14
-21
-8
-7
5
1
-13
-28
-10
-14
-3
-16
-11
-13
6
5
7
-3
0
1
-1
5
0
-3
3
-3
-3
5
1
4
-3
1
-1
-5
-28
-23
-16
-3
14
-8
-12
12
-8
1
-1
4
3
4
0
-4
-4
-5
5
2
-2
1
-4
2
-2
1
0
-24
-25
-6
-10
-10
-15
-12
-15
-25
-13
-11
-21
-4
10
11
-9
-8
-8
11
12
2
-13
4
-15
-4
-8
-14
-26
-35
-19
-22
-28
-22
-21
-25
-21
-22
-11
8
-6
-18
-11
-5
16
-4
-2
-12
-28
-22
-23
-18
-14
-4
-18
-10
-15
-15
-13
-31
-8
-3
-7
-4
-26
-8
-22
-15
16
7
-11
-5
4
-18
-33
-18
-9
-2
-28
-3
7
-13
-10
-12
7
-17
-1
3
-27
-6
8
5
12
-2
-2
1
-14
-17
-17
-14
6
-13
-12
1
9
4
-11
-6
-1
-6
0
14
-11
-3
8
-7
-11
-14
-5
-12
-8
-10
-12
-1
-20
-4
-27
-2
-2
-2
0
-5
2
1
3
1
5
18
1
-15
-18
1
-16
3
8
16
-17
-10
-19
-15
-20
-23
-9
-19
-4
-4
-20
-13
-25
-9
-6
-5
-22
-1
4
-5
0
2
4
-1
-1
4
5
-3
-4
-1
0
-1
-5
-1
4
3
-2
-2
5
-1
1
-4
2
0
-3
3
-2
-2
2
-3
1
-4
-1
23
-5
-7
1
-2
11
-21
-2
-25
1
-2
-3
-2
-2
2
3
-3
4
-5
3
0
0
1
0
4
5
1
-7
-12
14
-1
-4
-12
-7
-13
6
6
1
-9
-18
4
2
-9
-11
7
8
-32
-17
3
-25
-9
-20
-1
-1
47
-7
-14
13
-4
19
31
0
-18
-4
1
-1
1
1
-4
0
-3
-2
25
22
-3
24
5
32
3
4
-3
-3
2
-3
5
-1
2
5
-5
5
2
-22
-21
0
-20
-7
-18
-3
2
2
4
-5
0
-5
-11
7
0
-9
18
-15
-5
28
5
10
11
14
27
31
-8
9
16
14
-10
9
-10
-13
6
2
30
14
-4
-1
-3
-4
0
-48
-57
-37
-57
-24
10
-24
-3
-14
9
-8
29
26
2
-6
8
8
1
3
4
-2
-2
3
0
3
-1
3
-8
-22
-44
-6
8
0
27
22
23
27
2
17
-3
-13
2
-5
10
13
8
-10
-66
-34
-31
-39
3
-3
-13
-1
0
4
-3
-1
4
4
-2
3
4
2
-1
0
-4
2
-4
0
2
-3
-5
7
1
-2
1
0
-6
1
-14
-17
-3
-13
-2
19
-14
6
8
-3
-4
-4
3
-4
-1
-2
2
-1
4
-3
3
6
2
-1
-4
-5
-6
33
19
26
-2
-1
11
-1
2
-10
-8
10
4
-3
23
30
14
14
-6
47
18
-56
13
-14
-18
3
10
-5
43
39
13
-3
-17
-31
-1
-12
-6
-13
11
-11
-4
15
14
14
26
12
43
1
-27
1
-9
-7
2
-2
-16
3
-18
-22
11
-4
5
-5
1
6
0
-6
-3
-3
1
3
4
9
-1
36
26
30
-3
-14
-10
-14
-16
-15
-11
1
10
-22
-16
-33
-11
-7
-10
-3
2
0
-1
5
6
-7
2
3
4
5
-5
-3
1
-3
-4
5
4
68
39
57
13
2
-21
3
5
14
1
4
-3
-6
-5
-5
3
2
0
-1
-4
1
1
-1
3
-6
-5
-10
-15
-28
7
-5
5
23
-3
8
14
32
2
-3
4
7
25
11
0
-10
13
12
20
-2
-7
-5
15
7
7
-60
-49
-47
-26
-31
-33
-19
-30
-28
42
8
13
23
-32
-40
-32
-16
-11
11
-8
-1
-21
12
3
-21
-7
-9
16
19
11
13
13
3
1
-15
-3
15
15
1
3
-7
-14
-10
0
-15
-2
5
-10
-31
-38
-42
9
1
10
17
2
-12
2
-5
-4
-11
-3
2
17
10
-16
7
-4
7
1
-2
-8
109
28
-2
13
0
1
11
4
4
14
4
9
17
9
12
2
-21
-50
2
-8
-9
4
-7
3
9
-1
16
-2
-2
-5
1
5
6
0
6
-4
13
-37
-72
13
-23
-14
10
-4
3
4
-4
15
-17
-3
-19
-16
-2
-10
5
-18
-69
-14
-57
-49
0
-16
17
-3
1
3
-5
-3
1
3
7
0
1
1
5
-3
6
-3
1
3
2
-2
5
0
-2
-1
4
0
-2
1
2
5
4
-1
-2
1
-6
2
1
76
27
6
9
-18
-21
-8
-4
9
-5
-1
-4
-6
-3
-2
4
2
2
0
-2
-9
2
-3
-4
5
2
4
32
-8
14
10
8
12
9
-14
-32
-22
1
-5
-16
20
45
17
25
7
-29
10
24
-28
2
19
-3
15
25
-16
-16
-16
-48
-37
10
22
48
73
-2
2
5
-1
-2
2
-3
-1
-5
-2
17
-8
-10
-6
-36
4
-6
-38
-2
3
-1
-6
4
3
0
-1
3
14
7
18
2
-10
-8
3
-42
-37
2
15
6
8
-6
2
2
-1
-6
-3
2
-6
5
0
1
19
2
-12
-14
-12
5
-27
-24
6
12
6
6
-12
12
13
-12
-2
-35
-38
-26
-17
24
13
-29
25
-2
8
4
9
20
-17
-44
14
-11
-25
24
19
10
51
3
1
-3
-2
4
-3
3
-3
-3
22
4
12
14
2
9
-23
-34
-5
-70
8
17
-39
-19
-16
-38
11
39
18
45
17
-4
6
-16
12
6
-3
-2
-2
5
-5
-3
0
-2
-2
1
2
-2
-2
4
-4
3
-4
-2
5
5
-1
5
3
-1
3
1
-1
0
1
-16
-19
3
-4
-35
-13
19
-1
-3
-2
-5
-5
-2
4
-4
-2
-5
3
8
-2
8
3
-6
1
5
1
-32
-52
-11
0
-8
31
-24
-5
22
6
-32
-26
7
-9
-10
-5
-5
5
11
23
14
21
1
-18
5
-40
-4
-20
2
15
12
24
13
19
-5
-32
-2
12
-5
13
13
-6
-33
-18
-6
-13
-9
17
17
8
2
3
4
-27
-1
-27
-7
25
-6
-18
-77
-9
28
4
3
7
-1
-3
4
2
2
10
-30
3
27
-14
26
34
7
7
-4
-1
-15
7
19
-22
-9
-12
-18
21
0
1
0
-1
-2
6
3
0
8
-1
1
-2
-4
8
-1
5
3
0
-49
8
45
-40
-4
16
6
5
24
2
-4
0
-4
4
5
0
4
-1
-1
-6
-6
-3
-10
-4
-6
0
1
-1
-1
5
19
-3
-13
-13
-18
15
6
0
-44
-3
-20
-44
-30
18
61
-26
-6
-1
-28
-7
5
4
-18
21
17
14
-33
20
11
-31
21
-17
-59
-39
-28
14
2
24
19
13
-1
14
0
-14
-10
-12
8
1
-15
11
13
-8
-12
14
14
-5
19
-59
1
52
-2
21
42
-1
11
17
-26
-5
15
-10
-13
29
40
-3
-4
-25
-33
50
-14
-48
-37
-15
-23
-13
-52
-20
26
-5
9
2
22
16
-30
4
13
-36
-5
27
47
0
-6
-6
-2
-16
-18
-26
-26
-36
-5
-8
8
9
27
41
-21
9
3
7
14
-15
-27
-3
-1
-6
6
1
-8
5
-2
-9
-6
-3
-2
-3
37
-6
-16
6
8
-15
7
-9
-11
24
-17
-7
16
0
8
44
-6
24
14
19
27
-13
-5
-2
10
5
4
1
-3
-4
-1
-8
-5
-6
0
1
1
-1
5
-4
1
-4
5
-1
-2
-5
2
1
-3
5
5
3
3
0
4
3
-4
-1
-2
-1
5
-18
4
42
-6
6
20
35
0
-9
-1
-1
-7
2
4
-5
4
-3
-3
1
-7
-5
-6
3
-2
0
-3
1
-7
-24
-33
-14
-16
27
-21
22
73
23
37
-9
39
32
-36
16
-29
-1
-42
10
-6
-9
6
-11
-19
-7
36
-16
8
44
1
-2
-8
-42
-28
-21
4
4
0
-6
-3
1
3
4
0
33
15
30
-8
-6
12
-25
-10
25
2
1
2
1
4
4
1
-4
0
25
3
13
28
3
1
-4
-4
31
-6
2
1
4
7
4
1
-4
2
16
-8
7
-59
-5
28
-56
-13
15
-32
-12
-12
-23
1
-12
-34
17
-15
-23
-6
-12
14
28
25
-24
32
56
-1
3
-32
-21
-4
19
-49
-12
-4
-30
-16
-8
-4
-3
1
-40
-25
-22
2
-3
-3
-1
1
-3
0
0
-1
36
0
-3
36
-7
33
-33
-11
79
-29
-41
-58
-2
-4
10
-20
-1
25
2
4
13
-29
-23
9
-56
-13
9
-3
1
4
4
-3
-10
-1
5
5
1
-3
2
2
-2
-1
3
-4
4
-11
-11
-2
0
-3
-3
-6
-3
-10
48
-1
9
-17
-13
4
-42
-15
-20
0
-3
0
0
-1
2
-3
-2
-2
-1
-6
4
-2
7
4
6
3
3
-11
-59
-70
12
-5
-27
-58
-22
-1
66
15
-20
20
25
2
-79
-29
0
9
9
27
-16
-24
-13
-15
10
56
-10
-17
23
-65
6
22
-52
-1
18
-32
-22
-75
-58
-29
10
-78
-54
21
16
-19
16
9
-12
17
-61
10
55
-41
-36
22
-67
8
58
-55
-20
21
5
-1
-6
-5
-7
-6
4
-6
-10
-9
-20
15
-7
-52
8
-79
-48
4
-18
-31
-33
-20
9
12
-47
-11
-24
-1
-6
8
-4
4
6
1
6
2
4
2
-1
-4
-4
-4
1
-3
3
-47
-83
-23
4
-22
-34
-24
-39
-12
-6
-2
2
-3
0
-6
-4
-2
1
6
-9
0
-3
-3
-7
1
-3
-6
3
-6
-4
-71
-11
11
-39
-18
10
6
5
5
-39
-37
-1
-38
-56
9
14
-31
-11
16
13
-3
-55
-5
11
6
10
16
2
4
7
1
12
16
-35
-6
-3
-65
2
22
8
-25
10
-34
-49
-107
-1
-16
-55
-62
5
-36
1
-28
13
-79
3
23
-81
-8
13
23
-9
11
-50
-42
-2
-89
14
10
-30
-64
-67
4
18
-29
-19
2
-10
8
-18
-20
-53
-7
8
-45
-3
-21
26
-19
-17
-1
-17
-13
-20
1
27
23
10
48
-19
-29
1
-10
17
34
3
-25
-89
13
-5
-62
-31
-16
-59
8
-16
-21
-25
-41
-17
-23
-34
5
-1
5
-5
1
-1
0
-3
4
1
40
16
34
19
5
38
-60
-20
65
-18
-39
-6
-28
15
14
-35
-1
20
-1
-28
23
-33
-35
29
-88
-39
42
2
-3
0
2
6
-5
0
3
0
-3
5
-3
2
5
2
-2
4
-1
3
-6
3
0
3
3
4
3
-3
3
5
2
2
1
2
2
0
-2
18
21
44
20
-15
11
-30
-12
28
2
3
0
-1
-2
-2
3
3
1
-2
-1
4
0
1
-1
-5
-6
2
9
26
3
-22
-11
-15
-51
-8
-41
-8
49
-11
-13
10
31
-37
12
27
-10
-7
-64
-20
-1
20
-65
-15
28
10
-9
-23
0
-17
-25
27
7
-38
-1
-1
-3
3
3
-1
0
-3
-2
20
-8
-19
21
-21
-3
8
-11
-6
6
-4
2
-1
1
-1
-4
3
-1
39
12
-4
17
14
15
26
4
23
6
-4
-4
-2
-3
9
4
11
9
-7
-2
-7
6
-6
-18
38
18
-3
-2
-16
-35
-16
2
-10
5
6
-1
19
-1
-33
25
1
-4
-9
-30
-23
9
-16
-14
-5
-2
-13
-9
1
17
-6
0
-25
-7
13
-29
-17
-1
-88
2
4
3
-3
3
2
-1
2
-2
4
-5
16
-13
7
34
-15
14
29
21
-4
-20
-15
-17
-40
-52
-69
-92
-13
-2
-11
-8
-13
-19
29
-3
5
1
6
4
5
-4
-2
-4
1
0
0
1
2
-3
0
1
3
2
-5
-2
-6
2
5
-4
1
4
-3
-4
-15
-23
-16
-11
5
-10
23
-9
16
-6
-4
0
-1
2
3
-3
3
-2
0
-4
6
-2
1
-3
-3
0
6
49
18
-4
-2
16
3
-6
22
25
-49
-23
-1
-79
3
14
-32
31
57
8
2
-10
16
16
16
-10
5
32
9
-1
-12
28
3
-19
35
5
-30
-18
16
20
-5
18
3
0
-12
-13
2
3
23
17
10
27
11
-2
32
0
-4
-9
11
-13
2
-23
-55
-58
3
1
-17
4
-2
-4
3
-1
-4
9
23
4
-10
3
-12
51
16
-19
7
-19
31
-20
-29
-4
13
-15
-41
-4
6
-1
0
7
5
-3
2
4
-4
5
-3
2
6
3
4
-5
3
27
16
-8
10
-2
-24
-15
-18
-56
0
-3
4
-3
1
0
-3
2
6
-2
2
4
1
2
2
6
0
9
30
7
5
21
15
17
-1
-1
-11
-14
-18
-5
-23
-10
-17
17
-2
22
7
16
0
-13
19
-11
0
3
0
-13
-7
-17
1
-20
5
-27
-20
9
26
1
17
27
4
-3
15
25
-36
51
-6
-17
0
-8
4
21
13
23
-3
12
11
15
4
19
18
-13
-13
-6
6
-19
-24
6
-20
-12
-30
-43
7
8
28
-60
-44
-16
-72
-11
-36
2
-10
-3
23
-22
7
29
-55
-30
-14
-6
25
-9
-9
8
9
-7
10
17
3
1
23
2
12
22
-10
13
-32
-27
-33
-24
1
24
20
29
54
-2
-7
6
0
-3
16
21
-9
39
0
-2
4
4
5
1
6
5
2
-5
-10
1
12
14
25
23
15
10
10
4
14
-11
25
-4
-28
-8
-40
4
1
0
28
14
-15
19
-8
-13
3
2
-1
4
3
1
-3
-3
-1
1
10
3
-4
-3
-3
-1
-4
-6
3
0
-5
-1
-4
-1
4
5
5
-1
-2
2
1
-1
-1
-4
0
1
9
-9
1
-7
12
19
11
-4
7
2
7
-3
5
1
1
3
-3
6
4
4
0
3
0
4
-4
9
2
-13
-14
-12
-20
-21
4
30
29
15
-22
-33
-33
-25
-5
-9
-33
-8
37
1
9
30
-29
-3
-3
-30
-21
-31
4
0
-8
-4
-20
-9
32
13
9
2
5
-3
4
-4
0
-5
4
2
17
7
24
3
-12
-6
-5
-10
-14
5
4
2
2
3
2
-1
2
4
2
10
56
-16
-4
8
18
1
-7
-2
2
2
-4
0
-5
-2
-6
-3
9
-9
10
2
-6
-4
28
15
10
-19
-17
-11
-17
-10
-7
-22
2
-18
-12
-4
-64
-25
-10
-25
-29
-3
-5
-9
11
14
-9
-6
6
-25
2
-6
-27
10
-38
-20
5
8
28
24
28
-3
3
2
1
-5
-1
-5
0
0
13
-13
6
18
4
-6
51
30
22
-8
-1
-34
10
16
1
33
12
33
3
11
25
-7
-20
-2
-13
3
-21
1
0
4
7
0
1
-3
3
4
1
-2
1
3
1
2
5
0
0
-5
5
-6
0
-1
-2
4
5
-4
36
0
16
13
-11
16
2
-4
-7
-2
-1
-2
-2
-2
-2
0
4
5
6
-3
-1
-2
1
2
0
4
1
32
6
29
26
-7
23
43
-6
9
53
36
60
22
7
29
4
8
15
-22
2
25
-46
-22
-11
-16
-9
-26
-31
3
-20
5
23
3
15
8
12
12
8
-12
-3
10
-2
12
19
20
-1
0
29
7
1
18
17
7
7
0
25
-16
-12
4
-9
2
17
4
8
2
2
5
6
2
-2
1
5
14
-37
-16
46
1
-9
13
-9
5
0
-4
3
-22
-22
-21
-25
-3
-15
7
-1
4
1
-4
-1
1
-8
-4
-1
2
2
2
-1
-9
-1
-9
0
-23
-26
-56
7
8
-3
21
7
28
1
1
-3
-1
-1
0
1
-8
2
-3
1
3
6
2
8
4
9
-1
9
9
10
15
-4
6
7
20
11
8
19
40
5
2
26
5
11
15
27
-15
8
21
10
16
26
-15
0
-25
-34
-37
-54
-73
-57
-73
-93
-68
-68
-42
-24
-45
-35
-19
-4
-17
-13
-11
-18
-4
3
-11
21
-16
-17
18
-9
0
-31
8
9
-21
-7
10
5
11
2
5
19
17
1
-21
-11
-15
2
7
-21
-9
7
15
-15
-3
5
-5
17
8
-26
2
3
-18
11
-2
27
20
42
13
-8
19
3
-5
5
-7
1
14
15
4
21
23
7
14
0
-13
37
10
-12
26
-11
-9
17
-7
-13
-24
17
-13
-6
-17
-13
18
3
-1
-3
3
8
7
5
3
-1
-7
-4
29
-8
5
10
7
1
3
-34
9
-27
-11
-9
-13
-22
-5
13
-39
-16
-18
-31
-32
-14
-35
-15
-2
-5
1
-5
-1
1
4
-8
1
-9
3
3
1
-6
-3
3
5
1
-4
-5
-4
0
1
-1
0
-5
4
-1
-10
-9
3
0
2
-3
8
2
1
-11
-16
-12
6
-4
14
29
18
20
-1
0
-5
0
0
3
-5
-5
0
3
-4
4
-5
1
-5
-4
-5
0
-7
-1
12
-4
-17
7
-5
4
-8
33
17
56
23
2
16
0
-10
-15
29
-5
21
18
0
-18
13
22
1
1
-2
-2
-6
-8
1
-6
-5
-7
-2
3
5
1
-4
4
4
-1
2
-10
0
-6
-2
-5
-8
-9
2
-3
-4
-1
2
0
0
-5
3
4
2
-6
-7
0
-8
0
-9
-2
2
1
-3
5
3
4
0
-3
0
-2
0
3
3
-3
-5
-3
-7
-5
-1
0
-3
-5
-7
-7
-6
-5
-2
-7
-1
-4
-1
1
0
-7
-7
-2
2
1
1
-5
1
-3
-4
-4
-6
-2
-2
-9
-8
-2
3
-5
-1
3
-2
-5
-3
5
5
2
5
3
-5
-2
3
-6
-1
-7
-4
-5
-5
-1
-1
1
-5
0
-8
-4
-5
-2
1
-5
1
-9
-7
-4
-7
-6
1
1
2
-7
-2
0
-1
-2
-1
3
2
-2
-4
-1
-3
-1
4
-2
2
-5
-2
3
-1
-2
1
5
-2
4
3
3
2
-1
-6
0
-5
-1
-3
2
-5
-1
4
3
0
-1
-3
0
-5
1
2
-5
5
3
0
-2
1
-5
-4
4
-2
-8
-6
2
-5
-5
-1
-7
2
2
0
-5
-2
-5
0
-2
3
0
-4
-2
1
-4
-6
-6
-2
0
-1
-3
0
1
-4
-5
-5
0
3
-7
-4
-6
-6
-1
1
-3
-4
0
-2
-6
-7
0
-6
2
-4
-8
3
-6
-6
-4
-1
-2
0
-5
-3
-4
-2
-4
1
-4
-1
0
-2
0
0
-1
-7
-5
-5
2
-5
-3
-3
-3
-7
-6
-1
-2
-2
-1
-3
3
3
0
-2
5
-5
-1
4
0
4
5
4
-1
-1
-1
4
1
3
5
1
1
-6
-1
-5
-6
-8
-8
1
-1
-3
-5
-5
4
1
1
-2
4
-2
-2
-1
5
5
-5
2
4
2
-2
1
2
2
-3
-8
0
-2
5
-7
0
2
-1
-7
-2
-6
-3
4
3
1
-6
-1
-3
0
-6
-8
2
-6
-3
-1
-1
-6
2
4
-1
-7
-7
-2
-8
-3
-7
-12
2
-3
-7
-7
-4
-3
-6
-1
-3
-4
2
-2
-7
0
1
-8
2
-3
-4
-7
2
-4
4
-2
-3
-4
-4
0
-1
-6
-4
1
-8
-3
-4
-1
-5
-3
-6
-5
2
1
1
0
-4
3
-1
2
1
-4
0
2
-5
-3
-1
-6
-1
-4
2
-4
0
-7
-6
-6
-3
-2
-1
-8
-6
-7
-2
-6
-1
-3
0
-4
-8
-3
-7
1
-4
-5
-5
-3
1
-5
5
-1
4
-1
0
-3
-1
4
2
-7
1
-5
-1
-3
-6
-5
-1
1
-9
2
-5
0
-6
-5
-3
2
-4
-3
2
1
-9
-3
-3
1
-8
2
2
-2
1
4
4
-4
-2
3
0
3
5
2
4
0
-2
2
0
0
3
-4
2
-2
3
5
-1
1
5
-3
0
-5
-1
2
0
-2
-4
2
-6
-7
0
-3
-4
-7
-4
1
-5
4
0
-2
-4
-1
0
-3
-1
-5
-3
3
4
-3
1
-5
-2
-4
-4
2
-8
-5
-5
-4
-8
-3
-5
-1
0
-4
2
3
3
-3
-4
1
-2
-2
1
-5
-2
0
-4
2
1
-4
-28
-9
-6
-56
-22
-10
-61
-9
-14
5
-2
4
-1
3
-1
-4
4
-5
7
28
29
-45
8
39
-65
-21
39
-3
4
2
4
-5
-6
-4
3
-3
19
0
-26
-5
9
-4
-35
29
25
2
-10
2
0
-1
5
9
1
2
-42
-18
11
-34
-9
12
-27
7
32
12
18
40
-4
2
21
-10
-14
-2
-12
21
7
-20
2
11
-12
-4
6
-7
-8
17
-45
-33
8
-40
-46
-39
7
-5
10
-15
0
2
-40
-11
-30
1
-5
-5
2
1
-1
-2
0
5
-29
-22
-32
-8
-17
-56
0
-10
-36
-21
10
-2
-34
-9
17
9
-18
-36
-43
-40
3
-90
-46
5
-56
-17
6
-3
-1
-1
-2
1
-7
2
2
1
-1
2
0
-1
0
-4
-1
1
0
6
9
7
4
0
7
-3
-6
0
-30
30
28
-55
13
12
-18
9
12
-2
4
5
-2
-5
-1
-6
-6
0
-5
-2
-1
8
4
-3
-5
4
1
6
10
8
7
9
5
2
10
3
-62
24
43
-42
-20
7
5
-33
-8
3
-5
-16
11
-4
-26
-5
-6
-6
-8
-1
1
16
5
-7
9
27
63
-2
13
-4
28
16
15
-16
-28
-11
11
-11
12
-13
-5
7
-23
-8
22
-57
-9
-8
-40
-4
26
10
9
11
-5
-2
-9
1
1
-1
1
-6
-9
-1
-2
11
19
28
5
2
38
-4
-1
4
23
-22
-7
2
-26
-34
-49
-5
-6
-2
2
-3
-1
2
6
0
5
-2
6
3
3
-4
0
4
4
-16
14
16
-14
17
13
-16
-8
-22
-6
2
4
4
-2
4
-1
5
0
3
-2
1
7
-3
7
3
4
-3
-19
2
-12
12
26
-8
-3
21
51
-47
3
25
-64
-25
13
-21
-38
-29
4
1
-5
34
4
-1
23
-4
-16
0
-7
-10
1
10
6
2
-5
0
18
28
40
19
32
21
-1
43
49
3
10
20
-2
14
26
30
53
29
-57
17
-5
-13
-5
2
56
-14
3
-36
5
0
12
-12
-3
52
-22
0
7
12
20
-12
1
1
-18
-30
-71
-103
4
10
-80
-32
17
2
-47
11
-7
-6
23
-18
-7
1
-19
13
22
-19
-12
8
-2
-4
4
-23
-11
-6
-9
23
37
-12
15
28
19
22
0
1
6
-3
6
-1
-3
-7
18
17
2
-3
-5
1
-5
-1
2
-8
-9
-5
3
14
-15
-3
-3
-31
3
10
29
18
36
35
18
28
48
2
-2
27
14
-33
14
4
-37
15
33
2
-3
2
1
-5
-5
-7
-5
1
-4
-4
-3
1
-4
-3
-3
-4
4
4
-1
2
2
3
-1
0
3
-4
5
-5
5
2
0
-4
3
0
-3
-2
-1
-11
16
9
5
10
-9
11
21
-2
-3
5
-1
-7
2
-6
0
-2
3
5
-7
3
0
-2
6
-2
-3
-26
3
13
-52
-12
2
-16
-3
-14
-56
-38
25
-48
-25
48
-35
-21
9
-36
-5
-21
-9
-2
-9
8
-14
-35
1
16
-9
6
3
-34
-24
-43
-50
0
3
0
-1
4
-3
6
1
2
2
13
23
-14
-3
20
-20
2
9
-6
-3
-2
-7
1
-5
-3
3
3
-10
5
-17
10
0
2
10
-1
1
8
11
-1
-2
0
2
7
4
-7
-7
10
18
-21
11
10
-29
-8
-35
6
14
5
7
3
-19
-15
-20
-22
17
10
23
17
24
10
33
-14
-60
54
28
-36
36
-20
-40
12
-35
-53
12
10
-11
1
9
12
-82
-56
-44
4
1
-4
2
-3
1
-6
-4
-2
2
3
15
3
7
-18
11
-9
-28
2
26
3
2
13
8
14
-46
-63
34
-2
-13
-9
-14
-32
-46
-11
-35
5
0
-3
8
3
2
-1
-4
-4
1
-3
-2
-3
-2
3
2
0
2
5
-1
-11
7
-5
-7
-3
2
-7
19
-24
-7
20
-8
16
36
-17
-6
1
-2
-4
2
-3
-1
7
4
5
-4
1
-1
2
5
-1
4
2
-4
-37
1
3
10
7
6
31
12
12
34
-11
2
20
-26
-38
54
-17
-103
-22
13
17
-12
18
12
-11
-6
2
-27
0
22
-17
7
18
-11
8
26
14
11
-5
-34
-26
10
-63
-43
-27
-4
6
13
2
-4
-10
4
-25
-4
1
-6
-4
12
-1
25
-18
-18
6
0
0
-8
-2
-1
-4
-12
-15
-3
-12
10
20
4
6
28
65
17
16
7
-3
-55
-6
0
-19
3
23
-48
3
-4
-2
2
-6
3
8
3
8
0
0
-1
3
9
1
-2
1
-5
8
12
37
-16
15
0
-10
-26
-80
1
-4
0
3
6
4
0
-2
3
7
2
8
5
7
-1
0
5
3
8
10
-3
2
-3
21
36
6
27
23
17
-6
5
16
-27
-16
-56
-78
-22
15
7
12
16
25
40
30
-7
-19
-34
-24
-9
-21
-20
1
-21
0
-46
-24
0
-35
-15
31
-39
17
50
16
14
24
6
26
7
26
30
-10
-6
-1
-3
-8
1
8
5
13
29
21
16
0
13
4
-11
62
3
-72
16
7
5
1
-1
-59
-1
-49
-128
33
13
16
31
11
30
9
-12
8
-2
-4
8
-4
7
5
10
-16
6
2
19
31
-18
6
-7
-7
12
-5
-1
-2
-4
1
4
-29
8
-24
-19
-6
-12
9
-7
-8
7
29
-5
-61
-1
2
7
0
-4
1
2
-2
2
-1
-8
-16
-28
1
-18
-15
-11
-25
-10
-2
13
-10
-14
-7
-42
-52
-87
-21
11
13
-20
2
28
-5
-6
-1
2
5
0
0
-1
-1
11
2
-1
-2
1
0
-5
-2
3
2
-5
-2
-1
-2
-3
-2
-2
-4
3
-2
0
-4
4
2
-3
-2
-5
-1
-6
-2
-27
6
22
-23
7
15
-22
4
-7
-2
0
2
-2
5
5
-4
-4
2
-6
-1
-2
-5
4
2
3
2
0
19
30
-4
18
-11
-51
-9
-41
-20
28
26
32
11
42
-8
42
-17
-88
29
21
-1
17
29
-12
33
5
-53
15
5
6
-1
-10
-12
-57
6
-8
5
2
2
-1
4
-2
0
-3
1
1
2
-1
-2
-11
-26
-15
-20
-37
4
-1
2
4
-6
-6
-5
1
3
13
5
-4
-14
-17
-13
-45
-25
-27
-4
2
9
6
-4
4
-3
2
7
12
-7
-17
-73
-56
-46
-67
-6
-23
2
-12
-59
-34
-29
-53
-24
-11
-46
-12
-44
-46
5
-8
-19
2
6
-15
16
18
1
-4
23
13
-8
-14
-3
3
2
-40
3
16
8
2
6
-5
-4
2
5
-4
2
-3
-3
-4
-5
53
20
39
41
1
2
-7
-19
-109
-1
6
6
29
15
23
15
6
-3
51
41
15
-28
-30
-16
-33
-26
-25
-1
5
4
-4
-1
-4
2
-2
0
2
2
0
5
-1
0
-3
-1
0
4
-2
-2
4
-3
4
-4
-2
-1
-11
1
2
-12
-8
-42
-8
31
-29
-5
1
0
-8
0
0
-2
5
-5
-2
1
-8
-5
-4
-3
-1
-5
4
30
12
27
16
4
9
-54
-44
-121
20
20
25
2
1
-15
5
15
-77
47
24
42
16
-14
-1
-7
1
-29
2
-6
-10
-27
-20
-13
-51
-3
-50
19
24
16
24
9
25
0
-10
10
27
8
35
2
5
-1
-50
-18
-40
-18
-3
-17
16
7
3
-8
6
11
11
1
-4
10
13
-2
4
4
-6
12
16
-2
-37
-2
-17
-45
26
1
-14
-7
0
5
10
12
-33
-3
-12
4
5
10
10
12
3
5
6
10
-3
-1
-6
1
3
-3
5
-4
3
-1
-2
-19
33
26
34
-6
-6
-10
-4
1
-2
-4
-2
-2
-2
1
3
-6
-2
-2
3
4
4
7
-1
3
14
11
-4
-53
-16
-42
-8
19
-16
0
13
5
-2
14
8
-5
-10
4
22
30
48
-12
6
-18
-50
-22
-49
1
-3
-24
-2
-11
-30
5
6
0
-47
-32
-22
-27
-11
3
0
9
-6
3
-15
-46
-2
-3
-12
0
5
-40
-5
-18
-7
-2
-3
-7
-18
-16
4
27
13
-6
-4
6
-29
-22
5
-33
8
5
1
12
10
23
31
-1
-23
-5
-10
-15
5
6
-17
-5
6
12
-15
-15
19
-8
0
-2
-27
-6
-37
28
15
40
9
-5
15
-30
-18
-31
-6
-11
-14
1
1
4
-5
-10
-68
-9
-18
21
-29
-75
-39
22
-7
-68
2
0
10
-7
-1
5
-1
4
3
23
23
48
4
-7
4
-98
-67
-45
-14
-7
0
0
-3
-15
6
-15
-24
-25
-16
-4
-16
-36
5
22
0
-16
2
2
3
0
0
0
4
3
-2
0
4
0
-2
-1
-3
3
-3
-4
-2
-5
1
-4
5
1
2
3
-5
4
-4
1
3
-4
4
3
-4
3
10
-3
21
11
-7
18
-36
-17
-44
-6
-5
-7
-3
1
-9
-4
4
-5
4
4
-5
3
4
5
8
-3
-6
32
-4
-12
-45
-17
-22
-22
-11
-15
12
34
6
5
1
-33
18
5
-83
-4
-5
24
-10
4
8
-25
-19
-20
-41
-29
18
-34
7
13
-5
14
-12
-2
-1
1
3
1
-2
2
3
1
-32
-69
-78
-8
13
19
-54
0
-3
2
-4
4
6
0
1
5
-2
0
-13
-8
-32
-27
8
49
21
-14
3
2
-3
5
-6
-4
1
-1
-6
3
-13
1
17
6
5
17
6
30
29
-4
-17
11
-1
-19
5
22
8
-1
16
1
1
-4
-22
-33
8
20
-9
-3
-20
-6
5
0
10
21
32
47
7
-11
22
-1
-14
42
22
4
20
0
-5
1
-1
1
3
-3
2
-5
-30
7
-70
-28
-54
-15
-29
-49
38
-13
-24
-74
-16
-56
-13
9
0
5
-18
-11
9
-8
0
-9
30
17
31
-5
3
1
-2
-1
-4
4
4
6
3
0
5
5
2
1
-2
6
0
0
-5
-4
-7
-5
-14
-6
-7
-6
-17
-4
-41
25
32
40
-54
-2
26
-2
1
5
-2
-3
6
-3
-2
-1
-4
-3
1
-2
-1
-4
4
-2
-3
-13
-42
-32
-6
-11
13
-2
-25
10
-5
-1
-44
19
34
50
6
22
29
-51
-60
-128
-11
-1
4
39
-25
15
-1
8
-15
9
-3
-13
-22
-8
-6
23
-13
-3
12
-12
8
37
34
41
41
49
-60
-14
20
-35
-55
-15
-24
7
11
12
16
-5
-25
23
16
6
-11
-2
-3
-2
-1
-4
-7
4
-7
-45
-35
-60
-58
-45
-45
-41
-14
-19
-14
-48
-25
-21
-32
13
3
2
21
1
2
-3
-8
7
-1
-1
2
-2
1
-1
2
0
1
5
4
-3
1
-22
-78
-115
-26
-57
-12
-25
-19
-14
-2
2
-2
4
3
-4
-1
-1
4
10
3
-4
5
-10
7
5
-5
1
0
20
3
2
4
22
-5
1
-16
-24
-31
16
13
42
37
6
23
20
-17
-36
-67
-30
-35
-3
-2
-4
-1
4
9
6
8
13
9
12
14
8
20
31
-20
51
-8
-42
-21
-34
-27
-19
-37
-44
-28
-28
-20
8
-3
1
-15
-13
-9
7
-1
7
-1
-17
-21
-8
-56
-32
-18
-28
-18
1
-1
-2
-11
-123
-127
-40
-64
-13
-32
-25
56
0
-20
-5
-8
-13
-12
-3
3
-5
-53
-5
-79
-68
-59
-29
-33
11
-5
-62
-49
-128
-29
27
-10
-30
6
1
-22
3
-10
-6
35
28
11
14
27
-24
-6
-33
4
6
2
7
15
0
6
5
5
-1
-1
3
5
7
1
8
-2
-31
-41
13
-9
-24
4
-6
17
-6
-9
-35
-36
6
-4
-17
5
-19
20
-46
-17
-29
-61
21
14
-9
-3
4
0
-3
2
3
-2
2
2
0
4
1
-5
-2
3
-6
1
5
0
1
-5
3
1
-1
1
-1
6
9
4
0
11
5
2
0
-2
0
-44
-13
-117
-42
8
-53
-52
-12
-26
-2
6
4
1
4
6
-3
6
-3
3
0
1
1
1
0
0
-5
4
-39
-16
2
-28
-17
11
-10
9
27
31
-68
-27
26
-3
12
13
20
39
-7
-53
-51
-23
-34
19
32
17
38
-10
3
12
6
-4
0
16
10
-2
1
-3
3
-5
0
0
0
-2
1
-13
-21
-12
13
7
-14
11
-9
13
-5
-1
-3
2
-2
0
2
-2
-4
-39
-27
-3
19
13
6
2
-1
3
4
2
7
7
6
-4
12
5
4
3
-18
-1
28
7
-4
32
1
17
15
-6
-17
-15
-6
6
2
14
8
11
22
-1
19
8
-4
16
-23
-26
11
-19
-28
20
1
18
18
4
38
-8
-30
-7
10
-13
21
-15
5
57
1
0
1
2
-3
-1
3
1
1
30
11
10
22
-5
-17
13
-32
-49
30
27
16
15
13
8
7
-5
20
20
0
5
8
-5
0
44
19
-6
-2
0
-3
-3
3
7
2
0
4
6
-1
-4
2
1
4
4
-5
0
1
-1
-7
-11
-11
0
-5
-11
-8
-11
5
-2
20
-4
8
38
18
-21
-5
1
2
-3
5
1
-3
2
2
-3
1
-2
5
4
4
4
-5
5
-66
-4
17
-36
2
-4
-19
-10
-31
-47
-35
-51
-9
-42
-11
41
-14
-42
6
-3
-5
-32
-16
-27
-43
-32
-62
-15
-13
-34
-11
7
-12
-26
-18
-2
12
-16
-7
13
13
17
22
9
39
-11
-20
-9
-7
-15
-53
-21
-31
-7
1
0
4
9
15
15
-11
17
25
-3
4
9
-4
-5
0
-4
2
9
-23
10
11
-7
9
-7
40
10
-8
-21
8
5
-4
12
13
3
1
15
0
-8
-3
-7
-5
-10
-7
-10
-2
3
4
-3
-2
7
0
1
0
-3
37
25
42
22
6
21
5
-17
-19
-5
0
1
-1
-1
-3
-1
5
-5
3
-9
-7
6
0
1
-3
-5
-2
-9
5
-13
12
-2
-24
59
7
-5
15
-15
-25
4
10
-4
19
-4
0
-55
-27
-25
-11
-9
-6
9
-5
-29
-25
-28
-36
-33
-41
-49
-52
-49
-55
-4
-31
-30
10
-8
0
-34
-18
21
3
19
27
-25
6
-6
2
-13
-28
-41
-16
5
-1
-14
27
0
4
28
4
-11
15
2
-9
6
49
-11
-41
12
15
40
17
4
18
2
-2
2
-7
13
-2
31
12
3
34
13
14
-18
-16
-19
-27
-5
-18
3
-20
-75
37
28
37
5
-1
-12
0
-2
-47
-13
15
3
-30
10
-2
-33
6
-10
7
13
-2
-1
-21
-29
11
-42
-107
-1
-6
-2
-1
5
2
2
1
1
-10
-14
14
17
0
-8
-11
-9
2
-13
-22
9
-10
2
8
-38
-16
16
20
-21
-41
21
-7
-103
19
2
-85
3
-6
2
4
4
0
4
2
2
0
1
1
2
4
-3
-5
3
4
0
-4
-3
-4
-3
-3
-1
4
2
2
7
5
10
2
-2
-2
2
-3
-10
10
17
-7
-15
-15
-32
-11
-64
1
1
-2
-1
1
5
-1
4
-3
-3
3
7
4
7
2
5
4
2
4
-2
-17
-3
3
8
13
28
16
37
25
-27
22
3
-29
35
8
-39
-45
16
13
3
9
-13
-1
-6
-1
12
29
72
6
-9
-3
-23
-9
-2
-5
0
2
-1
-2
3
3
0
1
24
1
-5
13
6
-16
5
11
15
-1
-9
-3
-1
-1
5
5
-3
-3
20
7
41
18
14
1
10
14
7
-10
5
5
-7
0
0
6
3
4
8
-5
-28
2
10
-6
1
11
8
-21
-1
3
-3
-32
-16
-13
-8
-32
-13
-30
-35
-30
-4
-8
-31
-38
-31
19
36
-4
17
-4
-22
7
-14
8
8
7
31
7
-2
35
-22
12
57
-3
-2
-3
-4
-5
5
-4
-2
2
11
-21
-31
-3
-5
-9
3
14
-15
16
11
42
-5
-20
21
-31
-20
8
1
14
15
-2
-10
-46
-13
2
3
5
-4
1
-4
2
4
2
-3
2
-3
2
-4
3
4
-5
-4
-1
2
0
4
1
2
-1
7
2
0
8
14
-9
-26
15
17
-3
33
4
-34
6
3
-4
-3
5
-1
4
-1
4
-9
0
3
1
1
-5
-1
-1
4
35
27
42
-8
4
-20
-4
6
-34
-12
-21
-53
-9
-7
-17
3
2
-46
25
22
57
2
-6
-23
4
-2
-32
-7
3
30
1
22
-22
-20
14
32
24
19
21
7
-21
-9
8
11
22
16
-7
-10
11
7
-7
-21
12
4
26
-1
20
13
-9
13
-13
-3
19
0
4
5
0
7
7
5
8
13
22
22
27
-7
0
-2
1
8
-20
14
20
33
17
19
11
1
-1
29
5
2
4
0
3
-3
-11
3
8
-2
6
5
-3
3
4
-3
-3
-1
35
21
43
-15
2
-7
-51
-24
-12
0
2
4
-3
1
2
6
-1
3
2
7
6
6
6
-1
-1
3
3
34
9
-3
-17
7
-44
-4
-7
-20
54
38
16
6
6
-14
4
-18
-13
32
44
47
3
13
12
-1
28
-5
-40
-39
-44
-12
-14
-11
-3
-20
-9
-25
-9
15
-26
32
2
-20
19
3
20
-11
-10
-1
3
-26
3
-11
-62
41
-2
18
36
-5
-10
-14
2
4
23
17
27
-1
-3
-7
-19
-20
-33
15
4
29
15
10
5
6
2
-6
22
1
0
9
-3
-5
-6
-5
2
-28
-39
-62
7
17
-34
-12
22
-18
65
29
62
8
1
-10
-1
2
-12
-70
-4
-4
3
0
-20
10
-4
-30
-56
-56
-70
-42
-13
-51
-29
-36
-71
-4
-3
1
5
-2
7
-3
0
-1
-7
-18
0
18
6
7
9
29
-3
-20
-7
-12
8
-1
17
12
43
42
-8
-8
-3
-69
-18
-76
-40
-13
-33
2
-4
-1
-1
5
-2
5
4
-3
-3
-1
-4
3
4
-1
2
-4
2
1
1
-2
-1
-1
4
-4
4
-2
-1
-5
3
10
-4
5
3
-1
-5
1
-11
8
8
16
-1
-6
20
-16
4
-5
-1
-1
6
-3
4
3
2
1
-6
5
-3
3
-7
1
0
2
4
15
9
3
-4
-10
4
-18
-17
-5
20
-57
-18
-21
-3
-25
-33
-36
35
38
-2
11
25
-21
-10
-23
-41
4
15
-4
-5
10
-1
29
15
-13
0
-5
2
-5
0
0
4
4
0
4
8
2
5
13
5
-31
-23
-3
0
-2
5
1
-4
4
0
0
2
-14
-11
-21
-37
-22
-45
-40
4
-35
8
3
-3
4
1
-5
6
-1
0
-8
2
-12
9
14
1
-6
17
85
11
12
-13
-3
-9
-6
33
12
37
16
25
41
-53
0
16
2
-8
24
13
20
-9
-1
-10
-8
34
-11
17
5
21
-18
-6
2
-5
0
5
26
6
-1
6
5
-1
5
0
-2
-5
-27
-26
-8
2
-4
36
-28
-1
16
-3
2
31
0
13
18
13
23
-20
0
11
10
24
8
-20
76
36
29
6
-2
2
0
3
-1
5
5
3
-2
-3
4
4
-2
0
1
-3
5
-7
-7
-11
2
-6
-6
-1
-1
-4
1
-2
-9
20
6
-14
50
11
-3
-1
5
5
3
-2
-3
-3
1
2
3
1
-1
-5
3
-4
4
-2
-3
-16
-5
-19
-14
-4
-21
-46
-34
10
22
0
-4
35
3
4
37
-2
19
-1
12
11
-15
2
15
-79
-32
-54
-4
6
-2
32
21
-10
-45
-5
1
28
12
18
-3
-8
17
9
0
-18
-19
-12
-27
-11
3
-4
-50
-4
-3
40
16
22
-6
3
1
0
-20
-60
-7
-1
-3
-4
2
-8
-4
-6
-3
2
2
0
-5
2
11
21
27
52
1
-16
-15
-27
-27
-26
37
39
35
-3
-9
-12
0
-1
-13
3
9
4
2
-1
-1
-5
4
-2
5
-1
-7
-17
6
32
-28
12
29
0
17
11
-4
4
-2
5
4
-3
-1
-1
2
-3
2
-2
-2
2
5
5
5
-3
-25
-8
-32
2
2
-4
-7
-18
62
18
7
13
9
1
-8
58
11
3
-11
9
-22
-8
-22
-29
-54
-34
4
-12
-17
-23
-21
-24
-25
-58
-72
-67
11
13
-27
18
23
-5
-56
-43
-16
-13
-23
-2
-4
4
4
53
46
22
28
5
18
-8
-6
8
-8
-27
-21
20
19
1
-12
-5
15
50
34
58
-28
-18
15
-28
-45
-21
17
24
4
45
16
11
2
0
13
27
-21
-37
-24
-1
-3
18
21
9
-4
6
13
-12
-2
7
-28
7
13
-37
-11
-11
-1
-11
-5
28
1
-8
33
17
17
-47
-20
-13
-5
20
15
-1
4
23
-4
1
-7
-6
-4
-6
-6
4
-3
3
2
1
-32
9
2
-53
-18
-21
10
3
-6
-20
-33
-8
-14
-31
-12
-20
1
1
-4
7
22
-22
20
21
4
2
1
-3
4
-4
7
3
-3
2
-8
2
-1
-4
1
-1
4
1
1
2
-3
1
-2
-2
-4
-5
-3
8
-4
2
-2
3
-2
-6
-3
0
-15
-4
-10
-7
10
23
-43
-5
-7
-4
-2
0
-3
-1
-1
-4
-4
-2
0
7
0
2
1
5
-3
1
5
-7
-15
-38
13
5
7
65
33
34
12
-8
-42
17
-9
-5
56
26
57
-3
-20
-25
-4
-20
-16
36
33
35
-13
-21
-27
2
-4
-12
-15
2
4
1
-1
0
-4
-6
-3
-5
2
-1
-10
5
3
-16
-3
-20
-10
-10
0
-1
1
-5
-5
4
3
2
4
3
-6
-13
-23
-7
-21
-19
2
11
5
0
0
-1
4
2
-1
4
-1
2
-1
-7
2
-2
-1
12
-10
-3
-3
-10
-19
6
-5
-14
7
-20
-12
-3
-19
3
-13
-26
-14
-10
-14
-1
-11
-8
-12
-2
-2
-14
-1
-14
-8
7
-4
-21
3
-13
-9
1
-7
-12
-19
-3
-2
-4
2
4
4
0
1
5
-12
-18
0
-16
-11
-7
5
0
-10
-23
-2
-1
-9
-2
-11
2
3
11
-5
-12
9
9
8
-2
-10
5
3
-5
1
1
1
3
-2
-5
4
0
-4
-3
0
-5
0
4
-6
-3
-5
4
-6
-2
-4
2
-6
-4
2
-1
-7
-16
-5
1
-8
-9
-10
-13
5
-5
-1
4
4
-1
-1
3
2
3
-5
-2
4
1
4
2
-5
4
-4
-18
-13
-9
-22
-22
-5
-9
-4
-9
-8
-9
-11
-18
-9
-12
-8
0
-9
-2
7
8
-13
-12
-19
-6
-5
-4
-3
-4
26
6
14
7
4
-8
-8
-10
12
-16
5
-6
-8
8
-4
12
-8
16
3
0
0
-3
-3
-6
-5
-22
-13
-10
-12
7
-17
7
4
5
1
1
-6
-2
2
0
4
-6
6
-13
-17
-21
-9
15
7
-13
6
-10
-4
-22
-4
-12
-15
-10
-1
-4
-10
4
2
-2
-2
-6
-1
-3
5
2
4
0
-1
-4
-2
-5
5
1
2
-8
-13
16
-21
-3
2
-10
-9
-4
4
0
-2
1
1
0
-3
-3
3
1
-3
-6
-5
2
1
0
-4
-1
-16
2
0
-6
3
6
1
-24
-5
-17
-6
-11
4
-9
-12
-11
-9
5
-5
0
-7
-17
-6
15
-10
7
-1
-13
-12
1
-12
-10
-18
-16
-7
-13
-15
-4
-6
-8
-1
-11
2
-2
-6
-17
-7
-6
-15
-9
-10
-8
-18
-4
-16
-18
-11
-12
-12
-19
-13
-4
-6
-14
-9
3
2
9
5
-7
3
0
0
-14
1
2
-7
-2
-4
-21
-18
-21
-16
-11
-21
-13
-13
-11
-5
-12
-8
0
1
-14
-4
-22
1
-11
-17
-9
5
25
-13
-19
-6
-21
-7
-13
-22
-18
-3
-14
-14
-3
-6
-2
5
-6
1
-4
1
-4
-7
-4
-8
-9
-1
0
0
-1
3
0
-1
0
1
-8
-5
-9
8
10
12
3
4
2
-10
-18
2
-1
-5
-3
-4
3
-11
-4
3
-5
4
2
-4
3
-15
-6
-4
-1
1
3
0
-5
4
1
3
0
0
-4
3
-4
3
-4
6
-4
2
4
1
4
4
1
2
-3
-5
-5
-2
-1
4
-1
0
3
4
3
-12
-5
11
-17
2
4
-3
5
-20
-1
-5
-3
2
-3
0
2
4
-5
6
0
-4
-4
5
0
1
1
-4
-22
-15
-8
-5
-2
0
-11
-6
2
-20
-21
-15
-5
-17
-13
0
-10
14
-6
-11
-14
-5
-3
-16
-5
8
-11
-12
-6
-4
-4
-8
-6
-3
-5
-7
4
-1
2
0
-4
4
-3
-3
-2
-3
0
-2
-18
-14
-3
-9
-6
-12
-5
-3
0
3
-6
-6
4
-4
0
-12
-7
2
-21
-6
-1
4
-2
0
-4
3
-1
0
-6
-3
4
-5
0
-19
6
-1
6
-7
-5
1
-7
-8
-6
-8
2
3
-8
-1
-7
-4
4
-2
-1
0
-2
-12
-7
-3
0
-6
-11
-5
-9
-7
-5
-12
-1
-2
-6
-4
-1
-8
-5
-6
-3
-4
-11
-4
-1
3
-5
4
-1
-1
-1
4
2
6
0
-2
-10
-9
0
5
-1
-7
6
-4
3
-11
-6
-7
-4
2
-1
-4
0
-4
1
0
-6
2
-6
-1
-1
-2
1
3
1
4
-5
-3
-6
-3
-2
4
4
-1
3
0
2
2
-2
-2
1
1
2
-4
4
4
5
-12
-7
-1
-11
-8
-2
-7
-4
-2
3
-6
0
-4
3
3
-4
4
2
-4
-6
-3
-5
-4
3
-1
-2
-5
3
-3
-2
1
-8
-5
-5
-1
-5
-4
-11
2
3
-2
1
6
5
0
-1
-6
-10
-9
-12
-6
-9
-7
-7
-1
-3
-1
-6
-6
-9
-8
-5
0
7
-11
-6
-3
0
2
3
-1
-2
-3
-10
1
10
-9
-7
-2
-8
-1
-1
-4
1
-14
-6
-3
3
4
-4
4
3
4
-3
-6
4
3
3
-3
-6
-5
-6
-5
-6
1
-9
-2
-6
-8
-4
-7
-2
-8
-7
-6
-6
-8
3
2
2
-2
-3
-1
-6
-4
-5
-4
2
5
3
0
-2
4
3
-5
-8
-7
-1
-9
-8
-2
5
-5
-1
0
4
-3
4
4
-6
0
2
0
4
-5
0
1
-6
-3
2
-5
4
-14
-9
-4
0
-3
1
-5
-2
0
-6
-7
-4
6
-6
3
5
-3
4
-9
1
1
0
-10
-5
0
-1
-5
0
-9
-15
-13
-15
-10
-8
-13
-14
-2
-3
-4
-12
-8
2
-2
-5
-4
-3
-6
-3
-4
-4
-7
1
-4
2
-7
5
-9
-17
-16
-4
2
3
-7
-12
-5
-9
-2
-8
0
-1
-1
-7
8
-2
-6
-9
0
-3
-1
0
1
-8
-1
-16
-4
-10
-3
-4
2
-2
-12
-14
-2
-2
-2
1
0
-9
-10
-2
-5
-1
-13
-8
0
2
-9
-4
-6
-2
-1
1
-3
1
0
5
-2
-12
-11
-6
-5
-11
5
0
-1
-2
-3
4
1
-3
-1
1
-2
-4
-1
-19
-9
1
-11
-3
-5
-1
-6
-5
-8
-13
-2
-8
-10
-6
-3
-12
-9
-7
-3
-2
1
0
-5
-2
-6
-5
-5
3
0
-2
4
-6
2
-2
-5
-5
0
3
1
-3
-2
3
-4
-2
5
1
-1
4
1
1
4
2
-1
-2
-4
-4
3
1
-2
-5
-4
-5
-7
1
0
-7
-3
-7
0
1
-9
4
4
2
2
3
4
-1
-4
3
-4
5
4
4
4
-3
5
-2
-1
-11
-7
-2
-6
-3
-11
0
-3
2
-8
-8
-6
4
-3
-2
0
-1
-2
-3
-4
-7
0
-2
-6
1
2
-6
6
-19
-16
-25
-20
-31
-22
-32
-2
-2
-4
1
-1
-4
4
2
-5
-2
23
-13
-10
-8
-55
-9
6
-18
4
-3
5
-5
4
-5
0
6
4
1
31
-21
-6
-17
-4
-8
-2
-13
9
-2
6
2
-1
3
1
-4
-5
0
-20
-21
1
-16
-19
3
-14
-26
-72
2
-21
-16
10
-34
-11
-3
13
-11
-22
-16
2
-8
17
-32
-34
-5
-25
-27
-8
-15
-11
-21
-38
-20
-22
-58
7
-24
-14
2
-11
-15
-22
-9
-26
-4
-5
-4
5
-2
-5
-5
-3
-5
-34
-8
55
-2
9
7
-7
0
9
1
-24
-4
-7
-9
-18
-24
-15
-7
-28
-9
-5
-52
-10
-14
-9
-14
-22
-5
6
2
1
-2
0
5
5
-2
3
-4
4
2
-5
0
3
-3
3
3
-2
-1
2
4
3
0
2
-4
43
-21
-31
-11
-9
-8
15
-21
-12
2
4
5
3
1
-5
4
-2
1
-4
-2
3
-4
0
3
0
5
4
0
-29
13
-4
10
-1
-1
-8
4
1
-7
-15
-24
2
-16
-20
1
-17
16
8
20
4
-18
-12
6
7
17
22
-28
29
7
-3
36
-23
2
-25
-24
1
-36
-29
-38
-10
-57
-15
-22
-34
-4
-2
18
-8
13
-18
1
8
26
-4
-17
-5
-31
-9
-18
-15
1
6
-4
-6
-3
2
-2
-3
1
0
15
3
-28
-2
-3
14
-16
1
-29
-30
-24
-8
-18
-31
-50
-35
-48
-59
-1
0
-5
-4
-5
1
3
2
1
-3
3
2
-2
-2
3
2
-2
2
31
-4
5
2
-17
3
-4
-2
-16
4
0
-3
-1
-4
2
-1
-2
-3
5
-2
-5
-1
-2
-4
2
6
5
22
5
5
-1
4
-17
15
-29
-36
-18
-3
-28
-18
-19
-13
-19
-14
-16
-27
-18
-4
17
4
23
3
-6
-4
-13
-21
-6
-1
-6
-40
-7
-10
-7
6
-41
-14
-24
-8
9
-23
-12
-9
-2
-3
2
-24
0
-36
6
2
-15
-9
5
-34
-19
-5
-16
8
0
-20
-4
3
-11
-25
-6
-28
-10
-20
-5
-63
-2
34
-5
-21
-8
-4
-19
-30
14
19
-25
0
-5
-47
14
-20
-9
22
-11
-9
-5
5
-33
21
-15
4
33
13
21
3
-13
-6
30
-1
4
23
-2
-21
21
-32
-6
22
15
4
21
-21
-12
-22
-16
-10
-20
-32
-31
-1
-1
1
5
-2
0
5
4
5
8
-29
0
-41
-12
-4
-34
2
14
1
-25
-28
-1
-13
2
-18
-25
-16
-7
-22
-5
-7
9
6
-10
-5
-12
2
0
-1
-5
-3
6
2
3
-2
0
-5
-1
0
-3
-1
4
5
3
1
-2
3
4
5
-2
-1
-2
3
-5
-3
-3
-1
5
-3
3
-4
-5
17
-3
13
-21
-30
29
-2
18
10
-4
4
0
-3
-5
-3
-4
-5
1
0
-1
-5
0
-1
-3
4
-2
1
-3
-27
-20
-15
-10
-17
3
-12
-17
7
-25
23
5
-21
19
-13
-9
1
-15
8
28
5
-17
-26
-23
-31
-8
-74
-60
-30
3
-2
0
30
41
34
1
-5
2
-1
3
2
-3
-2
0
-55
2
-66
-12
-16
-25
-7
-13
4
-1
0
-2
3
-5
-5
2
-1
4
-128
-36
4
-3
20
61
-2
23
31
2
7
4
-4
-4
9
0
11
6
-24
-6
-1
4
6
14
17
-12
-15
-43
-37
-22
-21
-19
-16
-24
-18
2
-77
-21
-31
-49
-30
-28
-43
-17
-22
-38
-15
-46
34
32
-18
29
31
5
-36
-44
-29
-5
-2
-10
5
-23
-10
2
3
-4
6
6
5
-2
-4
-5
-43
24
22
24
26
22
48
13
0
-65
-76
-49
-21
-35
-70
-5
-16
-20
-65
-36
-18
-19
-4
14
-17
13
19
2
1
-2
-6
-3
-1
5
-3
4
-1
-3
1
-4
5
1
4
-2
-3
8
6
6
4
0
2
8
7
11
-17
-35
6
26
-10
9
20
1
16
2
-3
4
0
-6
-6
0
-4
0
3
1
-3
2
-1
-3
2
3
1
-48
15
40
4
10
14
29
24
17
-30
-43
0
-10
2
-5
9
31
2
-56
45
21
25
36
11
-9
-4
5
-35
-16
21
8
-9
36
11
5
42
-44
-16
-72
-5
-9
-30
-18
-16
-53
-86
-25
-15
-3
-7
41
43
9
33
-128
-105
-87
-32
-26
-50
16
-19
4
0
-3
-1
-2
3
-3
-4
-3
4
-10
11
10
-7
7
-15
16
1
-35
-55
-55
-15
18
-13
-23
-17
12
4
-8
1
-1
-3
-1
-8
-5
-8
-1
2
-2
-2
-2
-3
-3
-5
-2
4
-75
-46
-13
-35
-25
-21
6
1
-20
0
-2
-1
-2
1
-2
-3
-4
1
3
2
-7
6
2
-2
5
-2
1
-27
3
43
40
23
36
12
-14
13
-90
-89
-54
22
13
-12
11
20
-16
-22
27
47
-12
19
16
3
18
16
-1
0
5
-5
-2
-6
-15
-6
-8
-19
-19
8
0
-15
10
15
5
21
-30
-4
4
-5
5
18
-5
-9
9
-119
-66
-43
-104
-25
-9
-35
9
-35
-95
-17
-3
-25
-12
-27
-25
-17
-28
-63
-25
46
5
-12
21
32
32
33
-128
-52
-97
-107
-4
-25
-32
8
-2
-58
-32
-2
26
-7
27
25
4
47
-39
25
-7
-60
5
0
9
1
13
-21
-28
2
1
10
10
12
6
0
-21
8
0
1
-3
2
11
-1
11
-5
-3
-5
-5
-2
0
-5
2
-1
-91
-49
-93
-6
-1
29
12
5
24
4
-14
-38
19
-11
-8
-2
-16
-7
-16
-1
18
11
1
22
7
-2
23
0
-3
-4
4
-6
-3
1
5
3
-8
-5
1
-1
3
-3
1
-2
-1
-4
3
-3
0
1
-2
-2
1
1
0
2
2
-3
-9
0
-4
3
-2
-49
-16
-46
-52
-27
28
6
-11
49
-6
3
2
-2
1
-8
-8
2
5
-3
0
-1
-4
3
-2
6
-5
-7
-40
-11
-19
15
28
3
1
10
-31
-15
-5
9
7
9
-3
18
13
32
-74
-20
10
-21
20
-18
-16
1
10
31
18
-29
1
5
-24
-24
20
2
6
-4
1
-1
4
1
-1
-3
1
-9
21
31
-34
22
5
-38
10
18
5
3
2
1
0
3
1
3
0
-12
23
11
-30
17
4
-28
10
11
6
7
-9
0
6
-4
-8
9
6
-20
8
-3
-30
15
25
-31
6
8
-2
-42
-59
-19
-6
-8
-12
10
-13
-21
-6
-12
13
-6
-12
10
22
-14
36
-3
-61
17
-17
-6
-31
-30
24
35
5
-128
0
3
-47
-28
-8
-5
3
6
-2
5
2
4
5
5
-4
-30
-21
-29
4
7
-15
17
11
28
-3
22
-45
22
9
-13
33
4
-19
-1
-2
14
-23
5
26
-30
16
-23
-2
-6
-3
1
-1
7
-1
3
1
3
4
-4
4
-4
2
-5
4
1
8
15
8
5
13
8
9
5
3
25
34
23
11
14
8
-17
-3
3
-2
3
-1
-6
1
-1
2
1
4
1
1
-6
0
1
-6
4
2
-2
-32
22
10
13
9
-16
8
-12
-12
51
35
53
36
14
-8
37
-4
22
-10
-1
-23
-14
14
4
2
8
13
-16
-6
-23
-27
-16
5
-21
1
-8
45
1
-38
4
-26
-21
-27
-32
39
5
5
-25
-12
5
-3
-1
-5
2
28
14
-12
-1
-18
-34
-8
-36
-21
10
-3
1
7
0
8
11
8
-5
-16
0
-26
7
3
0
2
10
7
2
1
-90
2
1
-59
-17
-23
5
-5
-7
-5
-8
-1
2
1
3
-1
-5
3
-1
-4
-6
1
0
-5
-3
5
-18
-123
17
-25
-3
11
1
-21
-2
1
1
-2
1
4
-4
-4
-4
-3
-6
2
1
-5
8
0
-2
6
-31
12
-14
-21
-1
-14
-10
7
17
45
26
-19
21
8
-16
0
-5
-1
10
12
-15
38
30
-15
27
9
-12
-52
-20
-1
-36
2
1
-4
1
-3
-21
-29
-7
-36
-17
-4
-19
-5
-52
-3
16
17
9
-3
-20
3
-17
-35
34
24
-20
8
-2
-58
-5
-34
-44
-1
14
-14
16
11
-5
19
25
-8
40
23
-128
28
28
-48
33
-3
-60
23
17
3
8
-7
-14
-19
-30
-33
15
19
19
-26
-7
-1
4
-7
-4
8
16
-27
-4
4
7
-25
6
6
26
23
38
21
-3
-17
2
-14
-23
-3
-16
1
-29
-14
12
-9
9
11
2
-2
0
3
2
1
0
0
-4
-5
6
0
-23
11
6
11
32
-3
38
-17
-127
21
-13
-30
6
19
20
-16
-38
-24
-40
2
30
-14
10
4
0
1
-5
2
-4
2
-4
1
4
5
0
3
-4
-2
-4
-2
-5
3
-1
-4
-6
2
5
-2
5
-2
-5
1
-2
-2
-7
4
-1
4
-2
-2
-11
4
-56
-4
18
-11
0
16
-3
0
2
8
1
2
6
-4
7
2
0
2
-6
6
-2
-3
9
-1
0
17
21
-28
2
-4
-45
-3
-19
-50
-5
19
47
-8
12
-5
-17
1
6
3
24
16
4
11
-1
4
12
2
-12
-15
8
-34
15
10
53
22
5
-5
-1
-2
2
-2
-1
-2
3
-2
-19
-10
-31
-23
-8
5
-3
24
-14
2
3
2
2
-1
4
-7
0
-4
5
-13
-40
-17
-11
-12
15
21
-16
1
3
-2
-1
-4
0
-4
-4
3
-19
-11
-10
15
13
-13
36
15
-24
-26
-10
4
-21
21
8
-20
15
3
-27
-27
-27
-30
0
-15
-5
-8
10
6
7
13
-2
10
22
-31
17
-3
-17
-25
-20
-37
-14
-19
7
19
-16
1
3
2
1
0
3
-2
1
1
-12
13
-19
-7
-4
-21
16
-1
-16
-11
-22
-36
-25
-50
-9
-7
-6
12
-1
-37
16
-30
9
-1
-9
18
-1
-5
1
-4
-5
3
-1
3
5
1
1
0
6
3
4
1
0
2
-6
0
1
-8
-7
-7
-1
-1
-2
-2
-19
-11
-14
7
-23
-44
45
-15
-50
5
4
2
0
-4
-1
3
6
-5
1
4
5
-3
0
0
1
4
4
-31
5
-23
-36
17
29
9
-32
-16
-12
12
3
23
2
-21
32
-15
-50
-4
16
-29
-26
13
9
-19
-12
1
-27
-18
-24
-15
-3
-29
20
-16
-54
28
-21
-38
16
-34
-16
-14
13
-2
5
-13
-7
-60
-22
-17
19
5
-42
19
-12
-22
16
-15
-14
29
-13
-4
9
-1
2
13
2
1
4
2
1
-66
12
22
23
-4
-12
38
-12
7
13
-14
-26
8
-17
-17
-6
-17
11
-4
0
0
-4
-3
1
6
1
1
3
-5
5
1
-3
-4
3
-2
3
13
-27
-67
-19
-32
-30
-8
7
-14
4
4
1
-1
-5
1
1
-2
2
0
1
5
-3
4
-1
-2
-3
-1
-40
-29
-22
-8
-27
-25
-3
-35
9
-2
-19
-14
0
6
2
19
8
-6
2
-5
2
25
-7
-8
11
-2
19
-28
-24
-18
-24
-11
-22
-29
-11
-1
-18
-24
-11
3
2
-26
6
-28
-67
-43
-21
-8
-17
-20
-21
15
-18
-28
17
4
-10
29
0
-29
20
-6
-20
12
11
-13
25
-4
-5
30
-30
-18
18
-11
-41
-10
-21
-15
-22
-12
-6
7
17
-13
8
1
-25
16
5
10
-45
-40
1
-19
-11
-15
15
-4
-28
-15
-17
-51
9
-38
-14
-21
-4
8
-29
-3
19
-10
-2
16
11
-29
-5
-16
-40
-17
-18
1
-10
9
18
1
-1
1
4
2
-1
1
-4
-3
-3
-25
-40
-17
-59
-23
-11
29
12
-7
8
-22
-18
-46
-14
-19
-33
-15
-32
-36
-36
17
-33
-1
14
-18
10
6
2
-1
-2
-2
0
-2
1
-1
-6
-5
0
-3
3
3
-1
5
3
-2
2
1
4
3
-4
-2
-3
3
0
4
3
4
-1
4
2
-4
1
-5
-47
-39
-64
-42
-47
-21
24
10
-1
-1
1
0
-2
1
-5
-5
-3
-5
3
-3
2
3
3
-2
-2
-3
5
-9
-13
10
-22
40
19
14
-28
1
-1
6
-16
-23
-8
17
3
25
8
15
18
-21
11
-17
-27
21
-19
-5
11
-7
29
28
41
41
41
-2
-62
-3
-1
0
-1
-5
3
4
5
-2
18
3
-8
-7
7
10
-1
-16
-9
1
3
2
-4
2
-4
-5
-5
-5
33
17
13
7
6
7
-7
3
17
8
3
0
3
-2
0
4
1
-7
-18
-7
-14
22
4
-12
-11
-11
13
-22
-15
-2
-18
-6
-18
-3
3
-52
42
-1
3
15
-19
-33
-6
8
12
-18
-32
-36
6
5
5
19
12
-46
-16
4
28
19
19
10
3
-11
-38
-3
1
-3
3
-3
-4
2
4
1
2
10
-22
-18
-1
-25
-27
-5
16
-9
12
27
-6
0
22
-6
20
6
4
-5
-27
12
-24
-5
31
-2
-7
-2
-3
4
1
-3
1
-2
-1
-1
-3
4
0
-4
0
3
0
5
-5
-4
-2
3
-7
-2
-1
-5
1
-1
32
-6
-5
14
4
17
26
2
5
-1
7
-1
-4
0
-2
4
3
-3
-4
4
-1
0
3
2
4
1
0
51
42
52
21
11
-2
9
-9
-1
41
26
18
27
3
-1
18
-1
1
2
21
-24
-5
-11
-22
-37
-28
9
-26
13
28
-18
5
5
-17
28
27
-21
-2
-12
-31
-11
-4
19
9
-1
-4
13
-13
11
3
1
-5
-13
11
-3
-15
-5
-6
3
14
2
8
-7
3
4
8
-1
5
3
5
9
-1
56
30
46
28
-20
-24
44
6
16
5
-7
-16
-10
-15
-26
11
-2
-23
5
4
8
2
-2
4
4
2
-2
-4
0
1
-4
1
3
2
-5
-2
13
27
34
3
-2
10
8
12
5
3
5
-2
0
-1
-3
-3
4
-4
-3
7
0
-4
-1
-4
0
3
-4
1
-2
-6
9
-16
-32
-31
-23
14
26
-3
4
19
25
29
48
21
-19
36
63
59
22
11
-12
16
30
46
-77
-52
-55
-40
-38
-47
-29
-44
-29
-52
-35
21
0
-1
-36
-78
-41
4
33
10
-2
24
14
11
-33
-8
-28
14
-3
16
3
10
-7
-15
-2
-27
30
12
10
-1
-21
-24
35
8
0
52
2
0
-7
-29
14
-17
1
37
20
-25
-29
3
-3
1
21
-1
17
2
2
-25
20
-2
-10
5
-6
25
-8
-1
-30
6
3
-5
21
-3
0
-3
17
16
25
43
27
0
-6
-47
16
-23
-54
5
-51
-19
-46
-36
15
1
0
-1
0
2
3
3
1
-2
-21
-29
-45
-11
9
20
-15
-7
24
-32
-31
-22
-56
-39
3
-41
18
-5
-20
-49
-89
-15
-72
-63
-25
-18
-18
4
-1
-4
-2
-1
5
-1
2
4
-1
2
-4
-2
-3
5
2
-6
-5
0
-1
6
-3
-1
-5
-2
-4
-1
7
3
-3
2
-5
2
0
-5
0
-12
1
-10
-2
-5
-8
-2
-5
16
1
4
-4
-2
1
-2
0
4
-1
-3
-5
-1
-1
-2
3
-5
-4
-1
-4
-3
24
10
14
6
-20
-42
-88
39
22
14
-9
-8
31
22
16
3
54
14
27
2
-20
-3
30
9
29
-48
-9
-33
-10
-13
-26
-8
12
45
-1
-4
0
0
-5
6
-1
0
2
-60
4
-31
-18
15
-15
-17
-31
-38
-4
4
1
5
1
1
1
3
-2
-49
28
-14
-39
-10
20
4
3
9
0
-3
0
-3
2
-3
-4
-4
0
-5
-3
-7
-16
-9
2
-13
-6
-4
-18
-18
-26
11
0
-14
-9
-7
-21
7
3
3
12
12
-13
11
3
-4
-22
-20
-33
17
7
17
16
20
37
10
-9
16
-1
-24
16
-1
5
43
0
-4
-5
-3
0
4
-2
-2
-4
-19
32
3
-13
10
29
-1
14
32
-24
3
26
-2
0
8
21
34
60
-64
-45
-73
-28
-20
-55
-17
-1
-10
5
2
-2
-4
3
3
2
-2
3
-3
3
-4
4
2
3
5
-1
-5
-3
9
12
-1
6
7
6
6
3
-26
-18
-35
-13
-3
-10
-24
-42
-41
3
3
2
4
-4
-3
-1
-2
0
-1
3
-3
-3
4
5
-2
-1
0
-6
25
-3
37
13
59
16
0
18
-48
-22
-40
-10
3
-26
17
-8
-47
-118
-74
-55
6
6
30
18
37
38
-13
-15
-59
-5
9
0
-7
-8
10
8
12
13
6
2
-4
0
4
29
-16
7
-45
-13
-1
-3
-5
-1
-6
-30
-14
18
15
7
20
22
26
23
7
1
2
11
11
4
4
8
6
7
2
16
16
1
26
49
17
35
-35
-25
-6
-7
-23
3
-2
-6
32
5
10
8
-2
2
-11
-2
0
0
6
2
0
5
-6
0
-5
-5
-4
-1
15
6
3
11
23
23
27
39
4
4
-3
1
0
-1
4
5
2
6
3
6
4
7
9
1
1
7
20
7
-13
1
5
6
-27
-12
10
-63
-41
-66
-15
-27
-60
-16
-28
-50
-47
2
-9
26
20
73
48
33
46
-1
2
-4
0
4
-8
-1
2
-13
-18
-6
-41
-9
4
-18
-9
-19
5
34
3
13
26
0
11
9
-2
15
-14
-18
16
11
6
1
-1
6
12
-15
-1
-21
4
-11
-3
8
1
10
1
-3
7
-1
10
28
13
1
13
-20
-15
-28
4
14
-11
-6
10
-11
-23
-36
-93
-32
1
-36
-48
-20
-35
-94
-8
-72
-34
-1
-31
4
15
21
-14
14
-5
-13
9
12
-7
9
7
31
22
17
15
18
10
12
7
5
4
-1
-2
6
-2
2
6
-1
6
-68
-6
-34
-34
-2
11
-19
-11
1
34
15
28
39
22
12
-6
-12
11
19
6
-29
-7
-2
-27
-11
-9
11
-1
3
-5
0
-1
-5
4
-2
-3
0
0
-3
0
2
-3
-4
-3
0
-1
-3
-3
-2
2
4
-2
2
0
-3
-10
-1
7
0
0
-8
-1
3
-39
17
-52
-36
-27
-35
-39
-22
-2
3
-4
-2
-4
0
1
3
3
-3
-5
2
-3
-5
-5
-1
4
-3
-4
-42
-27
-23
-11
-20
2
-30
-22
-2
-56
-15
-73
-35
-2
-18
-19
10
-16
-9
-19
9
-16
-26
18
-4
8
10
35
9
22
0
7
-29
-43
-39
-44
0
0
-5
-3
5
-2
5
-4
-4
-22
-48
-46
1
2
15
24
8
-4
-2
1
2
3
-1
5
4
2
6
22
0
27
30
-8
-2
15
11
-1
-9
-4
-3
-8
-2
-12
0
7
-1
-28
-14
-20
-15
-10
-4
16
-12
-36
6
-7
11
-13
-39
-56
-31
-50
-89
21
10
30
24
-7
-20
-3
-11
5
-18
-36
-12
-7
-16
-13
3
-2
-2
-9
9
18
6
0
3
2
-14
-55
-3
-2
4
-1
-2
5
5
5
1
-15
-5
-18
-6
-7
6
-7
24
42
0
16
23
16
8
10
-16
-4
13
15
2
-34
-41
-12
-32
-51
-39
-43
3
-4
-1
2
2
3
3
-4
-1
4
-1
1
-3
-3
2
-4
6
-1
-3
-1
-2
-2
1
0
-4
-5
-6
4
-26
-43
-20
-19
-6
14
0
-1
6
6
0
-2
3
0
3
0
-1
-1
-3
-1
-1
-2
-4
-1
-4
-3
113
71
81
50
-4
-10
-26
-21
14
24
-4
-20
-23
-16
-10
-79
-49
-25
18
8
28
19
-12
-16
7
1
9
-5
22
28
7
29
40
26
25
-18
-32
-17
-21
-6
15
7
43
20
2
-17
3
-14
3
-7
21
23
-3
25
12
-6
12
3
9
11
-8
-1
-7
4
8
0
8
16
-5
-4
11
-6
55
21
33
15
-21
-2
-14
-8
-10
-1
-25
33
6
4
7
20
-3
-18
3
6
1
0
7
0
-4
6
5
-4
1
4
-3
2
-3
-1
4
-2
10
26
32
15
11
-13
9
1
-50
2
4
-5
4
-4
-1
5
0
-2
1
8
4
8
4
-3
3
2
-15
20
6
12
18
1
30
-8
14
-10
-22
-20
-3
-43
-3
0
-31
-20
-19
80
57
70
49
19
16
-40
-8
-22
-16
-8
-8
-4
-5
-18
8
5
10
2
27
43
24
14
22
25
-20
-68
66
26
7
39
-8
-47
-46
-36
-14
3
-10
-16
15
19
15
-7
0
-6
14
-17
5
-14
-3
-25
-23
-14
-4
23
27
73
-9
-7
-21
-4
-10
-39
1
-7
11
-8
2
12
-13
-9
-9
-5
-13
-27
-2
4
11
-2
23
7
-28
-4
12
14
-5
7
31
9
5
45
36
7
9
-20
-50
-93
-71
-48
22
-14
-55
6
-20
-60
-6
-38
-13
-1
3
1
8
0
1
7
1
-1
-51
-59
-63
4
1
9
44
1
34
-23
-19
1
5
17
15
31
16
-11
-4
16
3
-34
-25
-32
-28
1
-16
-1
0
2
3
-4
-1
-1
0
1
-5
-6
5
-5
-2
-1
-1
3
1
-2
4
-2
-3
-4
0
2
-5
0
7
-2
0
2
3
3
0
1
-3
-37
-19
0
-8
-7
5
7
0
9
-1
0
4
3
2
1
2
0
3
2
5
3
5
-6
1
-2
-1
-3
12
-16
-7
-31
-34
-40
-62
-46
-47
23
20
13
-2
-14
11
-41
-15
-8
19
3
13
2
-3
3
-15
-2
7
-44
-7
7
-20
-3
-13
-64
-39
-76
-4
4
0
5
-3
1
5
-1
4
-25
-23
-36
-44
-17
-9
-41
-2
-1
4
-1
4
5
-3
4
3
-1
-5
-27
-57
-35
-17
-27
-28
-32
-11
2
4
-4
-3
-4
4
-1
0
-1
-1
-16
-12
-52
-20
-12
-46
-34
-49
-128
-4
7
-23
10
4
-47
-14
-8
-35
6
4
15
6
14
9
-8
1
22
8
4
31
6
6
-6
33
12
-16
13
26
45
21
12
2
-6
-8
-31
3
-4
-2
-4
-1
-1
-1
-1
-2
3
-1
-4
20
28
8
47
30
-16
-3
16
51
6
9
24
35
4
-7
-10
-20
-32
-22
-6
-36
-41
-25
-66
4
2
4
-5
-4
0
5
-5
-3
5
0
5
2
-4
3
-4
-3
-1
3
15
9
1
12
9
1
16
2
-26
-55
-12
-59
-56
-11
-76
-39
-48
2
0
-2
-3
-6
-1
1
3
2
-1
4
0
5
3
2
2
4
0
-26
-29
-38
-20
-44
-61
-17
-19
-51
-1
-15
-25
1
-21
-14
-20
-5
20
-8
-6
-16
4
11
11
24
33
10
-10
24
-8
-32
-22
-45
-50
46
-20
23
8
22
23
10
4
49
18
-17
-10
22
-14
-1
21
-1
-17
47
19
8
17
2
-1
4
-10
11
4
-18
2
5
12
7
-2
7
-2
3
5
-13
-36
-38
-59
-89
-31
-115
-80
-64
-1
3
3
-1
-8
0
14
-4
-8
6
-8
-6
0
9
-5
-2
5
5
1
3
2
4
0
4
-2
3
-1
6
6
11
25
1
-12
-9
-17
-13
4
0
-4
0
-6
4
-2
2
-1
9
7
-2
0
7
2
-1
-1
3
-39
-38
-51
-45
-31
-39
-46
-45
-81
-12
-4
29
-18
11
10
-25
-8
3
11
-40
-51
-18
-55
-54
7
-3
-28
7
6
10
10
13
20
15
1
27
-2
16
27
14
-5
-33
-49
2
-29
-33
-6
-3
-52
13
-3
-52
-25
-29
11
17
18
13
10
10
10
2
4
30
-25
9
8
-18
11
10
-4
-9
10
30
24
7
26
6
22
7
1
10
8
31
7
6
17
9
16
12
-10
4
-49
-50
-58
-67
-49
-40
-31
-10
10
-21
-2
8
-10
-25
-13
-29
-1
5
25
-27
-3
-38
-46
1
10
-6
14
-1
-7
-1
-4
-6
14
-52
0
2
-5
-2
2
-5
5
-1
2
8
41
-14
-9
18
-12
-12
18
-36
14
36
36
12
12
4
39
11
-13
-37
-21
-23
-1
7
22
45
41
-73
3
-3
-3
1
3
-1
2
0
-1
2
1
5
4
-2
-1
-2
1
-4
5
6
-6
1
4
-3
5
-1
4
-4
-3
-3
-4
4
4
-1
-4
-3
4
30
-7
-11
-5
-28
-45
-37
-57
-5
-1
2
-5
-1
1
1
-2
7
1
-3
-4
-2
-3
-3
1
3
2
-38
7
4
-14
7
-12
-15
6
-44
-19
-22
-27
-27
2
-20
-5
0
-10
17
11
-6
12
2
-1
26
15
-2
-37
12
15
-42
-5
-1
-31
-9
17
-2
1
-4
-4
5
1
-1
3
-4
48
32
-6
-5
25
1
-21
0
-6
-1
5
-5
4
6
0
-5
3
4
-1
-11
-19
-3
-3
-3
-3
9
-11
1
1
2
5
4
5
11
-3
1
-11
-5
-16
-23
1
1
25
14
8
14
34
41
-3
12
3
-23
-9
-26
-41
-23
39
9
-35
24
-21
-22
-1
-37
-45
-35
-33
-24
-1
-24
-18
27
9
18
51
-23
-5
32
-21
-7
25
2
-5
0
0
3
4
-4
-3
-1
-6
11
5
-19
11
11
14
16
17
-105
-3
49
-29
-32
-4
-1
9
18
-23
-5
-48
-22
-9
-21
1
-8
-12
-5
4
3
-4
1
0
-5
-3
-3
0
-1
0
-5
0
2
0
-2
-5
4
6
-4
-1
-5
-1
-3
-2
-5
-16
12
12
-35
20
18
-10
9
12
-3
5
-5
5
-4
-1
-4
-1
-1
-2
-3
2
-2
-1
1
0
3
4
-44
-9
9
-34
1
-1
-8
-1
6
-74
-33
-5
-45
1
7
-1
3
4
11
8
-17
4
-4
-16
-4
1
-3
12
39
18
-4
24
17
6
9
12
-6
-11
9
-19
-10
0
0
-15
5
11
25
13
18
13
-1
6
12
-13
-71
-58
49
-37
-2
6
2
9
21
6
8
1
3
0
6
4
4
-1
-25
22
20
-31
9
7
43
16
-1
-31
-17
7
-17
-33
0
-29
-39
-5
3
8
-2
-6
1
-3
-1
2
6
-1
-2
-3
-4
-4
3
0
1
3
-28
28
72
-27
-13
5
-15
-4
-13
3
4
-4
0
-1
1
4
-2
1
1
-1
-3
-4
-11
-5
-5
-9
-6
-24
-9
-1
-5
2
-3
19
3
15
-80
-31
9
-64
-11
3
-12
-8
21
-3
32
7
-27
-8
-13
-7
-11
-1
-9
-30
-77
-4
-18
-38
8
-17
-32
26
50
54
23
37
31
5
18
16
-58
-8
-13
-20
-8
-16
17
16
-13
-41
-42
81
-61
-13
33
-24
-26
12
-36
-5
-17
-19
-3
-9
35
15
-1
-66
-39
9
-13
-38
-22
-29
-36
-26
-128
-112
21
-95
-48
18
-19
-15
33
-9
23
20
-15
5
11
4
22
3
26
59
20
-20
1
0
-13
20
11
-57
49
30
-12
24
17
6
13
7
-16
-16
-10
0
-20
-21
18
6
-25
4
2
-3
1
1
-6
-2
-2
3
24
6
7
-6
-13
-29
-24
0
-16
14
11
32
13
7
11
-33
-27
-22
0
-10
-17
5
-15
-38
-6
5
-15
0
-6
1
4
-2
0
1
-3
-7
-4
5
4
4
1
-1
1
-4
-4
4
-2
3
2
-4
2
2
-5
5
-2
4
1
-7
-7
-2
-2
-3
-5
15
38
35
4
19
9
-10
5
10
3
3
3
-6
-5
-3
4
1
4
0
-1
-3
2
-5
-9
6
3
-7
-22
7
27
-30
2
16
-22
5
17
-50
-42
-42
-3
4
3
23
32
43
-55
-46
27
-10
-18
15
24
-3
17
-17
4
4
-24
-1
29
9
11
-13
3
5
1
3
1
0
-4
-2
3
8
22
26
6
14
29
-27
-3
-5
3
-1
3
1
3
-2
-1
-3
3
23
27
6
6
14
-8
-20
-15
-42
7
2
3
-3
-6
-1
-9
-12
-4
-6
8
18
-9
5
21
-20
-11
-27
-27
-19
-18
-23
-13
-4
2
7
10
-8
-31
10
-13
-38
-29
4
8
16
32
18
11
21
-5
-26
1
-3
-9
17
12
-1
4
-7
-35
-6
-10
-44
-5
-1
2
-2
-5
3
-2
3
0
2
19
10
-21
2
21
-11
-2
-14
1
-28
5
8
-22
-20
27
11
3
22
5
11
5
-10
5
-10
-10
-10
-3
-4
-4
-4
6
2
-1
-2
1
1
4
-5
0
5
-4
-1
3
0
0
-1
-2
-1
1
0
4
6
8
8
4
-27
18
-10
15
37
10
23
4
0
-1
-3
-4
3
6
6
4
7
0
5
1
-5
5
2
2
6
-47
-19
0
-6
12
1
28
5
-8
9
-14
-16
15
-18
18
45
-6
39
8
8
8
-50
-1
11
-82
-27
-17
6
-2
-19
11
35
21
-17
1
6
55
38
55
29
9
7
-30
-50
-39
22
22
11
-13
-4
14
-31
-12
4
12
17
6
2
-9
-8
1
-14
-4
5
1
-11
-4
-1
-4
-12
-4
-10
-4
5
12
11
3
22
40
-2
-10
3
6
-40
-1
-11
-49
-3
5
-29
-7
-4
-11
5
-4
-3
1
-3
-5
5
-2
-3
4
-7
-4
5
-4
-9
-19
-6
-18
-22
-12
-21
17
9
9
5
-3
0
-1
-3
5
-3
0
-4
2
6
2
8
10
6
3
5
1
-7
11
26
-1
-5
-25
18
17
-22
8
20
11
-3
3
9
22
18
16
-22
-6
22
-25
-7
21
-4
-8
-11
-27
-33
-23
-35
-35
-29
-107
-68
-38
-1
1
-9
-6
1
15
-24
-4
-37
-40
-10
-41
-12
-17
-36
43
33
21
20
0
12
12
-9
-7
12
-5
-6
16
6
-17
8
17
14
25
28
40
2
-22
-60
-5
-15
-68
5
-8
-55
41
-8
-6
16
3
-7
23
3
1
18
12
-8
2
-4
12
5
11
38
15
16
-4
-20
4
-5
-18
13
9
-47
-27
-63
13
10
-28
40
38
40
-3
-13
2
9
-4
11
40
12
50
2
1
5
0
-3
8
1
5
0
14
19
10
-18
0
-1
-38
2
-36
4
-5
-65
9
-19
-34
-2
-23
-39
11
34
31
0
0
-12
2
16
11
4
4
2
0
-2
6
3
5
5
4
0
3
0
-4
-1
-2
0
3
-1
5
4
0
3
5
-1
-3
0
-3
0
-2
-3
2
-2
2
-4
-4
15
26
-6
-13
10
13
-14
7
16
3
-6
4
1
0
4
-8
1
2
3
0
2
-5
0
-1
1
-1
3
-37
-23
-20
15
11
-10
21
37
16
13
2
3
15
10
10
25
27
43
-1
-32
-16
8
-21
-2
33
17
30
-8
17
5
-7
-22
9
27
3
30
2
-1
2
1
-5
3
-1
3
-4
31
13
-36
19
22
4
-9
-18
-45
5
-4
-1
-1
5
-1
-2
-3
1
18
17
-2
-21
-26
-8
1
-11
-1
-9
1
0
2
-2
-1
2
-6
-4
-2
-1
-5
6
-4
11
4
2
15
-20
-33
-61
1
-13
5
-8
0
32
-29
-43
-34
-10
-19
-34
-31
-33
-46
-6
-8
-13
24
3
1
7
-8
27
7
-23
-20
8
-18
-10
13
9
25
5
-3
0
0
2
0
-4
3
-4
-35
-50
-54
-26
-106
-92
14
-5
2
-22
-6
-12
-5
5
3
1
6
-15
-4
-5
-24
14
-3
0
10
8
18
4
4
-5
3
-5
-4
-1
-1
2
0
-3
-2
-3
6
5
1
-5
5
-7
-3
-1
4
-2
-4
-4
0
2
2
-9
-37
-5
-12
-11
23
-3
24
-4
0
-1
-6
-2
3
4
4
4
-5
1
3
-1
6
-2
-1
0
-2
13
-17
-39
-32
-35
-18
67
17
58
-47
-10
-2
7
-7
-5
46
32
40
6
5
-57
-39
-30
-64
0
1
47
6
2
-32
-2
7
-24
14
25
22
21
19
24
29
19
-3
-20
-4
-28
11
0
-48
-32
-41
-45
35
3
18
0
18
9
12
-1
-24
1
-2
-14
10
-8
-11
6
-2
-1
9
8
6
-12
37
17
-3
10
8
58
34
43
0
-2
2
12
17
21
23
23
50
8
0
-2
-4
-3
-6
-6
-5
-1
-1
4
1
5
-1
-4
-1
-4
2
-31
-1
-48
-20
1
-14
-7
-6
15
-3
5
2
1
-4
4
-1
-2
-1
0
5
1
-3
5
5
2
8
2
-31
-14
-7
-1
-18
-20
23
10
-14
-25
-12
-19
-1
-6
10
15
6
-2
-10
-21
-66
-9
18
4
52
42
85
1
1
13
-21
-6
-9
-44
-37
-54
-14
-44
-76
-40
-37
-57
0
-1
-4
-41
-24
-26
5
-15
8
59
21
25
4
7
20
29
14
11
17
3
-18
-39
3
-10
-8
11
8
-5
4
7
0
-30
-62
25
-1
-42
-5
1
17
-13
-19
-17
5
-1
-34
-14
-20
-43
-33
-33
-94
-49
-47
-60
18
1
-1
-14
10
-51
-31
-32
-84
6
-14
7
-37
1
-20
-5
-25
3
53
33
58
4
18
15
16
1
1
16
12
27
-1
-3
-2
3
5
4
-1
8
-6
30
24
-31
-20
-8
-20
24
9
3
17
10
-22
30
21
22
-3
-4
-23
1
-8
-30
-7
-30
-21
-12
4
-27
-1
6
-5
4
-3
6
3
0
-5
-4
1
5
-5
-4
2
6
-1
-6
4
4
3
0
-1
-4
-2
-3
3
-5
6
-3
7
1
-4
0
2
2
-5
35
-60
-82
-24
-74
-19
-16
-1
-3
-1
0
-3
-5
-3
-4
-3
-4
3
2
3
3
-1
0
-6
2
3
-26
-29
-19
-3
-13
10
37
16
40
-8
-24
-36
-24
-26
-11
-15
-4
22
-3
7
24
12
5
23
22
4
-3
-3
-3
-3
-5
0
-5
-2
-3
-13
1
-5
0
3
1
-3
-5
-3
-5
-6
-6
1
-5
-3
-10
2
-9
-3
2
-2
-3
-3
-6
0
2
-3
1
0
1
-9
-3
-2
-5
-10
0
-2
4
-1
-3
-3
0
-3
5
-3
-1
-1
-6
-8
-3
-6
-7
-5
-6
-7
0
0
-1
-2
-6
-6
-6
-1
-3
-6
-7
-1
-5
-5
-2
1
-5
-5
3
-2
-7
-4
-1
-3
0
-2
-10
-3
-4
-2
-2
-10
-4
-9
-7
-1
2
2
2
3
3
2
3
3
-1
5
-2
-1
-4
-6
7
2
-7
-4
-2
2
-3
2
0
3
-1
-6
-8
0
-9
-4
3
-9
-3
2
3
-5
-5
5
-6
0
3
1
-1
-4
-3
4
-4
-4
3
-1
-4
-2
-2
-3
-1
-4
5
4
-1
0
-1
1
-2
-5
-8
-9
-1
-1
-2
2
-6
2
5
-1
0
5
-6
-5
0
-4
-3
0
-1
1
1
-2
0
4
0
-5
1
-3
-10
0
-7
2
5
0
0
3
-2
-2
-3
4
2
5
1
5
-6
-2
-8
-1
-5
-10
0
-3
-9
1
-4
-8
-1
-7
-2
-11
-8
-9
1
-4
-3
-1
0
-1
-3
-3
-1
-1
0
2
7
-3
4
-9
-2
-7
4
1
-2
4
2
-8
4
-3
-6
5
3
-5
-1
5
1
-3
1
2
-5
-7
-6
-4
-8
-4
-7
6
-3
-3
-6
-4
-1
-8
-3
-9
0
-8
1
-2
0
4
-4
3
-5
2
-2
-3
-3
-5
-3
3
-3
4
-4
2
0
-4
-2
-5
-4
-7
-2
5
-7
-6
2
-1
5
-4
3
-1
1
5
-3
4
-3
-3
4
4
1
3
0
4
-4
0
-6
3
-11
-2
0
-8
3
5
-7
5
-2
-5
-3
-3
-2
2
-5
0
-3
-5
-2
-4
-2
0
-12
-12
-8
-10
-11
-10
-7
-11
-1
-3
1
-2
-7
3
-5
0
1
5
-3
2
-9
-6
-4
-5
-5
-7
-7
-5
-6
-7
-5
3
-10
4
-5
4
-5
-4
-9
3
-4
0
5
-4
-4
-6
-9
-1
4
-4
-1
0
0
-7
-5
-2
-4
-9
-7
-8
-6
-7
-7
-6
-2
-9
4
-6
4
-6
-7
-9
-3
1
1
2
-8
-1
-4
-3
-11
4
0
-3
-5
-1
-3
-1
-2
-14
-3
-5
-1
-8
-1
-2
-6
-5
-1
3
-4
1
-5
-3
1
-1
3
-2
1
-4
-7
-4
1
-7
-8
3
-3
-4
-5
0
0
-3
-8
-4
-5
2
-4
-7
-9
-2
-3
-2
1
0
1
-4
2
-3
-3
-1
2
3
-2
-1
0
4
-2
-4
4
-4
1
4
-5
-3
-3
0
3
5
-1
-3
0
-1
-5
-4
-5
-3
4
-1
-5
2
-4
-6
-5
-5
3
-7
-9
-5
-9
-1
3
0
0
-3
1
3
1
-2
-4
4
-3
5
0
-1
-3
-5
-2
-1
-1
-2
-6
-6
-10
-6
-7
1
-2
-2
3
-1
-5
1
-8
5
1
3
-2
-1
0
4
-5
2
0
0
-5
16
-2
-50
-6
-30
-54
-7
-28
-51
-2
5
-2
-2
2
3
1
2
-3
25
34
4
28
10
-30
23
5
-39
-3
-2
3
4
-4
-3
-6
-1
1
29
21
7
-3
0
-10
4
-3
-28
5
8
5
16
8
6
9
2
-9
3
14
-35
-12
7
-33
-2
-23
-98
12
12
-59
9
-9
-80
-23
14
-79
12
-11
-7
14
-1
17
12
-4
2
24
-22
-101
-13
-118
-93
-75
-28
-79
-47
-57
-92
-54
-30
-58
-54
3
-46
3
-3
-3
-4
3
-1
-3
2
-3
-1
18
-12
-9
-12
-4
-1
11
22
-35
-57
-57
-10
-20
-5
-6
-3
2
-2
28
2
7
6
-58
31
-31
-118
-5
3
3
3
3
2
1
-2
-6
3
4
5
3
-2
0
-2
-1
-6
2
6
3
7
9
4
-1
0
7
52
2
4
12
-14
-9
30
-20
-33
-9
4
1
-3
4
-5
2
-1
0
-5
0
3
-3
2
2
1
0
-5
31
20
10
15
8
19
1
-8
0
63
29
7
35
6
-19
45
-41
-89
39
46
27
18
21
23
3
4
-7
-23
-4
-4
-11
13
-5
-14
26
-24
-24
-25
-48
-44
-36
-60
-61
-3
-27
30
34
15
28
5
18
18
5
-22
-14
-13
16
-6
9
4
-27
-4
-5
-4
-2
-7
-10
5
10
-2
3
4
-10
3
22
6
8
9
39
3
-31
-12
-37
-95
5
-12
-51
-47
-4
-32
2
-5
5
0
5
-1
2
3
1
-2
0
1
3
4
5
-4
-3
1
-4
-19
-42
-7
4
-29
20
3
-1
3
-3
-5
-1
3
-4
0
2
2
-2
1
6
5
8
5
-3
1
-2
2
1
-3
14
1
-10
15
19
-6
5
-8
-45
0
-22
-59
-13
-35
-28
-18
-11
-7
3
5
-36
-9
18
-51
-5
7
10
3
5
11
10
2
-8
-18
19
13
-15
22
5
14
13
-29
43
14
-36
17
-8
-22
9
-21
-39
-15
-38
-32
-8
-1
16
-21
-5
11
-31
-25
-33
0
8
-38
13
7
-30
32
15
-100
17
-2
-98
0
-63
-47
36
-16
-10
8
-2
22
-8
-14
-3
44
31
-6
22
7
8
16
14
-6
15
45
23
11
9
8
16
7
-6
34
1
16
16
-12
-30
-24
-54
-43
32
28
33
21
10
-4
5
-13
-47
3
1
1
2
-5
4
-1
5
1
-5
8
-24
18
1
-16
4
14
-43
11
8
-61
-3
-6
-111
-50
4
-114
-44
-18
0
-17
20
13
2
6
4
-2
1
0
3
-1
-4
4
0
0
0
-3
3
5
5
4
4
-4
5
-1
1
4
4
1
2
-2
-4
-1
4
1
1
-4
0
4
-2
5
-4
14
38
7
10
19
-8
18
16
4
3
1
5
-1
0
-2
-2
2
5
2
5
-2
2
-3
5
7
-4
-3
23
-9
-78
6
-62
-58
-33
-65
-56
26
49
-42
26
15
-40
20
-39
-81
-29
-33
-55
-5
-33
-19
-23
-21
-19
14
8
-23
27
6
-49
-27
-17
-25
4
-2
-3
5
-1
-5
0
3
-2
-74
-42
-22
-19
-25
14
1
-62
-52
4
-1
-1
-4
-1
6
4
2
-4
-82
-44
-36
-15
-72
-83
-15
-29
-59
-4
-2
-4
-8
-4
6
-9
-5
-5
-10
7
-55
6
1
-2
7
1
-10
19
-22
-18
23
-9
-66
45
49
-43
67
9
-22
39
-9
-11
57
13
14
-35
-8
-49
-2
-36
-49
-8
8
-28
38
-45
-53
7
-9
-70
7
-5
-57
2
3
0
-3
-6
-1
-1
-4
0
-3
-29
-12
-49
-14
-64
-28
-9
-6
58
-4
-55
19
-5
-39
27
49
23
-32
-14
-21
-2
-46
-49
-8
-20
-19
3
2
2
-5
5
-4
2
2
-3
3
3
0
2
0
-3
0
-2
0
5
-3
1
-8
1
3
-6
-2
10
-27
-34
-24
-14
-9
-8
-4
-9
-41
3
-2
-5
1
4
5
1
6
-2
-2
4
4
-3
6
0
3
-1
1
59
2
-3
20
-1
-32
-8
-13
-22
-27
-44
5
-19
-7
1
16
-14
-17
-42
-48
-44
-37
-12
14
-44
18
-22
6
-7
-30
-20
-14
-44
-9
1
-61
-34
-25
7
-11
-33
-53
9
9
11
-78
-39
-18
-49
-7
-59
-11
-18
-40
29
-21
-12
16
-17
-33
20
10
30
9
7
2
10
-3
1
-6
-4
-3
32
-18
-12
9
-21
-57
24
23
-22
11
16
3
4
-8
-34
2
-4
-6
7
4
0
6
-2
-2
-1
5
1
-6
2
0
-5
3
-4
0
-2
0
5
-13
-29
6
5
-56
36
28
-43
1
-4
-4
-4
-5
1
-7
0
4
6
-5
-5
6
-8
-3
-4
-8
3
9
-2
-41
14
10
9
21
16
-1
32
-21
-15
28
-1
-52
-8
-49
-35
21
-10
-4
6
-21
-21
45
12
-18
-21
-3
-1
-14
3
2
-9
-6
-1
4
-38
-29
5
-10
11
-21
-10
-10
52
-9
-17
29
-9
-18
6
13
9
53
-19
4
20
-11
-17
34
6
17
41
-20
-14
33
-9
-28
74
41
45
-27
-18
-28
-8
-11
-45
7
28
-42
41
1
-7
23
0
-23
18
10
30
-16
-12
-20
-19
-10
-6
-9
-10
-24
-38
-61
-22
-3
-4
2
7
-16
-54
26
-20
-5
18
-30
13
1
-11
-3
-5
4
-52
13
19
15
1
23
7
8
8
3
2
-2
-4
4
3
2
-51
-76
-31
-19
-45
-53
-17
-14
-28
-15
-49
-37
8
-12
-10
29
58
-7
49
-18
-47
29
3
-4
21
33
0
2
-2
0
1
1
0
3
0
4
3
0
-3
1
-4
1
-4
2
2
1
-2
3
-2
6
6
-5
-3
-1
1
0
0
-1
1
3
-6
-4
-2
14
-57
-31
3
-21
-10
3
-19
-37
1
-6
-1
3
0
0
1
-2
0
-5
3
1
5
0
-2
5
-3
-5
25
9
-44
-7
-12
-3
-7
15
14
-33
-20
-12
-14
0
-35
-19
-88
-34
13
-6
-3
4
-11
-30
27
0
37
-3
1
-3
-6
1
0
1
2
2
-2
-3
-2
2
3
1
-1
2
-6
0
2
-2
-8
-3
-4
-4
-5
-7
-3
4
-2
2
-1
-4
0
3
1
-3
-5
-8
-6
-7
-8
-3
-5
-4
-2
-3
4
-5
3
0
1
1
3
-7
3
2
-2
-4
-4
-8
-5
-4
-1
1
2
-1
-5
-7
0
1
-1
3
-2
-6
-3
-3
-5
-9
-2
-4
-1
-6
-1
-2
2
0
-4
-9
-1
0
2
-6
2
-6
-3
3
-3
-1
-1
0
0
-1
3
-1
4
-5
-5
0
-6
0
-1
3
1
-8
-2
-4
-4
2
0
4
-5
-1
3
-5
-1
-4
-2
-4
-6
-3
-1
-2
0
-7
1
3
-3
3
4
-2
-4
-5
-2
-5
-2
0
5
-2
-5
0
-5
-4
-6
4
-5
-1
-4
-2
-6
2
-1
1
-6
-8
1
-2
-3
-4
-5
1
2
0
3
-1
0
2
-3
-1
2
2
2
4
-3
-5
0
-4
3
-5
2
-2
-5
2
-3
0
-3
-8
-3
-2
-3
-4
1
-1
0
-3
3
-1
-3
-1
-6
0
1
-3
4
4
-1
-3
-5
1
1
1
-4
-4
-5
-2
3
-3
-4
-5
0
4
-4
-2
-6
-5
-1
2
-5
-4
-6
-5
-4
-8
0
2
-2
-2
-5
-5
0
2
-3
-3
-1
-2
-5
4
4
0
-1
-4
-2
2
-2
3
-4
1
-7
-4
-3
-7
0
-7
1
2
1
3
-1
-4
-2
0
-5
2
-3
-1
3
-2
5
-3
-2
-1
0
-3
1
-1
1
-1
-4
-2
-2
-6
2
-6
0
-2
1
-3
1
-3
3
-6
-2
0
-6
-6
1
1
-2
0
-2
-5
1
-4
-5
1
-1
-3
-7
-1
-2
-4
-2
2
-3
-4
-1
-6
-3
-7
-5
-5
-5
0
-3
-6
-4
-3
-5
-2
-8
-9
-8
-3
-10
-1
-9
-7
-1
-11
-7
0
-1
1
-1
-7
1
-8
-3
0
-6
-7
0
-4
4
4
-1
2
2
-4
-7
4
1
-6
0
-4
-3
2
-6
-7
-5
1
-5
-3
2
-8
-2
-1
2
0
-1
-3
-7
-6
2
-6
-5
-2
-3
-2
-5
-2
-2
-7
-5
-2
-4
-5
-3
4
-4
-4
-4
-6
-6
1
-7
-2
-2
-6
-4
-1
0
1
-3
2
-2
-3
-5
-4
1
0
2
1
-6
-4
-7
-6
-3
-3
0
-2
-6
-2
-6
-2
-1
0
1
-4
-5
2
-7
4
-4
-3
1
0
-8
-6
-4
-3
-3
2
-2
-5
-5
-8
0
0
-3
-5
-7
-2
0
-3
-2
2
1
-2
-1
0
-4
3
1
1
4
-1
-3
3
4
4
5
-2
2
-5
1
0
-1
-4
3
-4
3
2
3
-1
0
-4
-1
-2
0
3
-2
-2
1
0
2
-6
3
-1
-1
2
-3
-2
-3
-3
-2
-3
4
-6
-4
-3
-3
-4
5
4
0
3
2
-4
-6
-3
-4
-6
-5
-5
-5
2
-6
-6
1
-8
0
1
1
-1
-3
-7
0
-6
-8
-6
-2
1
-1
-9
-5
-4
11
-39
-23
4
-11
-8
1
3
-5
-5
-2
-4
1
-3
-3
-2
-4
-39
-20
-62
-31
-28
-58
28
21
18
2
-4
-1
-3
-2
2
6
5
-1
-25
-22
-16
-42
-33
-1
-32
-16
20
-8
-1
-1
2
0
-5
-2
5
-3
-32
-14
-21
-9
-12
-8
28
28
40
-10
-3
-50
-3
10
-3
32
23
8
15
23
27
22
21
-4
6
-11
-30
8
-8
-33
5
15
13
30
16
6
0
-8
-30
3
16
29
20
13
19
3
4
-5
-4
5
-2
-3
2
-2
25
17
-7
-18
-16
-8
-14
-6
66
21
13
34
12
1
5
-6
-7
-31
-17
-29
-53
-19
-43
-31
44
8
-15
-3
0
-5
3
0
2
3
1
5
-3
3
0
-4
-2
-3
-2
-3
6
8
2
3
-1
5
5
-7
-3
-2
-23
-15
-14
-22
13
-25
-12
-4
16
1
-2
3
3
2
3
-5
-2
1
4
-2
-4
2
3
0
-2
-1
4
31
0
-36
-17
-18
5
-30
-10
29
37
9
-44
-24
-14
-3
16
19
68
-4
-10
-40
-6
14
-9
-34
-8
47
-32
4
-20
0
-17
-57
4
-3
-5
16
-12
-5
10
-4
24
22
4
19
-3
-12
-98
-28
-30
-22
2
8
35
-6
3
9
6
10
-6
-29
-46
-35
7
8
1
9
5
-5
11
15
4
7
16
-1
-13
-4
-4
0
10
5
-4
12
-7
1
17
15
3
5
16
-11
-4
-6
-5
1
-8
-5
-9
-1
0
-3
-3
-3
-4
-2
-2
-4
5
26
21
19
-2
3
13
10
-2
9
3
1
3
1
3
-2
2
-4
1
-6
-6
-7
-7
-6
-4
3
2
-8
-33
-2
-2
-7
17
7
21
35
57
-15
-14
-48
-34
-6
-10
2
1
46
16
-16
-32
-13
-35
8
-6
-1
21
-10
0
4
-6
-7
-8
-6
-4
0
-8
-6
-34
18
-12
-19
14
12
37
-24
3
10
-15
1
11
-4
1
2
-5
-8
5
7
13
5
-4
-16
-4
34
6
-18
1
-1
-7
28
8
-13
4
12
27
0
4
15
-4
-12
1
9
13
-14
21
25
-5
14
-21
-30
-16
3
-56
-17
-19
-26
-35
-15
8
-13
9
-34
-5
5
-33
-1
0
25
7
7
-28
-9
-1
12
-3
-7
30
-2
7
25
2
3
-2
4
-1
18
-5
5
1
2
3
7
-1
1
-5
-26
-16
-55
-20
-2
3
5
22
50
1
21
0
-1
10
13
7
14
21
-11
0
10
16
12
8
18
2
-4
0
1
-2
-2
-1
-4
-1
0
-2
-4
-1
5
2
0
1
-2
-3
1
-3
-2
4
-2
0
-5
-5
3
-5
-3
5
0
-5
6
3
-5
1
0
-17
6
-56
8
12
-32
-16
-6
-8
0
4
8
3
3
1
5
5
6
3
-1
2
4
4
0
4
1
6
-27
-20
-59
-5
-1
3
39
29
31
37
-10
-70
-5
-52
-31
-6
-10
-42
0
-5
7
-6
1
-5
-33
-38
-19
9
15
0
6
8
-38
9
-9
-51
4
1
-5
-2
0
-3
-3
2
5
-34
8
51
-7
-4
6
8
-11
-9
7
-1
0
2
-7
-6
5
4
-4
-1
6
30
-6
0
-5
1
-24
-14
-5
5
-4
2
-3
-11
-3
3
-2
-12
-14
9
-14
-12
-14
1
-14
-7
-17
-26
-15
-11
-9
-11
-4
2
-5
-16
-49
-55
10
-2
4
22
0
24
32
19
-59
4
-4
-22
-33
-14
-31
-12
-14
-53
5
-5
-28
12
18
8
3
7
-5
-3
0
2
-4
1
4
-14
-15
21
-5
-22
-4
-25
-12
9
0
-21
-46
12
6
16
9
20
18
-7
-3
31
-35
-1
-14
-55
-47
-46
2
-1
-3
8
3
-2
-3
-4
-6
-5
5
-5
5
-3
1
4
-4
1
5
0
4
-1
-6
6
-2
-1
2
-1
12
13
-16
9
16
-18
-11
-18
1
0
-1
2
-1
-5
6
5
-1
-6
4
4
1
1
-5
-2
3
-6
43
31
3
22
3
-11
-20
-15
-7
1
12
25
-16
8
6
-61
-4
-16
22
20
54
2
-20
-1
1
3
-13
-3
-6
6
-6
7
5
5
-18
41
-10
11
-28
0
30
6
1
18
9
21
12
54
-5
-5
0
-11
-21
10
-20
-22
-8
13
-5
9
20
21
16
1
-2
-3
-6
-2
-10
-4
2
-5
7
15
2
-3
-2
3
10
5
2
27
20
-24
7
13
24
4
10
6
3
1
0
2
3
2
2
6
10
3
8
1
-4
6
0
3
5
2
13
4
-12
-1
-2
26
12
35
20
-3
2
2
-1
2
-4
-1
-7
-6
7
3
4
2
5
4
8
3
1
10
11
20
-15
-21
-12
16
-4
9
10
12
17
13
-3
-3
-9
-12
-36
-7
5
-42
4
11
-16
-6
-9
-3
-2
-14
-10
-24
2
0
-20
3
-4
24
22
36
-7
7
2
42
-4
16
35
15
35
18
-2
-2
-5
-12
5
-58
-55
-88
20
3
-7
35
19
22
-27
-18
-49
-12
-3
-11
-5
-1
-3
53
49
-30
-13
-8
23
-34
-14
-4
-4
-5
4
22
2
14
20
-4
9
44
10
67
-3
-2
27
-19
-9
16
49
57
103
11
-13
16
2
-6
14
12
-11
12
-5
8
-2
-23
-18
-32
20
4
11
2
-1
6
1
-15
5
4
10
-2
-2
2
-4
-4
1
-4
0
-6
40
6
-8
-7
16
-7
-17
10
3
-7
3
-10
3
8
14
6
27
-10
11
-5
-21
10
4
5
28
-5
2
-4
2
2
4
2
-10
5
-5
6
-1
4
-1
0
-1
2
1
0
-5
-3
3
1
2
-2
-1
1
-4
8
5
2
0
-2
-1
-3
-3
47
39
65
19
-19
8
24
-10
13
0
5
-4
-1
4
1
5
1
2
-5
4
-2
0
-2
-9
-2
-2
-2
-5
-11
-10
0
-10
-34
15
1
-44
1
9
26
-3
6
9
-35
-2
-31
-18
-53
-62
4
-25
2
-9
-7
18
-19
-20
-47
54
18
-32
79
51
48
-2
0
2
2
1
2
-4
-1
2
-86
8
-106
1
9
-8
-31
-32
-48
2
-6
4
-2
2
0
2
3
0
-128
-94
-55
-74
14
-49
-9
-1
-51
-1
1
3
-2
-1
11
-3
4
4
-20
4
-63
9
12
0
20
12
2
-24
-51
-118
1
-10
-45
0
9
27
-35
-3
5
-7
-10
-4
16
4
-2
-57
-35
-67
-61
-34
-45
-3
-13
9
-29
-48
-76
-48
-20
-50
-33
13
10
3
3
1
-4
0
0
0
-5
-1
-44
-40
-84
-57
-35
-30
-22
-50
-26
-13
-43
-17
-10
-11
4
25
3
31
-15
-40
-83
17
-5
-48
51
30
17
-6
3
3
4
-6
3
1
-4
4
1
0
-4
-2
6
-1
1
-3
2
8
3
8
1
10
9
6
5
6
4
6
38
25
5
21
24
-5
5
1
3
1
-3
6
1
-4
3
-2
-4
-6
-5
2
-4
4
-3
-5
-4
-15
-22
-71
-14
-18
2
34
-12
-21
-33
5
14
-29
-8
-31
-1
-18
-49
-128
-56
-90
-121
17
-41
-13
-30
-36
-27
-9
-83
-3
-7
-2
5
-9
49
-92
-24
-64
-95
-51
-35
-75
-35
-50
-101
-69
-128
-18
-6
-22
-1
-11
-8
-112
-30
-52
-109
-68
-30
52
12
-5
-6
-1
3
-10
-9
-7
-13
-2
-6
-9
-23
-16
44
42
8
51
18
48
-68
-53
-67
-28
-44
-26
17
28
40
-5
-1
1
4
3
-4
0
-7
-9
5
-4
3
-3
5
3
3
-5
5
-26
-5
-37
3
14
8
4
11
46
-5
-5
1
1
1
-4
3
-4
1
0
3
-5
3
-4
-5
7
4
5
-6
8
-58
38
9
-12
9
2
32
-52
-9
-53
-21
9
-43
2
-4
-52
-17
-16
-44
43
10
-36
33
34
34
6
6
-1
1
7
3
-12
-2
-4
28
-6
-43
30
5
-13
37
37
52
-9
-22
-31
20
8
56
14
-1
44
-128
-32
-24
-128
-17
-2
-28
0
-5
-50
-23
-48
-44
-18
-33
29
22
31
-25
-36
-50
-15
-42
-48
0
-20
18
-128
-9
-30
-87
1
-22
-12
-6
-11
11
-26
-59
29
-3
13
30
-2
45
-128
-55
-87
-30
-16
-43
-15
-7
-46
-25
-44
-9
18
12
4
22
3
21
-27
0
-35
5
-6
16
22
1
28
-2
-2
-4
-5
-3
-6
-4
-1
1
-123
-43
-126
7
-12
-77
-18
-31
-60
-43
-45
-72
-27
-30
-11
-73
-21
-7
-13
-21
-57
23
-24
4
41
12
80
2
-1
4
-2
1
-1
-1
-5
4
-5
-4
0
-4
0
3
-4
-2
-6
4
4
1
3
-1
6
-4
1
6
-3
5
0
-1
-5
-4
-6
-6
2
-49
-44
-98
17
-7
-34
3
-14
-11
1
1
-2
-4
-5
4
2
-5
3
-5
2
-4
5
0
0
-4
-5
-2
-53
-37
-40
10
-1
-20
2
7
9
-14
-30
-57
-7
24
-31
24
12
16
-99
-11
-11
-128
-46
-60
-25
-5
-2
24
18
20
39
-6
3
-107
-3
47
6
-4
-2
4
3
5
6
3
-6
-13
-19
-12
-40
-10
-39
-25
4
-34
-4
-2
1
-1
1
-5
-3
0
6
11
5
-6
-54
-51
-16
-85
-30
-20
-6
-4
2
-4
0
-8
-6
1
-4
-6
-11
-10
-94
4
12
-70
13
-46
13
-19
-15
-11
-18
17
-12
38
12
24
7
-4
49
25
12
25
-12
-13
3
-6
17
-1
-6
0
-65
-1
1
25
8
26
1
-17
18
-35
2
35
-2
6
-1
4
5
3
-2
-4
-1
32
7
11
5
5
-19
9
-50
-36
9
37
-3
58
31
-4
7
-27
-4
19
-3
10
9
10
-4
-45
54
33
3
-2
1
2
0
-5
-2
2
-6
2
1
-4
-1
-4
4
-4
0
3
5
8
8
2
13
11
3
2
-3
-28
-22
-37
-56
-55
-32
-128
-65
-19
0
-3
4
-5
0
5
2
0
-4
-3
-1
-1
-3
-5
-2
-3
-5
-1
4
-5
-7
-15
-53
-14
-35
-62
-18
15
-12
-19
47
-54
-24
-54
-68
-24
0
-6
42
20
-14
-18
77
18
-6
16
4
4
-63
13
-2
-56
-14
-26
-11
-24
-4
9
2
-10
-61
-10
-16
15
7
28
-62
1
2
-10
-9
-49
13
17
13
40
24
5
-14
-34
7
7
1
2
6
-5
6
-4
-2
-8
-25
-6
-16
-16
12
18
-108
-28
-50
-8
-10
42
21
-5
20
-46
-28
5
-3
0
-8
7
-1
5
-1
-3
9
-4
1
-1
-1
2
-1
2
-2
-2
23
19
18
13
2
5
-49
-24
-8
2
4
-3
2
-5
2
2
1
-1
3
3
5
-2
-2
-2
-3
-3
-3
-25
-17
-16
-38
-13
11
-27
-23
-94
26
30
26
41
36
28
-124
-1
31
-8
-38
-22
-16
-46
-10
-10
-47
-38
-18
-1
-13
-4
5
-6
21
13
6
-34
3
13
-58
7
31
25
16
-50
16
9
-25
45
-14
-24
-47
-38
-2
-5
-13
0
12
20
27
-29
-12
7
10
7
-1
31
-1
16
-108
-3
-12
7
17
27
24
-5
6
-3
-44
31
-3
8
14
24
26
41
-50
-37
32
3
-2
30
-49
-22
3
-115
-20
-32
33
7
55
-6
-13
-14
-54
-17
-7
33
32
-2
22
8
22
-71
-2
16
17
28
-13
-10
-5
-36
-128
-83
-74
0
5
0
2
7
1
-4
5
2
3
-3
36
-48
-14
-19
-81
-18
-26
4
21
23
8
16
4
-4
-9
6
29
26
7
13
43
-7
-39
6
15
1
1
-5
3
6
-3
5
-4
0
4
1
0
1
-4
-3
1
1
-3
1
2
2
1
3
3
-3
2
-5
-3
2
-1
6
6
-3
1
-1
-3
39
15
43
14
-10
-14
-6
-13
7
1
-3
-4
3
4
-1
2
1
3
-5
-7
-4
-3
1
-1
-6
4
-3
27
19
16
6
-22
3
-59
-8
10
5
22
-32
24
5
-14
-56
-33
-18
-17
-6
-3
-1
9
-11
-100
-35
-27
-7
-29
-31
-13
-11
18
-48
4
34
2
4
-1
1
-5
-4
4
-1
2
17
13
-35
-4
-4
-15
-58
-13
-4
-1
-5
1
5
4
-1
-1
1
-2
-3
2
-9
-3
-5
9
-40
-16
8
7
1
-2
10
6
6
-9
1
4
-64
-35
8
-78
2
14
-108
-3
-5
-50
-21
-16
-22
6
-5
-44
-10
-26
-9
32
19
-4
-7
-21
8
-4
-29
37
5
10
6
-22
7
-57
-21
6
-22
-2
15
-41
-14
-4
-46
2
-18
2
1
-5
1
-3
-1
5
-5
5
-9
30
21
4
-2
41
8
17
38
14
15
33
12
9
15
36
30
9
-39
-53
4
-46
-45
19
-80
20
33
-4
-2
1
0
0
2
-1
2
-1
4
-5
1
-4
-4
-3
3
0
-1
-2
-1
1
1
1
-3
-1
-3
4
-24
1
-31
-9
-4
-16
-33
26
17
0
1
-3
-3
-5
1
3
-5
4
-5
-1
1
5
0
-1
4
-2
0
20
-1
-31
13
25
10
33
24
3
