26
16
12
8
-17
14
5
33
53
-3
-1
-30
3
-43
-19
-24
-26
-24
23
4
4
29
-19
-32
-19
-38
-31
-19
-22
-1
0
24
42
-15
-9
-9
22
-6
-6
44
8
-11
5
-31
-44
-44
-2
19
-32
-8
-32
4
41
28
54
5
12
64
25
-5
24
13
-4
36
12
15
11
-36
-2
25
19
43
1
12
-9
-22
-14
-42
-31
1
9
34
-26
-60
43
-44
-34
-9
-23
-21
-2
-2
3
3
-4
-6
5
2
2
13
0
-23
10
10
-10
4
12
-27
21
7
11
29
-23
-38
-20
-52
-50
-41
7
-5
-50
19
-13
60
33
36
-3
4
-4
6
17
5
21
20
10
-33
-2
-2
-21
-5
6
20
14
4
4
-40
-6
27
11
11
-5
-14
-14
-35
4
0
-90
-39
-35
39
53
73
29
-4
-13
13
-35
-20
51
43
34
-2
21
30
-8
7
17
-17
-32
-42
18
2
-37
29
16
33
20
30
27
-8
-13
-35
-5
-49
-3
-59
-73
-8
26
-44
-43
40
-16
-29
-6
-19
-12
-33
-51
-30
-40
-35
-26
-20
-42
-28
5
-56
-81
-62
-128
-60
-64
-72
-6
-1
8
24
8
1
-10
16
40
36
61
-2
-28
33
3
13
-19
1
-3
-71
-21
3
-63
-7
-9
43
40
29
7
1
40
-10
4
9
0
20
39
-33
-52
-29
9
2
-9
15
-7
-15
-10
-8
-14
-20
-39
-24
-35
-46
-38
-3
13
27
4
7
4
-15
-2
-1
4
4
-8
-7
2
-6
-8
-8
-2
3
3
-1
-12
-10
-4
-2
-11
3
-8
3
5
3
-7
-10
-3
4
1
4
-5
-10
-8
-6
-8
3
-4
-1
5
-7
-3
-7
-10
3
-6
3
4
-10
3
-7
-1
-3
-7
-1
-1
-8
-2
-6
1
-6
3
-3
-1
-10
-7
-2
1
-5
1
4
-4
-8
-2
2
-3
-5
4
-2
-7
6
0
-8
-3
-2
-6
-3
-9
3
-8
-7
-1
-11
-6
-4
4
-4
5
-5
4
-3
-2
3
-4
-6
-7
-8
2
-5
-7
-7
5
6
-5
-1
0
-3
3
3
7
-7
-1
0
6
-1
0
-2
-8
-1
5
-4
-4
0
1
-6
-4
-6
-6
-3
4
3
-2
-5
-5
-5
-8
3
2
0
-5
4
1
-2
1
-9
-6
-10
-2
-6
-8
0
-6
-3
-5
-7
1
-4
0
-12
-8
0
-2
1
-5
-6
-2
-4
-7
-9
7
-3
-3
3
-5
-4
5
-8
-4
-1
1
-4
-4
1
-11
-11
-8
1
-1
5
-7
4
3
2
5
3
2
6
-7
2
4
-4
-3
-5
-12
-5
-6
-7
3
-4
-7
-1
-1
-10
-6
-11
-6
-8
-9
-3
-1
3
-9
-3
4
-3
-5
-3
-1
-7
0
1
-1
0
-1
3
5
2
5
3
2
-5
2
3
-3
0
-7
0
4
-10
-3
7
2
6
3
-2
3
-8
-1
-7
-5
-5
2
-4
-11
-4
-11
1
-5
-12
-1
-1
-4
5
5
-5
1
-4
1
-10
-10
-6
3
9
-15
-17
-22
-75
-12
-15
-2
-14
-6
-47
-26
-2
41
13
15
-4
31
17
-28
5
-9
15
10
11
10
19
8
-5
-11
1
-36
-23
7
2
11
18
-19
17
10
-63
-13
-34
-3
5
8
20
-12
-9
-37
-41
-24
-10
6
13
9
5
2
-43
-11
-34
-52
2
-2
-12
6
-9
-30
-45
-20
-17
-12
-21
-49
-17
-11
18
-21
-3
0
1
-23
-51
-31
-21
44
30
35
0
6
5
3
4
3
-4
-4
-2
-4
4
-1
-2
-11
-14
24
-14
18
24
10
-3
-44
-1
-8
22
11
-2
13
21
4
37
6
8
23
-65
-4
-34
19
2
-2
5
-5
-35
-30
-44
-16
4
0
26
17
21
14
-51
-39
-34
18
-6
40
20
14
30
38
15
-46
14
-2
31
18
-18
-15
-41
-55
19
-35
-19
-37
-1
-20
11
-62
-36
-18
-2
4
24
18
5
-33
-26
-38
-22
-11
-16
-20
8
-25
-54
-3
4
2
-5
9
14
-32
-22
-24
5
16
-9
7
1
-9
-5
31
30
48
17
-30
6
-3
-1
-13
-12
12
-4
6
-2
-11
-16
3
-13
-4
0
15
15
1
30
14
-2
3
-40
-73
-55
-27
-18
-23
-30
-1
5
14
17
38
16
-7
18
26
19
18
6
21
-32
-1
-13
18
9
21
-7
-9
-120
-66
-62
-10
29
20
34
18
16
26
9
9
-26
-7
2
2
-4
-11
-2
7
9
9
2
-5
-8
5
-1
-58
-4
-21
-26
-14
0
-4
-4
-6
-5
2
-2
-6
-8
3
3
4
-5
-1
-8
3
-1
1
-6
4
-1
-1
-3
-6
-9
-2
-5
-3
-5
0
-3
2
-3
-5
1
-6
-5
3
-5
3
0
1
-8
-5
-4
-4
-7
-12
1
1
-9
-7
1
-2
4
2
5
-2
0
-6
3
-2
-4
-3
-3
2
-3
-6
7
5
-7
-6
-6
-10
3
1
-5
-6
-6
-5
2
-8
2
3
1
2
-7
1
-3
7
-4
-1
-3
6
5
7
1
-7
-5
-2
-6
-6
2
0
-2
0
-11
-2
-8
-2
1
-2
-6
-6
-5
-5
1
0
-2
0
-3
-6
1
-8
-4
-11
-6
0
-7
-5
-6
-7
5
-2
2
0
1
-9
-2
2
1
5
-7
-12
-4
-7
-3
-3
-7
-3
-3
-6
-1
0
-6
-10
-3
1
-8
2
-7
6
-4
-7
-1
-5
0
-3
7
7
-10
-5
4
-7
2
2
1
-1
-7
-1
0
-12
4
-3
-9
-6
2
0
-4
-6
-3
-2
-1
-11
1
-2
-6
9
-1
6
3
-6
-5
4
3
-5
-1
-10
-3
-1
-3
-4
-1
-11
-9
-5
-6
-5
-9
-12
-2
-14
-4
-13
-10
-1
-3
-5
-3
-8
2
-2
-2
-11
-1
-8
4
-9
-7
4
-2
2
-6
-5
0
-10
-6
-7
-3
-9
-4
-2
-11
2
-1
6
1
3
3
5
-1
1
0
-7
-8
-2
0
-3
6
-5
1
-12
-1
-6
-8
1
-12
-3
2
-12
-12
-2
-3
4
-8
-3
-1
3
-5
-25
2
-3
-15
11
-38
-17
-4
3
-52
18
-15
-67
-8
-17
-38
39
1
16
-3
-4
-10
-42
-36
3
7
-20
28
5
-6
17
-33
9
14
23
-7
-3
17
-8
-9
-41
-13
4
-55
-17
-17
-36
-43
-32
-11
-56
10
22
5
51
42
32
8
-8
8
22
32
14
22
-20
-2
-13
-39
-59
2
-4
31
-55
-7
3
-53
-49
-45
-30
36
6
-71
24
-22
-69
33
-76
-56
1
-4
4
4
2
2
-3
-3
-4
17
37
-20
27
6
-16
-14
-27
-33
38
17
6
14
22
-22
-49
-45
-33
2
21
-29
-8
-20
-18
-46
-36
-7
26
13
12
-31
0
-14
-64
-67
-34
3
20
-23
-10
-11
1
-62
-4
-30
9
1
25
32
4
14
6
19
23
-43
-30
-36
-36
-34
-3
-34
-25
28
1
20
-29
-36
-2
-35
-28
-89
-36
13
-10
-3
-6
-6
-6
-32
-37
-32
-13
25
3
33
17
-15
-16
-26
-12
-3
-23
-10
-25
0
-9
1
-13
-23
67
-5
-56
21
-21
-52
23
-28
-16
-26
-16
-6
-12
0
3
-3
4
5
-1
-27
-24
-4
2
-30
21
-15
-16
3
-5
24
-13
-1
14
-78
-65
18
15
5
-8
33
2
-12
22
17
-14
-59
0
1
-8
-13
16
-17
-24
24
-4
-4
24
-61
-17
-15
-28
-69
-9
-7
6
14
19
5
37
-7
3
51
2
-3
-9
-1
8
3
0
-7
9
1
-4
2
1
-7
-14
-23
-33
-21
-5
3
-10
-1
-12
-12
-4
0
-10
-10
-6
-1
-7
-3
-9
-14
-4
-12
5
5
4
3
-2
-2
-1
-3
-8
1
1
4
-7
-5
2
-11
-11
1
-11
0
2
3
-9
-1
-8
-6
3
-9
-5
-11
-18
-5
-8
-13
-7
-16
-5
3
-1
-5
-4
-3
-6
2
-11
1
0
3
-11
-11
-12
-13
-15
-5
-2
-7
2
2
-3
-1
0
-4
-2
6
-2
7
-6
-11
8
2
-1
-2
-6
-5
5
4
-6
6
1
-1
3
1
-9
-1
-6
-5
-7
0
-2
-5
-7
-9
1
-2
0
-4
-10
0
2
-7
-4
-6
-7
-2
-8
-14
-4
-9
-5
3
-10
-10
-10
0
-17
-13
-9
-4
7
-7
2
-12
4
-1
-9
0
-16
7
9
5
-8
-10
2
-11
-9
-13
2
-3
-19
2
-8
-1
-3
-12
3
3
-5
-5
-11
4
0
-5
5
2
-11
-6
1
-4
3
-6
0
0
-3
-7
3
-2
-1
-4
-9
5
-10
-1
-14
-2
-8
-8
-7
5
-11
-10
7
2
-2
-9
-2
4
5
1
-1
-8
-4
-3
-6
-12
-12
-2
-6
-9
-2
-12
2
-16
-15
-5
6
-13
-18
-2
-10
-10
-4
-8
-3
0
0
-5
-7
-5
4
-1
-8
0
-5
1
-9
-11
9
-1
-7
-9
-12
-14
-6
-5
0
4
2
-2
-8
0
-5
-3
7
-7
-2
-7
-5
-3
-13
-9
-8
-9
-2
-10
-7
0
-7
-5
1
-14
-16
5
3
-4
-1
-5
-1
3
0
5
5
9
12
-13
1
-2
-59
-21
-33
12
6
19
-36
-18
-32
-5
-41
-26
-3
-22
-21
16
9
16
81
45
62
-2
-24
-62
11
10
16
27
20
52
-31
-16
-36
2
-6
7
-22
-33
-22
18
14
1
-1
5
7
-9
29
28
-19
-4
5
16
-9
23
-34
-8
23
-3
10
-10
-3
18
-23
8
-4
-10
-12
8
43
-13
-20
-11
-1
-23
-18
-9
22
60
-23
-26
-26
-1
-50
-69
-3
1
1
7
-2
4
-1
6
1
35
24
23
-5
6
12
12
9
3
-7
-22
-4
-8
-3
0
30
-4
-5
10
1
7
15
12
-4
-3
31
25
-5
-24
-37
25
4
-8
25
29
34
0
-17
-23
-14
-13
-24
18
5
7
-9
-11
13
3
1
-31
31
5
39
-5
-22
1
9
-21
10
-89
-43
-8
-11
-6
27
-21
-23
-17
-19
-54
-28
-8
-15
-28
-9
-3
-6
18
0
-12
38
-2
-35
13
42
14
-4
18
17
9
-6
9
-9
-11
21
4
-10
-18
-39
-5
19
-5
-51
-54
20
4
10
-1
-4
-1
2
2
10
8
1
16
-3
22
43
9
-18
8
-10
-68
-52
-9
-13
-44
6
17
8
34
42
49
5
-3
1
9
2
-46
-47
-76
-37
18
-6
-12
15
8
16
-9
11
26
-1
0
-10
15
5
1
-10
10
4
-5
-22
-14
12
0
2
37
40
38
5
6
9
-12
-17
-2
0
-9
-6
-2
-5
-30
-20
-20
-10
0
10
-8
8
21
0
-6
-6
-48
23
6
-22
9
-21
-7
-20
-22
10
-16
-20
23
-14
13
20
16
8
23
4
14
53
-14
-4
-2
15
5
50
1
11
52
-23
6
11
8
18
37
2
-8
23
2
7
-10
20
8
-49
17
7
-5
-12
39
3
17
54
32
14
2
15
-3
18
-10
-22
-6
2
-8
18
-9
17
-12
5
-32
-9
-9
-14
-3
1
-73
-25
-32
-96
-93
-83
-65
-105
-73
7
-5
-2
0
3
4
-7
6
-5
14
20
34
3
14
46
4
41
55
-4
4
10
-5
9
27
-21
-6
38
27
-23
-29
0
11
-19
-43
-30
-47
10
7
16
6
16
11
1
18
20
22
-17
-2
-11
11
23
-2
15
39
46
6
6
11
4
18
-4
5
9
-31
18
-9
11
32
-42
18
2
-23
-3
-52
-34
-95
-60
-31
-33
-42
-49
2
-1
9
11
12
27
-3
9
36
26
10
3
16
32
38
1
24
43
28
38
38
-4
-45
-15
-2
8
-26
-94
-67
-36
-60
-70
-59
-35
-90
-49
-2
-7
0
-9
-33
0
-13
-17
-20
-6
-21
7
-29
-55
-57
-22
-25
-80
-12
27
12
17
27
27
9
18
43
31
0
-22
-24
-3
3
-13
-4
-36
21
9
-8
-3
-12
-40
3
-20
-49
6
14
17
31
22
-4
18
27
18
40
7
2
9
-14
-3
-20
-23
-10
-16
-26
-11
-9
-46
-18
-10
-41
-64
-7
-4
4
16
11
8
5
10
21
-57
-87
-94
15
-12
-51
7
20
-24
21
-19
-34
30
54
28
-4
20
7
-4
-7
-33
-1
12
-10
14
-12
-22
-26
-11
-41
-34
-38
-55
-4
-35
-100
-17
-26
-43
17
24
-32
0
6
-51
-21
10
-16
-38
9
1
-20
-15
-8
-37
0
-18
-11
15
13
1
-36
-39
-2
8
-37
-12
13
-5
-20
7
5
21
17
0
21
23
-3
-7
31
29
3
2
-5
22
26
9
-9
4
42
-3
5
-2
4
0
4
7
-3
-4
23
-23
-18
28
17
-60
-3
17
6
-1
-1
-25
17
27
-11
3
22
-13
13
-3
-8
-12
-10
9
7
-2
37
-19
-39
-39
3
-19
-28
42
1
-38
31
17
-1
21
11
16
14
26
41
-51
-28
-68
12
13
-28
20
-4
-85
4
17
-4
-53
24
6
-39
2
14
29
0
-2
15
1
13
-8
2
30
42
7
-9
28
13
-28
12
12
-40
-7
-68
-36
28
-22
-23
41
-11
-27
-35
-7
-6
-13
2
-9
-21
-10
0
29
18
-19
36
35
2
18
23
27
-6
2
-10
-36
-8
-4
-7
-12
-4
-3
-2
-7
17
3
9
-37
-4
25
-49
-74
-87
-45
-53
-128
26
-31
-128
-32
-33
-40
30
9
-24
1
-1
-66
-16
7
-10
-42
-20
-18
-14
4
1
-42
-127
-74
-66
-120
-64
-13
-51
-105
-5
11
-23
-12
3
-40
6
21
-18
-11
-6
2
-13
-9
1
-28
-18
-3
35
-6
-39
30
4
-52
10
3
-36
-3
14
6
14
11
-14
23
4
-32
-12
3
0
8
15
-29
23
-3
-3
-18
-7
-10
-4
0
-10
9
2
-32
-5
-7
5
3
-4
-13
9
-4
-7
-14
10
-5
-9
10
-28
-13
9
2
8
16
58
12
13
24
17
14
-5
9
-15
6
-13
-9
-5
-19
-7
9
-36
6
20
-14
2
12
14
-8
4
-42
-23
-31
-32
-1
0
-20
-21
15
56
5
-19
-11
-5
-4
-35
-14
1
-2
-6
-2
-1
7
-6
3
3
-4
-48
-8
13
3
13
7
20
-18
-3
-19
-5
-5
1
1
-14
13
-5
-46
-45
-59
18
-42
-39
3
-39
-13
17
-38
4
17
-8
18
8
19
28
-2
-53
-6
15
-56
-9
22
-30
1
23
-69
-91
-16
-55
-72
-31
-17
-15
-27
24
14
30
6
-28
-19
10
3
30
-21
-50
-11
-49
-25
-15
-53
-54
17
-49
-6
22
-44
12
8
-4
8
11
-43
-2
-10
-11
1
1
25
9
-19
1
-10
-44
3
-25
-79
13
-14
-52
35
-2
-48
-5
-35
-24
-52
-55
43
2
-1
7
12
-5
-14
7
-5
-32
12
-7
-25
3
-16
-15
-11
-46
-27
1
14
31
14
16
11
23
29
-24
-63
-79
-109
-39
-66
-38
-37
-41
-8
-61
-18
7
-13
-39
-2
-25
-8
-4
-5
24
38
5
14
25
32
25
-15
-70
-9
16
-5
-66
-23
-24
-25
1
6
3
-12
2
10
-8
-9
-2
-14
-36
16
21
-12
10
5
13
15
13
8
18
18
1
0
17
8
12
38
42
42
-44
15
0
-36
4
4
-27
25
20
-8
9
0
-22
-2
4
-4
20
10
-13
13
-24
-26
12
12
15
0
3
-2
-16
1
-1
-26
-25
-8
8
-4
-21
-4
-34
3
10
7
59
2
36
-31
-15
0
-1
1
18
-25
-19
29
28
-40
13
1
-43
10
22
12
8
-22
-5
-4
-40
-31
-46
-28
34
13
-9
-10
31
-17
-32
-26
-4
-4
7
-2
1
-4
-3
0
-3
7
28
26
-13
-9
-10
-23
5
10
21
22
22
-12
4
2
-17
-13
7
-10
-12
-37
-39
-88
-106
-25
-93
35
20
-13
10
-2
-24
4
-11
-30
34
21
0
-19
-33
-45
-23
-13
-56
14
14
11
15
7
22
23
-25
18
-7
-24
13
-6
-20
3
-58
-17
-4
-22
31
1
-17
-12
-36
-35
-36
-96
-41
1
-9
5
27
-19
3
31
-51
-7
-10
-41
-36
10
-23
-1
38
-8
24
-5
11
29
26
6
11
-7
33
-14
-59
23
15
-19
18
29
-67
-8
-16
-44
-10
-21
-25
-17
-38
-29
2
-18
2
-9
6
-23
-3
-8
-18
-9
-42
-53
-22
7
30
-24
-10
24
2
23
61
33
29
-10
36
21
-6
-2
-26
-44
0
4
16
-48
-56
-36
-50
5
20
-24
39
36
-38
-22
22
-10
12
53
-16
-11
-4
-22
-22
-26
-3
5
2
-13
-23
-24
-14
-24
-36
-1
-3
-41
-24
5
36
-8
11
33
-48
1
14
-9
-3
2
-4
5
-6
-7
0
-1
-1
3
5
2
-2
-5
3
-7
-8
-7
-1
-3
-11
-9
-7
3
-2
-3
4
-5
-3
2
-1
-5
-4
-7
1
-7
1
-5
-3
6
-1
-6
-8
-2
-8
-3
3
-7
-1
-5
-5
-8
-5
6
-4
-4
2
-5
-1
-5
-3
1
-3
6
1
-8
3
5
0
-9
1
-5
-3
-3
-3
6
-8
-8
-11
-6
-7
-2
6
2
2
1
-3
-1
-6
1
-3
-4
-5
-4
-7
-1
3
0
-4
-8
1
1
6
-1
1
-1
2
-7
-5
1
1
-3
-4
-10
0
-7
-1
-1
-6
-4
2
-8
-7
-3
3
-6
0
-2
-2
-3
1
-5
1
-3
-4
4
5
-4
7
0
-9
-5
0
-5
3
6
-3
4
3
2
-9
-2
-1
-4
0
0
-6
4
-6
0
2
-2
-1
-1
-2
-4
6
-8
-1
3
-4
1
-1
-6
-5
-7
-4
-8
-4
1
6
-8
-7
-4
-8
3
-5
4
-9
-8
2
-8
3
-3
6
-2
-11
-6
3
4
4
-5
-1
-7
-4
-3
-1
-6
-10
-2
-2
3
-9
-3
1
-1
-3
2
-7
2
-9
1
1
0
5
-7
-8
-7
-2
1
-1
-1
-5
6
0
1
-1
-9
-3
-7
2
4
-9
-3
-6
1
-6
-2
-7
-5
-4
-7
5
7
5
-7
3
-2
4
-3
4
3
-5
-3
-6
-3
-6
-5
4
3
-1
2
-7
-5
-9
-9
-9
1
-7
1
1
6
1
-6
-7
-2
2
3
-30
-47
27
29
38
2
21
27
17
19
13
13
11
27
-25
16
18
6
13
4
-54
-27
-3
-81
-54
-39
-5
-18
-25
10
-35
-30
-26
7
28
12
-7
1
-5
10
15
-127
-56
22
-38
-17
-4
2
-16
-15
3
11
-19
-8
7
16
-9
-23
-10
-71
-27
7
-3
-19
-15
-6
-5
17
-20
-27
-32
6
15
12
7
8
31
-37
-22
-5
36
19
23
2
57
59
-6
-5
43
-5
-5
-5
-2
-1
-2
2
2
-6
30
42
7
30
31
34
-21
18
-25
19
24
0
-32
4
21
-85
-20
22
-6
-1
20
-34
-38
-25
-39
-53
-51
5
-12
-8
-66
-40
-24
-102
-56
-54
5
16
9
-29
-18
7
-49
-37
-51
30
-20
-45
23
19
1
-16
1
50
-51
-9
9
11
-11
-32
-16
1
-48
6
15
12
-19
12
21
7
-9
12
36
8
7
3
-15
7
-49
-26
-24
48
6
-1
-1
-17
-18
-4
-8
-12
-23
-64
-83
17
19
34
15
23
33
26
25
13
-23
69
87
-67
-78
-4
-47
-33
-4
-5
-35
-58
2
-4
-28
1
43
5
20
25
38
34
20
30
-6
-9
-11
-34
-20
-13
-59
-41
-93
61
25
-39
34
39
35
-16
15
50
-37
-37
-17
10
-36
-30
-9
-12
-18
-38
-19
-5
-44
-22
-21
-48
-41
-48
-23
-60
-22
4
-15
-55
-29
-8
-9
-23
-11
1
-8
-4
-39
11
2
-32
20
1
-25
13
3
6
-19
-14
-5
17
8
9
-9
9
-3
-10
35
46
6
16
-3
-6
-3
17
-52
12
11
-7
-15
-26
19
-24
-25
-21
-79
-70
-10
-30
-58
18
39
-31
-13
-8
-70
-1
-15
-15
-5
8
-24
-21
-15
-73
-17
-21
18
-28
-4
-34
-35
32
20
17
-15
-34
22
14
5
28
-26
-21
-16
12
22
9
-28
-13
-2
7
5
4
27
29
-24
-9
9
-50
-8
16
27
14
-5
41
2
17
-1
51
55
-3
-5
-2
4
2
-7
4
-7
5
18
6
-7
-10
1
-22
-10
10
-7
-23
-22
-28
6
-11
-23
-34
-60
-57
-43
17
23
-71
-9
24
-2
4
58
2
-9
4
-6
-11
12
2
-19
6
-27
-17
5
-36
-8
7
-30
-12
14
17
-24
-50
18
-28
-33
6
-39
-72
-22
-17
34
-3
-4
-22
15
14
-4
-11
42
21
-41
2
14
-61
52
38
13
5
8
4
5
-1
-15
-25
-25
-5
-23
11
19
-32
18
37
-2
23
16
-5
-11
28
-6
-26
-13
-6
-44
20
0
-19
45
-38
0
40
-23
24
-14
-34
-14
11
-55
-25
7
-59
-33
33
21
-10
8
-9
-2
19
10
31
-1
4
8
9
-4
-23
-14
16
13
41
10
-41
44
-4
0
19
-13
-23
-31
37
1
-35
6
7
-41
31
21
31
1
11
4
15
1
-7
14
40
-27
-17
-29
-7
-34
-7
-14
-48
-33
-5
-25
-11
15
-30
-4
20
-62
-28
3
15
8
5
12
6
-17
-5
12
-45
-47
-58
-33
-32
-4
-32
-5
7
-4
13
29
-9
-15
11
-3
9
-4
21
29
27
33
21
25
23
-1
26
7
26
39
29
18
48
-17
-19
-10
-3
14
47
33
18
25
9
8
1
-10
2
-5
-9
-12
-27
-5
-3
-23
-4
8
44
30
46
17
20
-3
29
-41
-35
-5
8
-10
9
12
20
-13
-19
-5
-11
3
9
-8
12
10
-12
-22
-30
-20
-18
-46
-6
-25
-48
-10
-2
3
5
2
3
-6
2
-4
1
-11
0
-15
-5
-6
13
10
12
11
13
21
22
14
-1
20
10
-17
0
-81
-47
-10
-39
5
-22
56
15
-12
-4
-14
-6
2
13
11
31
14
0
-56
-29
-46
-5
5
-25
81
35
-15
-44
-51
23
0
-6
16
-67
-9
37
-6
-14
0
-22
-23
-40
-19
-28
-43
-35
-36
-17
-11
-24
7
53
31
-6
-3
-14
-23
10
0
-14
22
-1
-16
-29
-13
-14
-1
10
25
2
21
-17
1
17
2
-34
-53
3
-77
-76
-12
6
16
34
15
-6
29
-33
-35
0
9
18
3
-7
-24
5
-35
-14
-10
13
-23
-33
-78
-111
-28
-98
-98
4
-5
4
8
12
6
8
6
0
-12
-75
-59
-3
-22
-4
19
-76
2
10
-58
-62
-26
-37
-19
-9
21
26
7
-14
-22
-11
-14
-8
2
4
-1
11
-62
-26
-5
11
-8
1
-19
16
14
3
2
5
-10
-2
2
-49
-57
-11
-16
-34
-38
-7
-9
-1
2
-1
-2
-7
-6
-9
3
-4
-3
0
6
-6
-3
3
3
-8
-6
5
1
4
-3
2
-8
-10
-4
4
4
-7
-5
-11
-2
2
-2
-9
-1
2
-7
-5
-5
-6
0
4
-5
4
-7
-9
-10
5
3
2
2
0
-8
-5
-4
-3
3
-9
-3
0
5
4
-2
2
3
-6
-7
-2
4
-5
0
0
3
1
5
-7
-6
-3
0
-1
-6
-11
3
-8
0
5
0
4
5
-10
-4
0
-9
1
-4
-1
-2
-5
0
-5
3
-2
-3
-11
2
-1
5
0
-1
6
3
-3
-7
-2
-7
2
1
-1
-1
-3
2
1
-1
-3
1
3
-3
-4
-1
-4
-7
3
3
-7
5
1
-4
-4
0
-10
-1
-5
3
3
-9
5
2
-3
2
-11
-9
-7
-6
-4
-3
-3
-6
-7
2
-8
0
1
1
-9
0
-6
-3
7
2
0
-8
-5
3
-8
-7
-2
-1
-3
1
-1
3
-7
0
-9
-5
2
0
-3
1
-5
5
-8
-1
-3
-10
-6
-4
1
-4
2
-2
-3
4
2
12
3
1
-7
5
-2
-6
-10
-2
-8
-5
-7
4
-1
-11
-1
-5
-3
-3
1
-6
-7
-9
-10
-9
-2
1
-7
-4
-4
-6
4
-5
-7
3
-4
0
-7
3
6
-6
-1
-3
-5
-5
-11
-6
-8
2
-9
-7
3
-2
-7
-7
-2
-3
7
-3
-3
1
3
-5
-2
-6
-5
-5
1
3
-6
-8
-8
-6
-9
-11
-6
4
-11
-1
0
-10
-8
3
-1
-10
4
-5
0
4
-4
-2
-1
-4
1
-2
-4
-2
6
1
-8
-4
0
-4
-1
-2
4
-7
0
-3
-2
-11
-3
2
-11
5
-1
-3
0
3
2
-1
-4
-4
-3
-1
-2
7
6
-1
2
-5
-2
1
-4
-2
-7
-8
-9
-2
-2
-3
2
-7
5
-4
3
4
3
-4
-1
-3
-6
-4
-2
5
-2
-5
-1
2
1
5
-3
3
-8
-6
2
-4
-3
-2
4
1
-4
-2
-9
1
-6
1
-2
-7
2
-6
7
0
-4
7
1
-7
-7
-6
5
-4
-5
1
-11
-4
-12
-6
-2
-2
-1
-8
-3
-7
1
3
3
-4
2
1
-6
-2
-6
0
5
-3
-7
-6
-6
3
-7
0
-6
3
6
-1
-4
2
8
0
-6
-6
-3
-2
-1
4
-5
-3
-3
-2
0
-8
-2
-2
-6
-1
-3
-9
2
-7
4
5
5
-3
-5
-6
-2
-6
-4
-2
-5
0
-10
-4
-8
-4
-2
0
-5
-7
-8
2
-5
3
-7
-2
6
-9
-7
-4
-3
0
-10
-5
-2
-5
-1
-2
-1
4
-7
-1
1
-3
-2
-9
-2
0
1
-5
2
2
-6
4
-11
-10
0
-9
-4
0
3
-4
-1
2
-6
0
-5
-2
3
-10
-10
3
-10
4
0
-4
-4
-5
-4
3
3
-7
-5
-6
-7
-2
-9
-4
2
-8
-6
3
6
4
6
2
-5
-2
0
6
-4
6
-5
-7
-8
0
4
6
-3
-1
-3
-10
-6
0
-9
-6
-6
-2
5
3
-10
4
2
-4
-5
-7
-2
4
-5
-1
3
-1
-2
6
1
1
-4
-9
0
-1
-5
-2
-15
-7
-3
-13
-13
-1
-4
-3
-4
-1
-3
-7
-7
-10
-3
-11
-3
-12
-2
-13
-2
-6
-8
-3
3
-6
-6
-14
-7
5
-6
-9
-10
-6
-19
0
-9
-7
0
1
-4
-11
3
1
-12
-7
-2
-6
5
0
-8
0
1
-9
0
-1
-1
-5
9
3
-3
3
-12
-10
-6
1
-2
-1
-5
-7
5
-9
-11
-4
4
-7
-1
-2
1
-5
-1
-2
6
-12
-14
-2
-6
-4
-13
-3
-10
6
5
-6
-8
-1
-2
-7
0
-3
-7
-1
6
5
-9
1
6
-1
-8
1
2
2
-7
-10
4
-11
-13
-7
-14
-6
7
-2
-8
2
5
-1
-2
-3
-2
5
1
-3
-8
-5
-1
4
-11
-9
-3
2
1
-6
-2
-11
0
-8
-9
-4
7
-10
5
4
-11
-3
-4
2
-1
4
-8
-1
-1
-4
-9
2
0
6
-5
3
2
-4
-9
1
-11
-4
-4
-9
-2
3
-11
-6
4
-5
-5
-5
-5
-6
2
1
-2
-7
-4
-9
-7
-2
-4
-6
-10
-2
-5
-2
0
-12
1
-9
-2
-8
-5
-1
1
1
-6
-5
-6
-9
-1
-13
-5
-13
-7
0
-1
7
-4
-6
-3
-3
-4
-9
-4
-4
-6
-14
0
-12
-10
-3
-1
-3
-5
-8
-3
-11
1
-11
-15
0
-6
5
1
-6
-7
-6
4
-6
-1
-10
0
-12
1
-8
0
-2
-7
-4
-5
3
3
-1
-2
-3
-6
-1
35
28
-43
0
-18
-36
6
-29
9
9
-35
-24
-12
12
17
-13
-5
15
34
18
-18
-1
14
3
46
27
33
-7
-5
-24
-9
27
-7
13
21
25
20
-16
-21
36
0
-17
-8
-28
-3
-28
14
-43
-30
-55
-59
-57
-29
-39
9
-12
-38
20
16
-13
-19
-7
-26
15
3
11
0
-34
-14
22
-8
-5
-15
13
-1
-18
-3
-2
-1
6
15
-4
-32
-41
-6
1
32
73
2
1
4
-5
7
3
-4
7
6
5
-3
16
14
-6
-24
-3
-3
-29
24
10
30
-19
-33
8
-1
4
50
9
5
21
15
5
1
7
-8
-13
-10
-18
-1
15
-7
-23
-19
-34
-4
-5
-2
0
16
-20
-7
2
-24
-6
-20
-27
28
22
27
29
16
-5
-30
12
-4
-21
-40
-40
12
-58
-47
-31
-61
-67
17
-7
-7
6
-13
1
55
-23
-21
26
20
-3
29
13
-39
-3
-7
-2
17
5
-17
-1
-2
-5
-7
-15
-22
-26
-40
-6
-38
-4
-4
-19
-16
-10
0
-17
6
11
20
13
51
8
23
-13
-29
-14
-9
-11
-12
-29
-21
-18
-27
-61
-17
-29
-11
7
4
-33
-25
10
-1
-37
-22
-11
-29
13
19
1
-5
-10
18
33
23
17
-17
5
12
27
20
30
15
-15
-4
11
-26
-17
6
34
18
-14
-45
-60
-23
-8
-2
39
7
35
45
2
-15
-37
16
-29
-27
-44
-12
-25
-22
-10
-37
-23
-25
21
8
-13
6
-3
-3
8
4
14
1
-2
-8
1
0
-5
2
-8
-5
-1
-7
-3
2
-7
-3
-6
-1
-2
-4
-6
-3
-4
-2
-2
-4
2
3
3
-5
-9
6
-4
4
-5
2
-4
6
-6
-2
-6
-4
4
3
-8
-2
-6
-6
-6
1
-11
-1
-8
-8
-3
-1
-9
-10
-2
-12
5
1
-11
-8
-12
-1
-10
-5
-3
2
-7
1
0
-7
1
-8
-2
-2
-9
-8
2
-1
-1
-7
-6
-5
-5
2
7
-1
5
6
-4
0
-6
6
-3
7
6
-2
-8
-2
-12
-5
-1
-9
-1
-1
-4
-8
2
-6
0
3
-7
-7
-1
-2
-8
2
2
-2
-6
-7
-6
-6
-6
5
-3
-6
-8
-10
-6
-1
2
-1
-7
-7
-3
2
-2
1
-2
2
-1
1
-7
-6
2
-3
-3
-8
-8
3
-6
1
-7
0
-2
-2
3
-6
2
2
1
-10
1
0
-6
3
3
-3
3
0
-12
2
-2
-8
-8
0
0
6
2
1
-4
4
-3
-4
1
4
-7
5
3
-10
-12
-6
-6
-12
0
-4
-3
-3
-4
3
3
2
0
-2
-10
7
4
-6
-3
-3
-7
-11
-3
2
-6
0
2
-2
-6
-9
-5
-5
-6
0
-2
1
-10
5
-3
-4
-8
-7
-11
-4
-12
-3
-8
0
-3
0
-4
-4
1
-8
-4
-4
-10
-9
-8
-10
-5
1
-3
-10
-1
3
-1
5
4
-1
-1
4
0
1
-8
-2
-4
-11
7
1
-1
-7
2
-5
-4
-3
-10
-8
-7
1
-7
-4
-2
3
5
-7
2
-4
-4
-4
1
-5
-6
-7
-2
-4
-8
-1
0
-2
0
-2
-4
-1
0
2
-4
4
-8
-8
3
-1
-5
4
-6
0
-4
-9
-1
-3
0
-5
-1
0
-6
-11
-5
4
1
-1
-8
1
7
-1
0
-6
0
-4
-5
-8
-6
4
-4
3
-1
-3
2
4
-4
-6
-9
-8
1
4
3
-8
-2
-2
3
-1
2
-7
-4
-8
-1
3
-4
1
-1
-3
0
-12
0
-2
4
1
6
-1
-3
-1
0
3
7
-5
-4
3
-6
5
-7
4
0
-9
-1
2
-1
-7
-2
-3
-1
3
-6
-10
0
-6
5
-3
-2
-9
0
-4
-5
5
-10
-5
3
5
-8
-4
-7
-2
-9
-3
2
2
-4
-7
2
1
1
-10
-11
-1
1
0
-2
-5
-8
-6
-5
-1
-8
-5
3
2
-8
2
-3
-3
5
4
6
4
-7
-8
-5
4
2
-6
2
-5
-4
-6
-5
-3
-1
5
1
-9
-2
-1
-1
1
-2
-8
-4
-7
-1
0
-5
5
-10
-5
-2
-1
-4
7
0
-7
-7
-1
2
2
0
2
-6
-8
-2
0
-10
-2
-6
0
-1
2
-10
-9
-3
-6
2
-4
3
-6
-6
3
-5
-4
0
-2
-5
-6
-6
-10
4
1
-8
1
3
7
-2
3
-7
-5
-9
0
0
2
-6
-6
-2
-5
1
3
-1
0
3
5
3
4
2
-4
-1
-6
-1
5
-8
1
-7
-1
-9
-4
-4
1
2
0
-2
-10
4
-2
-2
-7
4
0
2
28
21
12
27
12
10
28
15
15
15
11
-5
11
-10
-4
-18
-5
32
-26
-6
7
-7
-22
17
-18
-25
2
-96
-51
-7
-71
-47
-4
27
28
25
-22
-9
15
30
10
50
-1
-22
6
-28
2
18
-27
-24
-55
19
14
-12
-17
-24
43
13
-1
38
-22
-23
-20
71
51
38
25
8
23
-46
-35
16
51
33
5
8
15
9
-81
-3
-16
-13
-31
-47
62
-29
-50
17
20
9
3
-7
4
-6
6
-2
-1
-2
1
49
48
33
22
20
10
6
-9
-20
-1
12
10
29
12
37
-24
-25
22
22
23
7
-99
-30
-32
-28
11
-20
-12
22
27
-13
19
-2
-18
-9
-7
60
31
17
2
27
3
-39
8
-21
-51
-40
-1
28
8
27
21
5
37
-31
-16
-9
-65
-29
-58
-1
-17
-49
111
40
10
50
-2
24
-71
3
18
20
21
13
6
18
16
-19
-19
-21
16
32
25
-4
-9
1
7
-10
29
-89
-73
-45
4
-18
23
-3
-14
23
-54
-61
-57
2
-50
-53
-11
43
-26
-54
-48
-4
-39
-50
-47
15
-2
-22
9
-25
-59
8
-56
-84
-1
-9
1
6
18
22
-7
12
11
6
-6
-19
22
17
13
22
7
20
16
5
26
-21
-19
-14
-123
-51
-32
7
-1
-23
-4
18
37
-23
-7
12
-31
-23
-36
-72
-37
-13
-8
7
-12
8
-9
3
-45
-43
-50
-7
2
-43
0
-11
-33
21
13
18
7
18
-4
13
2
10
19
-20
-25
-30
-17
-14
8
10
-12
-6
-17
-7
9
-3
37
-2
31
33
12
6
12
0
37
18
17
28
20
-9
48
40
-41
-9
13
-60
8
7
-1
4
13
-4
9
12
19
28
1
22
28
2
-24
-69
-7
-9
-42
-35
11
24
68
34
62
45
-8
37
2
12
-1
-25
-8
12
-28
-11
12
-10
-6
-13
-43
26
-12
-6
20
-3
2
-69
-27
27
-36
17
29
63
53
32
-5
5
7
1
-6
-1
5
-2
3
18
-1
-29
6
3
29
-3
-3
25
-11
-19
-19
6
21
-8
26
18
5
55
18
1
13
-4
18
-8
-9
0
18
-2
-3
0
6
-6
11
-12
-12
7
-10
-48
31
-21
-47
8
-24
-47
7
48
30
-24
11
20
1
37
38
-26
-23
-1
-55
-11
23
-82
-31
-29
12
-1
-27
42
17
-13
45
11
6
6
-32
-89
21
-54
-69
5
-36
-39
-16
-6
-24
2
7
-25
-14
-25
-56
-128
-36
0
-111
-26
5
-33
-6
-1
-50
9
76
-46
18
8
70
70
75
-16
-5
-11
-102
-23
-4
-108
-71
-8
-128
-72
-19
-128
-8
-10
-22
-10
-10
15
16
-6
-10
15
-11
10
16
-29
-21
31
3
-7
24
13
1
27
45
82
37
11
-22
-17
13
-72
-14
-4
26
16
-19
-7
-10
-22
-40
-31
-30
75
46
18
-19
17
22
-27
-2
9
-78
-36
-1
-104
-27
-11
-99
-65
-7
3
-18
-75
-22
-43
-64
9
-27
-34
35
34
28
24
-5
-19
20
-26
-53
1
-14
-11
-41
-7
-1
-46
-30
-10
-44
-9
5
-116
-66
-9
-56
-17
6
-18
-12
4
-11
-27
-3
-39
8
21
-12
-13
19
-61
-42
-49
-98
-71
-46
4
11
-23
24
-18
-17
14
-19
-28
-21
-30
9
-10
-35
-37
9
-10
-41
3
13
17
3
-16
-2
-28
-12
-25
23
23
19
-33
36
-12
-54
-23
-13
-11
10
9
-64
-17
24
-36
-37
-9
-3
-4
-6
1
-6
-1
-7
5
5
26
22
12
-28
14
-53
-57
-26
-19
-21
-1
16
-128
-48
-6
-70
-24
-16
1
3
-29
-43
-4
-2
-81
-28
-17
-6
7
-20
1
-33
-31
-32
-50
-37
3
14
-8
-27
13
-6
-51
-39
-66
33
30
40
-15
-2
32
6
34
-9
-18
8
-2
19
1
-34
-15
0
-5
14
27
27
6
-9
12
-66
-75
-38
26
3
15
-2
-21
-39
-58
-45
-88
40
-4
11
19
-12
0
-41
-32
-55
2
29
10
11
-14
19
21
11
3
-50
1
-5
-102
-32
-32
-51
3
47
-18
-25
-24
0
-13
1
3
3
21
-10
5
-10
2
-11
-1
20
-3
-17
6
14
-9
10
-29
-40
-26
-31
-35
52
38
49
-4
18
11
-2
27
-33
-2
6
-1
-7
8
14
-32
13
30
-10
0
-43
7
-27
-46
-2
-46
-55
12
9
-4
-17
15
20
-31
43
52
-2
-6
-10
-2
-14
-13
4
1
19
32
9
14
5
8
-24
-35
-58
-67
-12
5
48
-22
14
15
13
2
-9
2
-17
12
22
6
6
18
12
12
12
-20
-16
18
21
0
-3
19
68
11
-10
-10
28
-5
4
-2
1
50
-14
-12
-23
5
17
32
4
4
7
-9
1
20
-1
-20
-23
8
-22
-10
23
-8
-2
11
42
20
33
31
47
-19
-12
23
-16
-11
-17
-30
-2
-6
-30
-11
22
5
-21
-15
14
15
-8
-3
-43
21
22
-6
-14
15
14
2
6
-1
-7
-1
-5
-3
-7
0
7
3
16
21
9
-5
-22
5
7
19
6
-14
-8
19
15
-19
-24
-1
38
-47
-18
-1
13
-15
-4
-48
-25
-43
10
-21
-25
-16
1
-7
-20
-5
14
-31
-24
9
-33
-13
-30
-38
-18
-46
-1
-4
4
-2
-9
38
27
25
26
-1
17
31
23
11
34
19
3
-7
-26
-31
20
-18
-7
-10
-22
-10
-19
-45
-2
6
-29
-28
-26
-42
-33
-36
-18
9
2
-50
-24
3
-30
11
-23
9
-6
21
11
-11
-4
12
-1
-2
31
3
6
-11
11
3
28
30
12
-8
-14
-26
-18
-20
-34
-22
-30
-30
-5
-2
38
-12
-3
-11
-17
-39
-60
-10
-4
5
9
1
-13
-4
5
35
20
24
16
16
-12
30
21
39
-2
-35
-14
6
-45
-37
-2
-34
-21
-16
6
-5
25
-23
-16
-1
-11
-20
-13
-35
-14
-24
-61
-23
8
5
21
12
-12
-16
-42
-15
-14
-47
-23
-27
-28
-23
-9
12
-37
-4
2
-20
-26
-20
-1
-12
-14
18
-3
-16
37
-3
-39
-10
-22
-28
13
20
-12
20
-3
-12
-27
-7
-22
-20
16
-9
-27
-5
-29
-2
18
-5
0
2
-32
-4
-14
-31
-22
6
-35
-35
-2
-17
-2
8
-19
-3
14
39
37
27
19
72
16
-47
-19
21
5
-40
16
2
2
29
19
-47
-21
-33
-27
10
-9
-43
-12
-21
-23
-27
-22
-6
9
25
-21
5
7
-12
9
-17
-25
13
46
-1
14
24
-3
4
7
0
6
1
-7
-5
6
-31
-24
-38
-6
28
17
-11
11
-2
-24
-23
-52
-15
3
-29
-7
-1
-36
-57
4
43
-40
22
42
52
15
28
-42
-8
5
-14
-7
-3
16
7
-42
-74
-27
20
-69
-15
8
-36
-14
6
-7
-11
0
-30
19
4
-24
21
-20
-12
-10
-6
-15
-38
-3
55
11
-16
-35
-11
-6
-108
12
18
-20
18
-3
-58
-18
-25
-62
-12
-21
-40
5
-41
-10
-14
-26
-23
-18
-30
-50
-26
-11
16
-13
-11
2
-1
31
-37
-30
-4
-8
0
0
-16
-12
34
-47
24
35
1
-9
-9
9
-12
-4
-8
1
13
3
0
-7
2
12
22
21
19
0
-17
7
9
18
0
-47
17
-5
-94
-12
-28
-3
-46
5
21
-41
19
-6
-44
12
19
-31
-10
16
2
32
20
-10
9
16
8
17
-11
36
13
-128
-4
5
16
-38
-11
17
-31
24
1
-1
-5
-5
-2
-14
9
-9
-22
15
-35
-14
-20
-7
-11
-45
-19
-10
-59
-5
-2
-12
-10
-7
-10
-3
3
-4
21
-20
-3
0
0
25
-4
-25
-7
13
11
20
1
6
24
-2
-11
11
5
-1
22
-10
-9
21
-11
-32
4
-7
4
2
-12
-1
17
5
12
4
3
-2
1
-22
-20
-11
-16
12
2
3
8
-9
-12
-8
16
19
16
26
-10
-4
-15
-14
12
-21
-17
10
-14
15
16
-4
16
5
18
-2
-22
-3
43
-3
-11
30
-4
9
-20
5
-8
3
-4
-4
-4
1
4
-3
-1
0
3
-4
-46
15
7
1
1
-18
-13
29
3
3
-4
-13
20
15
-4
8
1
21
4
5
-3
-17
-25
-54
-36
-7
-16
3
22
-7
11
-15
-38
-11
16
-2
0
12
-17
-13
-40
-42
-16
-13
18
59
-10
-32
-23
45
25
43
-22
25
-4
13
27
11
-7
12
-34
-4
-5
3
-9
-9
0
-21
-49
-27
21
-13
-29
4
0
0
-3
-17
0
-27
-40
-49
20
13
-34
-11
-34
-18
12
26
34
-12
-4
-5
9
-1
30
25
5
30
26
-9
11
77
12
-10
-5
1
4
-26
-14
-13
5
-3
-5
10
11
-1
-27
-16
-13
-13
-4
1
5
7
-4
-2
-2
2
-36
0
2
-42
-42
-2
0
7
6
52
27
44
-23
-3
11
-12
-29
-12
11
-7
-23
-13
-3
-2
-29
-24
-28
-27
-1
-18
-21
5
49
0
-36
-54
33
28
29
-3
2
13
1
6
0
2
-6
-8
1
-26
-45
3
-4
-12
-15
-2
-10
2
-14
-47
6
-22
-14
45
15
-68
2
7
-5
-6
-2
-28
11
8
-7
-1
-8
11
-17
-3
-30
-60
-50
-58
2
-15
-14
39
5
-26
-23
-35
-54
6
8
-10
2
-16
-24
-15
-20
-41
-11
6
-23
-7
-10
-2
26
-2
-18
15
-4
7
20
-19
21
21
-19
10
-14
18
1
2
19
3
10
7
7
-18
9
9
-6
4
8
-3
17
28
-69
-7
18
-45
5
-2
11
30
6
7
6
7
-5
3
-5
6
4
6
-12
14
4
5
-1
-4
5
-13
-32
-13
-3
3
-15
-6
-33
-52
-20
-30
19
15
17
22
1
8
8
10
33
10
7
-2
19
8
-10
24
-34
-61
5
8
7
16
11
9
-21
13
5
3
2
21
-11
12
11
-22
-56
-29
-4
30
-15
51
39
2
64
-6
-16
-59
17
-7
-17
5
13
-4
26
19
10
-2
1
8
-2
-31
-30
-8
-45
9
-14
-25
26
0
0
25
21
-58
-31
-17
4
-42
6
25
-4
-1
4
-62
3
37
-59
5
-4
-24
-23
-28
-13
-8
1
-14
-15
-5
-19
-24
-1
-71
-21
14
-14
-15
8
30
29
15
18
-3
-53
18
-23
-91
29
-20
-103
-15
10
24
-9
28
21
6
-23
-40
0
22
-1
18
4
12
37
7
8
10
2
-82
23
-21
-106
37
-8
-127
13
22
20
-5
-5
6
-30
-29
-32
-25
-17
-1
-25
-17
4
-21
-17
-5
10
14
-10
5
-3
-31
13
-11
-63
5
-13
-5
0
-12
-15
3
-6
-6
-11
-7
0
-12
-14
0
7
-8
-7
-9
-7
4
0
-4
-7
-9
-6
-3
-12
-5
-5
-11
-12
-12
5
-7
-7
-10
-5
2
-7
-4
-8
2
-5
-2
0
-6
-8
-13
-9
-14
0
-7
-7
-2
-4
-7
-2
-17
-9
-11
2
-12
1
4
-13
7
-6
-11
-2
-11
-6
0
6
-1
-3
-3
-6
-2
-11
-16
-3
2
3
5
-4
-12
-6
4
1
-2
-1
6
4
6
4
-8
4
-5
-9
2
-4
-8
-2
1
10
-5
-5
-9
5
-9
-11
-6
-2
5
-6
0
2
-2
-1
0
-6
-12
-10
-3
-6
3
1
-6
-3
3
-9
1
0
-9
2
-1
-7
-7
5
-4
-4
-6
-5
-7
-8
-17
5
-3
-8
9
3
-7
-5
-5
-14
-10
-5
-10
1
-6
-6
7
10
-5
-4
-6
-10
-2
2
-3
5
-6
-1
0
3
-7
0
-5
0
-10
-1
-2
-1
-10
1
-3
-9
2
-4
-11
-4
-2
-11
0
-2
-8
-10
5
-3
5
3
-8
0
-2
-9
-6
-10
-9
-5
-7
-13
-4
-1
-2
-4
-4
-15
-8
-2
-2
-8
0
0
-14
-5
-8
-4
-11
-9
-8
3
-10
-7
-7
-10
-10
-1
6
-11
3
-5
-8
6
-9
-11
-2
-6
-13
-5
-4
-17
-7
-12
-2
5
-1
-11
-8
0
-16
-3
3
-8
-5
-6
-3
9
-5
-13
-3
-9
-11
-2
-1
-4
-8
-12
-5
5
-3
-6
-5
-7
1
7
2
-6
-8
12
54
11
23
40
8
-3
-13
0
-1
18
-4
9
-18
-5
-21
-40
3
-7
-21
-11
5
-9
21
22
21
15
10
-13
-39
-17
19
-51
5
48
10
-9
-4
-2
3
-20
8
-11
-2
3
-5
22
-1
4
36
-49
-43
3
22
10
-27
19
48
26
-1
36
30
-1
-6
17
31
51
21
30
1
11
-17
-14
2
19
13
-4
28
11
-11
-36
31
38
38
10
-10
86
-28
-36
1
3
-6
1
-3
-4
6
-6
-4
18
-15
-4
19
23
-22
-16
1
-14
-5
-8
-12
2
1
-8
37
13
0
29
1
0
32
16
15
-16
-14
6
-1
3
-2
-11
27
16
-4
29
24
-1
-21
-23
29
4
-21
-10
-15
-26
10
11
-6
-31
-28
-16
-2
24
-2
-3
2
31
-21
8
22
-116
-67
-15
-11
-21
11
69
32
22
104
-6
-2
-1
-12
-8
15
-7
-3
-20
0
0
-10
11
22
3
56
28
-15
2
25
-68
-14
16
-98
-46
-25
-27
-28
-53
-6
50
30
13
-31
-61
74
8
-9
-5
-39
-36
-53
-47
-16
-98
-54
-25
-52
2
14
-24
-63
-22
-42
-116
-100
6
0
-4
11
31
25
-17
3
42
-7
19
18
-6
-15
-23
21
15
0
11
-17
-6
16
-24
15
-5
-15
21
0
11
3
5
20
49
-24
18
42
25
-1
-41
9
-34
3
-42
17
14
-16
-21
-37
-39
-32
-48
-71
-66
-39
-8
-11
12
-14
0
17
-7
2
6
4
-25
30
-18
-7
30
7
-11
18
-30
-2
2
-47
11
-13
-51
-9
-6
-19
-21
-21
-19
-33
-17
-60
-20
13
-13
-20
-3
-24
-9
-3
-33
-16
-21
3
-9
-3
-14
-3
2
-30
-26
6
-4
-14
48
-16
0
42
29
12
23
-7
2
10
11
10
-8
-27
-8
-23
1
32
15
8
11
17
-7
2
17
-5
24
19
-4
16
10
-10
14
22
6
18
-1
-2
5
-16
-6
-43
-37
-6
-7
-2
-4
-1
4
4
2
2
-11
16
-1
-26
-10
5
-32
6
6
-17
-24
-13
-19
-21
-20
-67
-24
0
-14
38
22
-8
19
14
34
35
-12
9
-18
14
15
-5
-3
-9
16
13
0
19
12
6
6
-4
24
14
16
-33
-36
-38
-5
-53
-29
-13
-29
-53
-2
5
-7
-14
11
10
-6
-3
-1
18
41
19
-4
11
28
28
6
31
10
2
-21
18
-4
-5
-4
1
14
-18
-31
-31
18
0
-8
5
-10
-5
2
12
-17
-25
-5
-34
-39
-36
-28
-17
2
9
-12
-45
-78
-21
-83
-29
-5
-5
-11
-5
-12
0
1
-5
-16
-12
12
-13
-24
7
-27
-25
-23
-26
-1
-12
44
-2
1
33
5
11
38
-43
-32
-47
-15
-27
-54
-34
-32
-42
-1
13
14
-7
1
29
40
16
2
40
-34
47
2
-29
42
7
-3
48
-8
-17
-3
24
-4
-4
30
0
-12
-8
4
1
-12
-11
-14
-14
-19
-5
9
-9
-3
19
-4
0
4
-14
22
-7
-12
-7
1
0
-10
-3
5
-8
2
1
1
-1
7
0
-9
-12
-1
-3
-5
4
-1
2
1
0
-6
5
-3
-7
0
3
-1
0
3
2
5
0
-9
-1
0
3
-1
-9
-2
0
-7
-9
-9
3
-2
-16
-11
5
-10
0
-4
-2
-5
0
1
-10
2
2
-7
-8
-5
-7
0
-5
-7
-11
0
1
0
2
-4
6
3
-7
-2
3
4
3
-10
-8
-8
-4
-1
-12
-3
1
-3
-7
-5
2
7
3
2
6
0
-10
2
-4
6
-8
-6
-7
-4
-6
0
1
-9
-4
9
-5
-4
8
7
-3
-4
-9
-10
-10
-7
-10
-7
-9
-12
-6
2
0
-5
-13
3
-7
-2
-1
-11
-2
-5
4
2
-6
3
2
-3
-14
3
-1
-1
-2
-4
-1
-9
-11
-3
-9
-10
-11
-11
4
0
5
3
-4
-2
0
-4
0
-8
-2
-11
-9
-6
-1
-11
-10
-2
-12
-1
-10
-7
-3
-8
-2
-2
-9
2
-10
1
-4
-5
-4
3
1
1
4
-4
-1
-5
-3
-7
3
-2
5
-5
-1
0
-5
-7
-5
-11
-12
-9
-14
-2
-6
-7
-7
-5
-12
-7
4
-13
-7
-8
-5
-6
-2
-1
-5
-15
1
7
5
2
-1
-2
3
-1
-10
-5
-2
1
-11
-13
-2
-12
-10
6
-1
-6
4
-12
-9
-12
-3
3
-9
8
-1
-9
-3
-12
-8
-11
-4
-6
-8
-13
-5
3
-8
-4
-4
-10
-3
-7
2
-4
-7
-4
-2
-1
-1
3
-6
4
1
-7
1
0
-5
-8
-1
1
1
2
-5
4
0
-7
-7
-11
5
-8
-3
-2
-10
-10
-5
-2
-6
-5
1
-1
-1
-1
5
2
3
-1
1
-1
-7
4
-6
-4
-2
8
1
-3
3
-9
1
-4
2
4
0
4
-2
-8
-2
-4
3
-9
3
-5
1
-2
-1
0
-4
3
-3
4
-3
-9
-4
-1
-4
-1
-6
-3
-3
1
2
-11
-2
7
-3
3
0
-5
3
3
1
0
0
-7
-1
4
-3
1
2
4
6
-3
-4
-1
5
-7
1
-1
-8
-10
-4
0
-6
1
1
-4
-2
-10
-1
-7
-1
7
-10
-4
-6
-11
-11
-3
-5
6
-7
1
-3
-2
-11
-3
-12
-11
0
-4
-8
0
-11
-3
-4
-7
-3
-6
5
-9
-7
-7
-7
-6
-12
1
-5
-7
3
-2
6
3
3
-3
0
4
-6
-4
-9
1
1
0
-3
-4
-5
-9
2
-6
-9
-10
-3
-8
-8
-10
-8
-5
-10
-5
0
-4
-5
-7
0
-8
-11
-1
-1
-6
-8
1
-7
1
2
-5
1
2
1
0
-7
-1
2
5
-8
-5
-6
-1
-5
-4
6
-8
-8
-11
3
-1
2
-5
-10
-6
-1
-1
0
-5
-7
-12
-12
-10
-4
2
-6
1
1
-2
5
4
-1
2
-6
-6
-12
-5
0
-7
-4
4
-9
3
-3
-7
-8
0
-2
-1
-1
-5
-8
2
-2
-6
-9
-4
1
-8
-3
1
-4
4
4
-9
-4
-6
3
-9
-4
-4
-4
-3
-8
2
-5
3
7
19
67
-33
6
58
-21
6
66
8
4
13
-17
7
4
-1
-10
15
35
-22
-28
44
-5
-24
18
-1
-10
14
-33
-79
32
25
-57
11
24
1
-1
-8
2
-9
0
33
-4
-6
42
-15
-34
-42
-2
5
14
-7
15
52
-9
-6
-13
41
15
35
6
26
19
-3
20
34
-45
-29
-4
-23
-11
41
-10
24
25
-49
-4
5
-7
-36
-6
-16
0
-11
-38
-58
16
-9
-34
-5
-2
-5
6
2
-2
2
4
-5
6
49
39
32
-11
19
30
5
-30
27
24
-5
-10
6
0
-10
12
-15
-2
-3
-20
-11
25
-13
-3
1
23
18
13
-2
7
1
5
11
-2
10
3
12
1
-7
10
1
-21
-19
-7
-3
60
17
-50
31
18
-19
11
-18
-31
-108
-76
-46
-35
27
-50
-4
5
23
-50
3
52
-1
-13
25
19
2
40
27
9
8
-13
1
14
-38
-26
1
10
-22
3
29
31
4
3
-6
-8
3
19
-10
-40
-11
-24
-20
-41
-66
14
-9
-7
1
-53
-14
35
27
-41
-7
-48
-128
-14
12
-77
3
-13
-21
-36
-8
-5
-60
-36
20
-46
-48
-51
5
-7
5
-8
10
13
7
23
55
75
44
31
33
6
6
39
-18
-31
19
-51
-12
9
-28
-26
18
12
22
1
10
34
-13
5
36
-14
6
45
53
-21
-41
36
10
-39
36
-2
-1
-12
-40
-96
-26
4
-117
-7
-28
-58
11
11
31
-5
-2
32
-37
-23
38
-4
7
-5
2
-2
7
-7
-8
0
-6
-4
-4
-8
6
-8
5
3
-7
4
-6
6
-4
-2
-8
3
-6
-4
-2
-7
0
4
-8
6
3
-7
4
-5
-1
-5
-4
2
-4
-2
3
4
0
6
-2
3
1
-9
-8
-2
0
-4
4
4
-2
5
-8
-6
6
2
0
0
-3
-7
3
1
-8
0
1
3
-4
0
-4
4
-1
-2
2
-6
3
2
-8
2
-7
4
8
3
-6
5
7
1
1
-2
-4
-7
2
2
3
6
6
4
-6
2
-5
6
-1
-7
3
-3
-8
4
3
4
-7
2
-3
0
-3
-4
-3
6
-1
-2
-3
2
0
7
2
-2
-5
5
-2
-4
-2
-2
5
-1
0
-3
-3
-8
2
4
-6
-3
-7
-7
3
-2
-5
3
-3
-1
6
-6
0
-9
1
3
3
-9
-10
2
-2
-6
-4
2
5
-4
-10
-8
-6
-5
-8
5
4
4
1
-6
-1
0
1
4
2
-8
3
2
-6
-5
4
-5
0
-9
-7
-4
-6
-1
4
6
-6
-5
-7
-5
7
-6
3
-3
-5
-8
3
-1
4
2
-9
3
-7
-10
-7
-6
1
1
-2
1
7
-3
-1
-6
0
0
-3
3
-7
-2
-1
3
-8
-6
-6
-4
0
-1
-7
-8
-5
-7
1
0
0
1
5
1
-5
-7
2
-1
-2
-4
-7
4
4
-2
6
-7
-4
-3
3
1
-5
6
-1
-4
3
-2
-7
1
-4
-9
-9
1
-5
-2
3
-3
-8
-4
-5
-12
-8
-9
6
-11
-1
-3
3
-2
-6
-5
2
-1
-9
-7
-6
-1
-7
-1
-10
5
-5
-16
-11
0
-13
-1
7
-1
-4
1
-19
-13
-2
2
-1
1
0
-9
-8
-8
-4
-10
-6
0
-5
1
5
-10
0
0
-1
-9
-6
3
3
-2
-11
-6
8
-4
3
4
-8
-7
-11
-4
-9
-6
-1
-3
-6
-10
-5
1
-8
-13
-4
-8
-9
-13
-3
5
-2
-8
-6
-4
-2
6
5
-6
6
5
-2
-2
-7
-2
-2
6
-1
-13
-7
-5
5
2
0
-1
3
-1
-9
0
-3
-9
-13
0
-9
-6
-7
-1
-2
8
0
-5
-7
-15
-10
-13
-3
-4
-7
-8
0
-5
-2
-8
-17
-12
-12
-6
0
-4
-5
-7
-1
-13
-12
-2
-10
-4
6
-5
0
-15
6
-3
-1
4
-4
-14
-9
2
-6
-7
-3
-3
-4
-3
-4
-2
-10
-2
-14
-3
-10
-10
1
-6
-7
-4
-3
0
-7
-5
-3
-7
-10
-3
-3
-11
1
0
-9
-6
6
-14
-3
2
4
-6
-4
3
-5
-3
-3
-3
12
-1
-4
-4
-1
2
4
-7
-10
-3
-4
-9
3
1
-2
8
-1
-4
2
0
-2
1
1
-7
-8
2
1
2
1
-13
2
-4
-6
-7
-5
0
-8
-12
-12
1
0
-9
2
2
5
4
-4
-6
5
-13
-5
2
-4
-1
-8
-5
2
7
-3
-10
-9
-8
-3
-3
-2
3
-15
0
-4
2
-6
-4
-1
4
-4
-6
-2
0
-2
-3
-2
-6
-3
17
23
9
-26
6
-15
4
-8
2
-16
-10
-24
33
13
-54
14
32
18
11
-25
-26
19
-3
-22
-2
16
35
-25
-22
-40
-29
-53
-6
-24
-5
18
-18
-29
-38
35
-2
-26
-18
-26
-13
-12
17
12
-26
-15
-12
-50
-4
21
-14
-30
17
7
-10
-24
-69
-81
-48
6
6
-7
3
4
-8
20
22
15
-24
3
-14
-2
6
-50
16
29
-12
0
-42
-88
27
14
-24
34
30
0
-3
-4
-1
1
-5
7
6
-5
-6
18
14
9
-8
9
-18
22
30
27
-8
-26
-19
39
19
-17
-8
16
18
-20
5
22
-37
-16
-26
-1
-10
-21
-13
8
-4
-16
-23
-24
-15
-16
-6
-6
23
23
-10
-9
-8
20
18
-9
18
9
20
-4
4
-1
-8
-74
-25
-23
-16
-29
-35
-42
-25
-16
-8
-6
-21
-6
-32
10
2
-10
16
13
-5
-19
3
10
20
2
-4
11
6
1
27
13
-13
-24
-17
6
-7
-20
4
-11
-13
-27
11
0
-13
-27
-5
-8
41
-30
-66
32
14
-27
70
15
28
-11
-27
-12
-18
-13
-9
-34
-17
-6
-19
-13
-9
21
13
-19
1
35
-19
5
5
6
-40
-21
-2
-24
-5
43
28
15
14
7
24
0
23
-54
-72
-3
12
6
-55
0
-2
-32
-23
-28
18
39
34
-33
9
1
-34
-44
-9
22
-1
16
-33
-12
4
-17
-65
-60
-16
-17
-12
-15
-15
-13
-21
-13
-5
-8
-2
6
-7
3
-3
20
-4
8
2
5
3
-9
-22
-21
-7
26
38
1
5
27
-16
12
52
-14
25
23
1
-11
9
13
-38
29
-47
1
17
-38
-30
-21
-26
-6
-1
-14
-60
17
25
5
-4
1
-18
45
15
-21
-15
-42
16
25
-21
34
-44
31
26
-18
-12
11
31
14
4
21
12
-14
10
22
-4
14
17
7
38
19
59
20
8
0
1
0
-7
-5
29
21
-5
9
-47
-42
-11
-79
15
-14
11
61
7
-7
0
0
5
-3
-5
-3
0
2
14
44
19
16
28
-4
28
10
13
6
0
13
-21
28
-31
-22
-5
-19
8
22
16
15
-11
59
7
-22
0
11
21
32
12
-13
12
10
18
-9
22
21
-3
10
-23
56
11
-42
26
-32
57
-28
-2
40
-59
-44
-4
-54
12
-35
-22
36
-23
71
18
-1
16
6
-17
-24
-1
-10
78
60
-3
25
26
14
-1
6
-29
12
-22
-72
36
7
18
40
12
27
4
-3
-3
31
-46
-45
-64
-85
28
-98
-53
29
14
-44
33
8
-43
53
-21
20
77
-41
-16
-17
-21
-29
-7
-19
-39
-8
-35
-99
-108
-83
-107
-8
-35
-25
34
-5
-6
0
14
-10
-51
10
11
-21
38
-43
41
1
-9
51
-63
-15
26
-9
18
-11
-4
26
-14
54
26
-2
-12
-4
24
-9
7
-63
26
-3
-74
-8
-8
30
-22
10
21
-24
-9
-3
-8
-27
-43
6
-44
5
-20
-41
9
15
4
6
11
5
-22
-14
-26
-33
5
12
46
25
23
8
26
18
13
-11
36
13
-6
11
-5
28
-2
-63
-3
0
-4
-16
-1
9
1
24
33
15
27
-1
-26
-33
16
-32
-4
26
-1
-2
-2
-6
-12
12
-4
19
35
35
46
17
20
-16
-41
10
-44
-62
37
56
26
-18
22
81
28
65
88
-6
-7
31
-3
21
44
-55
-25
-23
-11
-14
-31
10
27
10
11
-18
-50
-63
-29
19
14
14
-89
-7
10
-61
-7
1
1
-4
-3
1
-2
6
-6
25
0
1
3
28
11
6
10
-15
-5
-16
-21
-9
11
16
2
27
13
48
32
-7
7
-15
-20
-85
-76
-40
8
28
8
15
-1
-3
-37
-12
-10
20
18
-21
2
10
-6
-54
-41
-27
-44
-7
-46
-22
-41
-12
19
34
37
25
16
52
-16
-25
-7
-44
-82
-61
33
5
-5
38
51
9
-38
1
-63
-24
-17
-11
-2
-1
16
-29
-18
8
5
-1
60
-31
-5
18
-24
-9
46
-68
-54
-25
-31
-23
-53
12
24
9
-85
-48
-18
-18
-12
-55
-8
37
-16
-10
-3
-7
-49
-92
-9
-16
-61
-8
-33
-62
18
15
-30
-83
1
-55
-75
26
8
24
0
9
36
-23
-25
-6
-48
-22
-22
12
11
-11
24
14
16
50
44
-6
-10
-13
-25
-72
-101
-33
16
45
19
23
18
30
-9
-35
-18
18
16
-22
-58
-80
-22
-6
11
22
-25
-50
-21
-31
-43
-50
-16
-49
-34
-18
-25
9
-24
-7
5
-26
-19
-4
14
27
-52
-6
6
-22
-30
-38
-16
-7
45
4
14
-9
-32
-8
-8
1
-42
-37
-15
22
-12
-16
-11
-11
1
-10
0
-10
-1
-7
-25
-5
2
4
-37
-53
-77
-5
-64
-49
-18
-46
-39
3
6
-9
-2
-4
-10
3
-6
-12
-6
11
-25
15
2
-29
20
-21
-22
-11
20
-21
-16
-4
-25
-29
-31
-3
-18
30
37
5
-22
-16
-4
8
2
-11
0
-24
39
-1
-52
-13
-16
38
0
4
-4
7
0
-1
-4
7
0
-31
15
34
-27
-32
-10
24
10
-19
-44
-60
-61
8
-2
-21
-14
-1
5
-35
8
81
0
-37
-35
-12
-2
-56
-42
-2
-45
2
-41
1
-14
-18
2
-15
-21
20
4
-38
-31
-13
4
12
-17
6
-29
-6
-4
-27
25
-19
16
-16
-22
0
-2
-15
-18
0
-14
-24
-10
36
14
-16
-4
-93
-15
-4
38
-16
-5
-9
2
-48
3
-1
-7
-24
-18
-7
-4
-20
-8
20
-16
-37
-23
5
-6
-9
5
5
-7
-1
2
7
-9
13
-35
42
-6
-24
-46
-26
49
7
-1
11
7
3
11
9
7
8
10
2
-1
9
0
-7
1
2
-3
-27
21
-8
-52
-29
-12
-44
-5
-12
-1
31
-11
-27
-9
-34
39
-50
24
-13
-8
29
-19
2
-1
3
-4
-24
-34
31
-24
-99
-20
18
-64
-27
-15
-26
-3
23
-16
-13
5
14
-5
-18
3
4
7
1
1
9
2
3
0
-2
19
-15
-12
-44
-8
-18
-26
-21
25
13
10
23
-1
-9
-20
-28
-5
-15
2
-34
32
-33
-21
20
3
11
-62
-16
-9
11
22
17
35
32
33
-30
-9
5
3
3
-5
17
23
5
-28
-7
1
-26
-22
12
5
12
17
26
5
17
8
-17
-22
-3
-16
-15
-13
-21
-1
-4
12
-4
6
-14
-1
12
19
-9
0
10
8
-3
-2
15
-10
-9
-28
0
-10
-13
11
0
-16
-31
20
-5
40
22
-32
14
10
-1
-4
0
-1
7
4
2
2
-4
-7
-31
-14
-25
-24
-28
4
14
2
6
-48
-3
-10
19
16
-4
29
35
36
-106
-17
13
-105
-55
-18
-39
-57
-34
-37
-10
-5
-8
-21
-1
6
9
6
-47
5
19
-75
-27
2
7
12
0
-47
-8
50
16
35
12
0
-3
8
32
16
16
-8
0
40
14
30
75
-5
-34
-31
-43
-51
-35
5
-10
-22
-36
12
13
-32
-21
-15
-5
-6
12
-13
-4
17
-60
0
14
-34
-30
-37
0
-6
-3
16
3
-1
2
3
3
-43
55
-1
58
60
-3
11
9
11
-21
-35
-35
-16
-22
-25
-26
-25
-23
3
-4
-72
21
0
-28
-22
-31
-37
10
14
13
-6
-19
-4
-1
4
25
-31
7
33
49
76
12
-17
-1
1
-43
3
14
-67
-35
-8
-29
-56
-32
21
33
28
-8
-13
4
-11
-7
-5
-52
1
27
-66
20
17
-28
1
6
-25
-34
-44
-16
-20
-36
-16
-23
-23
-1
12
13
-24
-25
-11
-19
-13
2
4
5
-3
-24
-10
20
-3
-20
26
2
18
58
4
26
52
-22
16
41
0
13
37
-2
-7
32
-13
-25
19
-57
-42
18
-47
-26
9
-58
-23
-43
9
6
12
18
11
30
31
-19
-12
-26
-37
-5
-68
-29
-42
-54
-48
-33
-30
11
48
13
-11
36
57
-20
-48
18
14
-14
20
23
17
52
30
32
47
9
-5
17
13
14
9
25
37
6
16
19
-2
10
23
-43
10
25
-3
2
5
7
-6
-4
-3
4
5
32
5
22
3
7
33
37
27
34
10
27
20
-2
6
31
-1
-9
25
22
5
-6
-17
-6
19
-23
8
-6
12
-11
-1
-3
-2
21
18
19
37
34
4
-20
23
10
3
22
43
21
-22
-45
42
-32
-36
16
-16
-44
-23
-43
-3
9
-15
-33
-16
-6
-21
-17
55
35
11
22
24
38
40
38
53
14
-21
-42
29
1
-36
28
34
-5
2
8
6
3
-15
6
40
13
-37
-35
4
26
-85
-22
23
-71
-50
30
-8
15
25
-19
-6
27
-97
-76
9
-41
-42
-11
-36
-92
-51
-30
-27
-51
-33
2
-11
-36
-22
-8
-62
11
1
-14
-22
4
-6
-14
-11
11
-5
-24
20
-5
23
-12
-18
40
-8
-41
-16
-25
-24
-3
-50
-38
-34
-58
-5
-23
-22
-33
-22
-12
-21
-22
4
12
-22
-18
-44
12
-16
-46
-14
-13
-35
-28
-37
-28
-3
-37
-59
-29
-31
-18
-42
16
-6
-33
12
-8
-21
25
9
6
19
-91
-128
-25
-17
-48
18
-1
-7
0
-16
5
-2
7
-39
7
7
3
-11
-15
-34
-41
1
1
-30
-2
11
-18
-33
3
-41
-17
6
-25
-20
-4
-25
-2
-17
-24
-33
-35
-4
4
6
2
0
-12
-36
11
13
5
2
28
-18
-13
-19
-40
-8
-16
-37
8
4
8
6
1
13
12
4
9
7
0
19
28
22
9
12
-10
4
19
5
-20
-7
-15
-30
2
3
-12
20
19
7
6
-5
-1
-7
5
-4
1
5
10
-11
-16
6
10
1
2
-2
14
-5
-24
-45
-35
3
-22
-20
11
11
30
21
41
23
8
-14
13
19
20
13
9
-33
18
-10
-6
17
8
-1
10
15
-5
30
17
-9
12
11
-12
-24
-8
-44
2
-4
-28
-21
-19
-19
-26
25
-9
32
49
12
9
-11
17
19
11
19
19
11
-4
25
15
-3
25
0
-31
32
-10
-61
13
-23
-37
18
-41
-67
12
-11
-40
28
17
-36
-33
-18
-30
-19
-5
-3
-4
-18
-6
-69
9
-35
-76
20
26
-19
17
18
-23
-1
8
-13
-6
11
-29
-12
1
-41
-21
4
-26
-12
0
-30
4
4
11
-31
-52
-24
-31
-16
6
-13
4
-35
-22
-37
-30
5
-18
-10
-15
-27
43
19
29
22
3
19
9
3
29
15
-10
-89
9
-80
-56
8
-12
-14
12
14
-8
2
4
8
-24
-12
6
-58
-14
7
-22
-3
0
-36
-18
2
39
-4
-52
19
-17
-60
13
-8
-26
-14
-23
-7
6
-21
6
32
19
0
8
-11
-4
2
-11
14
31
20
4
-18
16
-1
-6
-3
-5
-21
6
12
-6
31
32
1
9
-6
-71
-23
31
1
-14
13
-3
-10
5
-2
-19
-19
18
13
-3
31
20
8
24
-4
0
27
39
26
13
13
20
-21
-5
26
26
-26
-13
6
-1
37
22
21
1
-7
-55
-4
-7
-28
-16
7
14
-34
-39
-61
-2
4
12
-29
61
54
-93
4
-6
3
6
5
5
5
-7
-4
11
-27
-19
8
-4
14
18
33
2
-5
-12
-6
-6
-7
-2
5
7
-2
34
-1
-33
26
19
-11
3
-7
-17
-24
9
-10
0
15
11
8
-23
0
-15
-38
-31
-11
-15
-1
4
2
-24
-23
12
31
-34
9
5
-39
-21
12
11
-18
-30
27
17
1
41
-33
-11
41
-44
-14
44
-2
-17
78
54
-38
-22
-19
-2
-14
-19
-9
-30
-20
-19
16
-11
-10
-11
15
56
-21
14
24
-35
-36
8
-55
-44
-30
-33
-16
-4
-66
-11
40
-46
-11
-93
49
38
-25
0
-1
-25
-13
-9
-15
-50
-33
-5
-6
-43
-30
-17
-16
-35
37
32
-61
9
12
-1
1
3
26
-5
0
37
-52
-9
22
-43
-2
-9
6
12
-27
41
7
-8
23
13
-13
11
-8
9
1
13
6
25
16
7
5
4
22
-3
20
-18
27
24
-1
-39
-39
16
-7
-10
-14
-19
-25
-35
-36
-24
-20
-20
-22
-22
-25
-22
-11
-8
-17
0
-19
28
57
-26
13
66
-56
3
59
-11
19
-38
-15
-14
-5
-45
-6
36
22
-24
-72
19
-27
-68
-111
-88
-82
15
6
-72
12
-1
-52
-18
-22
-25
-12
-16
-47
-22
-28
-26
-122
-44
0
-7
8
13
0
-1
31
-22
0
11
-10
-24
-71
5
-30
1
11
-44
-14
-22
16
31
-14
5
15
-74
-2
-22
-10
-6
9
-16
2
5
-33
-3
65
19
-18
14
-29
-39
62
-118
-82
100
-2
-3
7
7
-2
-2
5
5
4
-8
-21
5
7
-3
-7
-2
-48
31
5
-35
-47
8
-53
-63
-96
-81
-56
0
-9
-55
7
3
-40
-19
-13
-46
1
-8
-4
0
-21
-2
-65
-86
-39
-22
-11
-10
2
9
22
6
-51
18
-17
6
-45
10
-3
-13
19
-7
-10
16
-35
-69
-9
4
-19
2
1
-27
-23
-42
28
-39
2
-4
-57
6
44
-9
10
36
-11
-7
16
-12
-37
-1
-34
-22
-17
-19
-48
-9
15
-29
-50
-2
-24
-62
0
-9
-28
-7
-6
-5
7
-21
15
-21
-40
-21
-128
-69
108
14
1
-66
4
10
-34
8
-4
-9
-5
2
-2
-1
4
7
-7
9
30
3
21
37
-17
-2
32
-107
-22
4
-19
15
21
-7
6
-3
9
-25
8
-1
-15
-34
5
36
-20
-3
-3
-10
-29
20
62
-17
6
40
-49
3
38
13
-8
-47
19
19
-15
23
2
-17
-1
-1
-27
0
-1
-19
4
4
2
-18
18
52
-21
-4
40
-23
-4
30
-18
-15
-29
-21
15
-9
6
5
19
-23
1
-8
18
-3
1
1
-20
18
-10
-21
22
-7
2
5
-17
-29
-32
-29
2
11
-48
0
-19
-61
-18
-14
-8
-20
-10
-5
10
-3
-6
-4
-6
-42
5
-27
-14
-14
-38
14
7
1
-4
-21
-1
4
32
-4
-12
16
-4
10
25
11
1
11
-23
22
-5
-36
-3
14
-4
11
27
2
-3
-3
-31
-16
-36
-33
8
-3
17
21
-13
-29
4
-7
-6
2
-2
2
3
3
-4
20
23
-8
16
11
-23
-13
-13
11
-18
-18
8
0
28
22
-7
-7
-16
42
-4
-9
34
-17
-32
28
18
-30
15
-17
32
-9
-15
-12
8
-23
-4
25
13
10
23
14
-18
22
8
-51
20
8
17
-4
10
22
-36
18
10
-40
-11
-15
-28
-16
-48
-20
-12
-22
1
-6
12
29
-8
0
24
-2
-32
12
6
-10
14
1
-2
0
-33
-42
1
-21
28
-4
-2
-4
1
-18
-1
-40
26
9
-48
-3
1
-23
-8
-3
-4
-8
14
3
12
5
6
-22
-48
4
-7
-3
-9
-11
-1
-13
-8
5
-31
-5
-10
-4
-2
-8
12
-2
6
-10
-9
-5
-23
-29
-53
12
-33
-19
6
29
30
-5
14
34
-28
-9
30
20
-8
6
13
-25
-4
24
5
-17
-1
-27
-56
-13
-71
-70
4
-45
-27
44
1
7
23
-17
-2
-6
14
-8
-12
-9
3
-9
-2
-8
-8
0
1
22
6
5
7
-14
-19
12
-40
-23
18
-4
-50
-3
-5
-59
14
18
28
-16
-30
-10
-4
13
37
-6
13
-6
-1
8
1
23
19
44
9
3
-1
-6
2
-1
-2
15
27
-11
-34
-28
38
29
21
11
8
18
25
4
6
-7
-10
-77
-52
-38
-68
-1
-17
-35
3
34
46
21
24
-8
44
9
10
11
-1
-34
-9
-13
-26
16
32
25
-4
-26
-32
9
9
25
0
0
-18
-32
-32
-49
30
22
22
-1
-3
-2
-4
2
-5
5
-2
6
-7
-5
5
-3
-15
-24
-4
-2
24
5
22
-16
10
7
-4
8
7
31
2
-11
5
-6
1
-1
-48
-24
-30
-20
0
-22
-19
4
7
-3
-1
-11
2
20
29
26
-4
0
-8
-23
-26
12
9
-5
16
30
51
-7
-7
5
22
-6
17
35
17
-19
-18
-25
-2
-37
-46
-31
13
0
-38
13
-2
17
-5
10
4
10
13
-6
-3
-8
-23
-4
-6
-9
-4
-8
-15
10
1
-43
16
22
26
-11
-12
-8
19
36
23
-25
-34
3
-13
-2
6
34
3
12
17
1
-2
5
-12
-2
-21
-20
-26
-7
-32
-51
-25
-30
-25
-7
4
-10
-41
-27
-2
15
-5
-50
0
-8
-5
15
12
7
19
24
63
16
43
24
26
8
29
18
13
-11
-53
-49
-27
-22
-30
-22
3
12
-58
-33
-31
-62
-14
-1
-20
19
33
32
-45
-43
-23
0
-18
-15
-9
-3
-8
-3
-7
1
-9
-26
-33
2
2
-24
-6
-7
-26
-9
9
5
14
23
45
3
1
7
35
24
5
-19
-16
-19
-11
9
-11
22
13
-10
23
-3
0
-20
-40
-20
-4
-7
13
-29
-39
-28
-41
-43
-12
-15
-6
18
41
29
3
21
-14
-25
-53
-39
-8
-75
-36
8
-11
-13
6
42
25
22
4
-6
-18
-4
-13
-36
-14
-3
-39
-1
4
2
-2
-1
-4
24
23
8
-16
-7
-15
-23
2
2
-3
5
-18
4
-4
1
1
-5
3
20
9
-22
-3
1
-1
0
4
7
6
3
-4
2
-2
2
-12
6
-21
10
19
-8
24
14
-14
4
-17
-15
-23
-12
-6
-28
-25
-30
0
17
-12
23
24
34
-25
-12
-25
-18
-12
-11
-3
25
3
-18
0
-5
-18
4
3
-22
-10
-9
76
59
65
18
-24
-27
-6
-62
-48
-75
-38
-38
-5
-2
23
23
20
45
-25
-11
4
-1
16
17
22
11
22
-1
4
-8
-15
1
-2
-46
-38
-12
4
-14
28
19
18
-2
4
18
-19
29
52
35
-18
-23
-13
-19
-28
-25
23
-3
0
16
3
-24
-27
-71
-51
-29
-28
-19
-10
-23
-14
4
6
3
-16
-11
8
-6
1
-4
11
9
-17
-19
-29
-14
-11
-5
-7
15
13
17
44
28
40
29
0
-48
4
-21
-57
-14
-16
-23
-1
5
8
26
36
47
-75
-34
-17
-41
-15
-11
1
24
17
26
17
0
7
-20
-30
-15
-8
19
-11
-7
-19
-8
-6
-18
-8
-3
-13
4
4
18
7
-2
-11
-8
-2
-9
32
37
-33
18
-3
1
15
8
19
-6
18
34
-10
6
48
-21
42
61
17
-7
29
29
-10
13
33
-7
-15
-22
-76
-9
-14
-10
-13
17
8
-27
29
-7
13
41
12
36
64
33
21
-19
7
9
-25
-34
-93
3
-33
-114
41
-13
34
28
-10
30
56
70
27
13
23
16
3
-12
4
-14
-1
12
13
27
35
16
-5
-6
-9
6
11
46
-6
-10
19
-60
-28
-30
-3
34
4
4
0
-5
5
5
-6
2
-5
9
32
48
-5
0
21
20
16
28
21
5
34
32
-4
31
19
-9
15
-42
16
11
-47
-3
-20
18
11
-15
4
6
8
0
13
4
26
16
-11
-5
17
11
2
17
9
20
32
5
3
-32
-15
6
-24
30
5
-7
-9
-5
45
-5
-34
-1
9
24
33
0
16
20
28
20
-6
-1
10
11
28
3
16
-2
16
22
1
7
-4
-22
9
-20
-22
3
-6
2
28
26
-7
-7
-44
-27
-9
-52
46
-44
-72
10
48
-23
6
31
-60
-24
18
-34
-15
-61
-88
5
-55
-35
-45
-63
-106
-87
-21
-35
-80
-71
-128
-63
-93
-89
32
18
13
13
0
-8
-39
24
8
-49
51
4
-15
31
-6
48
12
22
22
-24
5
7
-60
-33
-70
-53
-41
-27
28
25
-8
2
-5
-46
1
-14
-35
-29
-14
23
-19
-28
2
10
-30
-60
-33
-69
-20
-29
-42
-34
-58
-79
-38
2
9
-5
7
10
2
4
17
1
-29
-39
-28
-19
-14
-76
-14
10
-19
-8
30
-31
-21
-10
-27
-29
-7
12
33
32
15
12
0
-13
26
6
12
31
31
4
-7
32
-15
-14
13
-19
26
5
-30
6
-23
-7
-12
-15
-23
10
8
-7
-18
-1
-42
-6
35
-13
-11
-6
-11
-16
-8
3
-22
-35
-33
-32
-25
-44
-8
-7
-11
12
-8
-16
-12
-13
-22
4
5
10
-5
-2
23
-33
21
56
11
-2
44
50
27
46
2
-1
5
0
4
-3
-5
1
0
-5
-6
-30
5
-7
-35
7
2
8
24
36
-2
9
-2
5
9
-25
-18
-4
-9
-13
-20
-6
0
6
22
28
-4
-12
-38
-18
-14
-36
23
7
-1
-9
-29
-42
1
-2
-4
21
19
19
4
6
8
1
-24
-13
-31
-28
-28
33
9
4
11
4
-13
-16
61
27
-13
-8
-19
-23
1
24
6
-5
22
-10
-28
-45
9
5
-23
15
-1
-26
-16
-67
-75
-14
-25
-30
9
2
-8
-3
0
10
-15
-14
2
-23
-20
-3
-9
44
54
21
-2
9
47
44
49
10
-3
0
-7
-8
-8
-12
7
-14
-40
5
22
1
2
18
6
21
11
8
-5
-17
-3
2
-57
23
20
-23
-15
-25
3
11
-9
-12
-27
-25
-36
2
3
-29
-6
-14
-25
-22
25
6
-16
-29
-27
-21
-13
-79
-12
-12
-96
19
20
-20
10
-20
-27
-16
18
-16
4
14
19
-6
5
-3
-8
-10
-3
-18
-33
-44
-6
-8
-43
19
2
-16
-1
2
-4
-7
-2
-7
2
-10
-2
-8
-2
-1
-4
-7
-9
2
-2
-8
-3
-5
-9
-5
-7
1
-3
-4
-2
-7
-4
4
-1
-3
0
-6
-1
1
-1
-3
1
-11
-9
4
-7
-3
2
1
-9
2
-4
-7
-11
-6
3
-10
-5
2
-4
-5
2
-5
3
-2
6
4
-6
2
-6
-4
-1
2
-3
3
-8
-9
3
-6
-8
-5
4
-6
2
-4
6
-11
0
-10
-2
4
-2
1
-2
7
-6
7
0
1
-7
4
-7
-1
2
3
2
3
2
-9
6
-7
-8
2
-1
-9
-2
0
0
1
5
3
-1
-8
-7
5
-5
-10
-6
-6
-5
-10
2
-3
-1
-4
-3
6
-7
4
-1
3
4
-4
5
-7
4
-6
5
-8
-4
-7
-7
-7
-5
-10
0
-4
-2
-7
-5
-9
-2
-9
-3
-2
3
3
-7
6
-2
5
-4
-7
-1
-8
-6
-7
-7
3
-5
-3
6
3
-8
-8
-9
-8
-2
-10
-4
-5
0
-3
-5
-3
2
2
4
-11
-2
-5
-12
-6
-10
-9
0
-7
1
12
6
-11
0
-4
1
-1
-1
-5
-5
-6
-11
-9
-5
3
-5
-1
-6
-3
-7
3
0
6
-3
-5
-9
-6
3
-3
1
-9
3
-3
12
-9
1
2
-9
-1
-2
-3
0
-11
-4
-5
1
-3
0
9
4
2
5
4
-4
2
6
2
3
-2
4
-6
-2
2
-9
2
-9
3
2
-7
-3
-2
-4
-11
3
-1
-9
4
4
0
3
2
-4
0
-10
-35
-23
-29
-2
-8
10
6
0
-21
30
43
-15
-11
-25
1
-3
-10
-3
26
43
26
13
5
-34
-56
-11
1
34
50
-13
-18
22
-32
-29
13
-25
10
39
6
9
0
-2
-53
-91
-3
10
-4
-16
10
3
-10
7
-5
-35
-28
-11
2
1
14
1
0
-51
-7
0
1
23
15
-7
-41
15
6
-12
17
25
9
-20
-44
-36
-4
5
-22
-16
0
25
15
-24
11
-6
-1
0
0
5
3
-2
-1
5
-6
0
-14
14
7
-19
-3
-50
-19
1
-40
-7
32
48
24
3
-13
-7
-52
-40
2
20
-37
-6
8
-23
-43
2
15
-15
5
-9
10
23
-11
-66
-39
-22
-11
-24
-56
-11
8
-7
-46
-17
-18
-51
-48
32
1
-2
39
36
15
5
33
43
23
23
23
22
-40
-22
-53
-28
-12
-11
-8
-22
-34
-65
-11
10
-24
-11
-12
12
7
-12
-17
-11
-36
-38
-29
-71
-5
-12
-18
-7
-16
11
5
6
9
-11
-10
35
-8
-14
18
-4
-6
9
52
17
-13
11
-31
-37
12
7
4
-18
-6
-6
6
10
-1
-21
-22
-10
-4
-11
0
-12
10
-4
19
10
17
-2
2
-10
-38
-5
-9
-113
-91
-23
5
3
24
67
28
-18
12
27
-13
-14
5
-1
-1
4
25
4
-4
-11
-17
-5
-23
-47
-10
-32
31
20
-24
-13
-3
-6
15
16
2
7
13
15
-5
-10
3
-2
-1
6
-18
-14
-20
-23
8
-4
1
-15
-11
-18
-8
13
11
-2
-6
30
2
19
2
-13
-30
2
25
10
-6
-5
-5
-17
-6
-7
-10
27
10
-50
-20
-5
-10
-17
-25
16
19
4
-11
-24
26
-19
-22
10
-32
-7
-4
-27
9
7
16
-3
-6
23
-2
-16
10
-21
-4
11
-9
-16
-2
8
-18
3
6
-31
-25
-9
-3
-40
-3
-6
-50
9
-1
-11
-12
11
-43
-29
26
-44
-43
5
-89
-19
46
-128
-3
43
-53
-87
36
-4
5
-7
-5
5
-4
-5
6
-6
-14
-16
-34
-2
-12
4
-23
-26
2
-29
-13
-12
-15
37
15
-56
4
-6
20
-45
20
31
-73
21
-128
-101
4
-18
4
-7
-28
17
13
-65
-28
-7
-42
-35
4
-107
-47
1
-128
-82
-11
15
25
1
-12
21
41
15
43
-22
-6
-13
6
25
5
7
15
-19
42
-25
-92
-10
-119
-109
-9
-56
-128
-49
-18
13
-10
-70
-2
17
-96
-3
-1
0
6
-22
2
-9
-20
-62
57
29
-1
11
9
-15
-20
-3
-3
7
3
-49
29
14
-124
7
35
-26
-38
-22
1
-10
-17
3
-18
-4
-2
-11
-6
-9
-14
3
-28
-19
3
7
-7
0
18
12
11
20
16
13
-13
-16
28
5
1
-21
-42
2
3
26
39
-10
0
-13
-7
-8
-25
30
-48
-20
2
11
6
22
14
21
10
19
6
27
4
7
4
19
17
43
-57
15
-22
-12
-16
-23
-3
-19
-1
-7
-15
-28
-40
-12
5
-35
10
10
-63
6
15
-37
-23
-46
-63
-25
-37
-7
22
36
-10
8
-15
-10
12
17
29
13
29
20
24
1
36
5
9
-12
1
15
35
4
-26
29
0
-6
-8
-14
-14
32
10
-29
35
28
1
-2
5
16
-18
-42
-42
-20
-31
-27
-1
6
-37
-3
-6
-23
6
-30
-33
6
6
-24
-39
-24
-18
9
5
-2
27
32
18
-11
-3
-3
-4
11
34
16
10
39
-4
45
45
-22
11
42
-12
17
18
-1
1
-7
2
-4
-3
3
-2
6
-31
-21
-19
-14
0
-2
35
2
20
42
37
4
34
24
34
2
12
34
-108
-106
-47
-31
-53
-46
22
-6
-60
-21
-9
-18
34
0
0
-2
0
-6
-62
-43
-9
11
-8
17
61
19
-6
28
31
-9
22
-1
-35
-4
3
-34
-37
-32
13
-52
-4
16
-20
-6
6
-70
-32
4
-28
-9
25
7
26
5
-42
-21
-32
20
19
21
10
3
25
-58
1
-14
20
33
-20
53
26
35
24
12
-4
2
18
15
-49
-36
-9
22
61
52
5
-3
40
-23
33
44
11
-10
-1
9
-2
-17
-2
-49
-67
-7
14
8
-21
0
12
-24
5
-11
-8
-39
-57
9
-11
-26
5
3
7
4
62
23
-19
-1
-38
12
5
29
-53
-58
-36
-58
-58
-22
-7
-38
-54
-42
-44
-66
-4
-7
-36
-4
-3
-22
-21
-15
-21
7
-64
-102
-13
-33
-80
8
5
15
8
6
5
4
-8
-41
-55
-44
-33
0
5
-10
8
15
36
-5
3
-10
6
-3
-6
-3
-5
-1
-3
-1
-7
-2
-6
-1
-1
1
1
-13
3
0
-5
-7
1
-9
-7
2
6
1
-5
-2
-5
-6
0
-6
0
-10
3
-7
-9
-3
-4
-7
-6
-7
-7
3
-2
-7
-7
-8
-5
-5
0
0
-3
-12
2
-3
0
-2
1
4
-9
2
-5
-7
-1
-3
-9
-2
-10
-5
-7
-5
-5
-12
-10
-3
-11
-4
-6
-9
-13
-4
-6
-6
6
1
-8
-5
5
3
0
-7
-7
-6
1
2
-11
0
-7
6
-7
-11
-1
-6
-11
-8
-1
2
-1
-4
5
0
-2
3
-11
-11
-2
-2
-3
-3
-7
1
4
-1
0
-8
-12
-2
0
-12
-1
-4
-12
-7
-4
-15
-3
3
-11
-4
-7
-1
-6
-4
-4
-3
-2
-8
-6
4
-3
-3
2
-6
-4
-8
-6
-6
-7
-6
0
-8
-2
3
4
-7
-3
3
-3
-6
-7
-10
-11
-9
-8
-2
-4
-11
-9
-2
-2
-9
-2
1
-5
4
-8
4
-1
-1
2
-12
-3
-10
-6
-11
-1
2
3
6
2
1
-3
-6
-2
2
-3
-2
-7
2
-6
-5
-11
0
0
-11
-6
-1
-1
-3
-10
-9
-5
4
-5
-5
-6
0
-4
-9
1
-5
-13
-8
-3
-1
-9
-3
0
-6
1
0
-1
0
-4
0
-1
-3
0
-5
-1
-6
-9
-4
-3
-4
-11
-8
-7
-3
1
3
-1
-11
-10
-5
3
-4
-4
0
-9
-11
-10
-5
-5
-2
-6
-6
-7
-4
-2
-8
-6
0
2
-8
-6
4
-1
-3
-8
-10
-6
-5
0
-6
-4
-3
-8
-10
-3
4
-1
0
-6
-7
-4
-1
3
-4
4
-10
1
-2
-4
-7
-8
-6
3
-4
-8
-6
1
2
-1
3
6
3
3
2
-4
1
-1
-8
-6
-12
1
-5
0
0
1
-8
-11
-3
-4
-5
-6
1
6
-4
-4
4
2
3
-9
2
-3
-8
-11
-11
-7
-2
0
-4
-7
0
-11
2
-4
3
-5
-6
-2
-7
2
-2
7
-1
1
4
-6
2
7
3
-3
-1
-1
-6
4
4
1
-8
-6
-6
4
4
5
-4
-6
-2
-5
-7
-7
0
-2
2
6
-8
4
-2
-7
-6
4
3
-7
7
1
-11
-9
-5
-6
-5
-5
-7
-2
-5
0
-7
1
-3
-8
1
1
-7
-9
-10
-8
-5
-7
-7
2
-2
-4
-11
1
-10
4
-7
5
4
-6
-4
4
-6
-11
-6
-6
5
0
0
5
-4
1
2
4
-7
-7
1
-8
-4
-9
-8
-11
-10
-11
-2
-3
-2
-8
-7
1
-8
4
-3
3
-6
3
7
-8
-9
-9
-3
3
1
-3
-2
-7
-9
-5
-1
-6
-8
-2
-2
-3
-5
1
-3
2
-11
-4
-5
-7
0
-8
3
-9
-9
0
6
3
-6
0
0
-5
-1
-3
-7
-11
-7
2
-12
-8
-12
0
-4
0
0
5
3
7
4
5
-7
-10
-11
-5
-5
-4
-6
-9
3
0
1
-4
-12
-12
1
-11
-1
0
-3
-4
0
-4
-2
2
-2
3
-4
-4
-7
-12
-3
-2
-4
-3
-10
-8
2
4
1
-6
1
-8
-1
-9
2
-7
3
5
-1
5
-2
-7
-6
-10
1
-9
-6
-6
-7
5
3
-10
-3
-9
2
-1
-5
-4
1
-2
1
-3
4
0
-2
-3
-11
2
2
2
-1
-3
-2
-8
-10
-7
1
-4
-6
2
5
-2
3
-4
-1
-3
-3
-5
6
-4
-8
-8
2
-11
-1
2
-5
-3
3
-8
-2
2
6
2
2
-7
-9
3
-9
0
3
-7
1
5
3
-6
-1
-1
-6
-8
3
2
-3
-7
3
-8
-4
3
2
-5
-10
3
4
3
6
-3
-2
-4
-2
-3
-3
-3
-4
0
5
4
1
-2
4
-3
-8
-5
-8
3
5
-1
-2
-1
1
5
-2
2
-1
1
-2
0
-5
-4
1
-8
2
-7
1
-4
-3
-7
3
-5
-7
-4
-6
-5
1
6
4
0
-6
7
2
-2
-3
-12
3
-11
2
-3
-4
-6
-5
-4
-6
2
-1
-1
2
-6
-2
-1
-1
-3
2
-7
-5
-2
-11
-10
2
-2
6
-2
-4
1
-7
5
5
-7
5
-1
-5
-3
-1
0
-5
-10
-10
-7
3
-1
0
1
-7
1
-5
-3
-4
-9
-5
-3
-6
-7
4
4
1
4
0
-1
1
7
0
-4
7
-6
4
-7
-1
0
4
-6
-9
-11
-6
-2
1
-10
-4
3
0
-1
-4
7
4
0
-9
-2
-8
-8
-7
-5
0
-9
2
-8
-9
3
-1
-1
-3
-5
-4
-4
-4
-11
0
6
-7
-5
5
-8
-8
-2
-1
6
-2
-4
-5
0
-3
3
-8
-4
1
-5
-8
-1
-5
2
-5
0
-8
2
-11
-3
-9
-3
-1
-6
-10
-5
1
-1
-11
-9
2
-7
4
1
-2
0
5
-1
-3
-2
1
0
-9
-11
-10
0
-3
-7
-12
-4
-12
-6
-5
-4
-6
-4
2
-8
1
1
0
6
-4
-6
-9
-4
0
-4
-7
-6
-8
-3
-7
-9
-6
-9
-9
-7
-7
-7
-7
-7
3
-8
-3
-5
5
6
2
-6
-1
-6
1
-7
-3
4
-7
0
-4
6
-3
2
1
1
-4
2
3
-5
-6
-7
2
6
-4
-5
0
-6
3
-5
6
-4
0
5
5
0
-2
-8
-6
-5
-6
-5
-8
1
2
4
4
7
6
-5
0
-6
-1
-8
1
-5
-4
-7
-7
-6
-8
-6
0
0
-12
-10
-7
-1
-1
-9
-3
4
7
0
4
6
-7
-6
-8
2
-4
-1
-6
0
3
6
2
-3
-5
-6
2
-7
-5
-5
-5
-4
-10
-4
0
-5
2
0
-7
-4
-12
-3
4
-7
-7
0
-6
2
-7
4
-1
-9
-4
-9
0
0
1
-6
-12
0
-8
-6
-1
0
-3
1
-1
-5
-6
2
-7
-7
-7
1
-3
2
-1
2
2
-3
-6
-4
2
-3
2
-1
-1
-4
-7
-1
-7
-9
-2
-8
-6
-7
-6
2
-7
0
0
-5
2
5
1
-2
-8
3
-8
5
-4
6
-7
-8
-3
0
0
-12
-9
0
-3
-1
1
3
-1
0
3
-1
-11
6
-5
-10
-1
9
39
16
14
21
23
16
-5
-11
24
-7
3
-3
-31
7
-5
4
33
12
27
-12
-26
14
26
8
38
-5
4
12
-26
-14
1
4
-1
28
19
18
53
17
11
6
-6
-1
2
-43
-18
-23
-7
-8
-4
23
-13
-5
3
-3
5
8
20
31
22
29
10
10
2
-17
11
4
-1
-27
10
-13
-6
-11
15
-2
-7
-23
9
6
-7
40
16
0
2
4
23
10
0
-22
5
-1
-3
7
-6
1
-4
-1
-7
-25
-11
-7
5
13
-34
-13
6
5
19
13
29
6
-32
-9
-7
6
27
-35
-29
-45
-8
2
-12
2
7
23
0
-13
-24
-30
-1
-25
15
20
4
-6
-21
-19
-3
9
-4
-29
-7
-18
9
8
58
29
9
46
2
-16
-30
-21
0
7
-22
4
-8
21
16
52
-2
-29
-7
2
6
8
-12
-8
0
-9
-3
11
-18
-6
-8
-43
-22
-5
-23
-24
3
13
-13
40
-22
8
-7
20
2
45
-17
-18
18
20
19
11
46
6
0
51
39
26
-25
-56
-40
-26
-37
-38
-21
-22
-24
-4
0
-8
-15
-27
-6
-21
-15
-6
7
-4
0
-3
3
-9
-9
-10
-19
9
4
8
-7
-3
56
60
33
29
11
-4
-41
-70
-14
-9
-13
2
-11
7
24
18
-26
-22
-22
-35
-5
-15
4
6
3
-28
-10
-12
7
-4
-8
-16
19
-1
-9
-22
-35
-20
-30
-37
-13
-11
-19
6
13
19
-12
-1
-14
-16
-16
-6
-7
1
-5
4
1
5
-5
4
0
4
-6
-2
-8
-2
-2
2
-1
-4
4
-7
4
3
-7
-8
2
-7
-3
-4
2
1
-7
-5
5
-8
-7
-9
0
-5
-6
0
0
-8
-8
1
-3
-1
-6
3
-6
-9
-1
-9
-3
-4
1
4
0
-8
-1
-7
-1
3
2
4
0
-1
3
-9
-6
-9
0
-7
-2
-5
-5
-1
-5
-2
0
-3
6
0
1
2
4
-10
-4
-6
0
-9
4
2
-6
7
2
-4
-7
-4
-7
-4
-2
2
-1
0
-2
-6
-4
-9
-5
0
-4
4
-7
-1
-7
0
-8
-7
-5
-5
2
1
3
-8
-6
3
4
-1
2
-9
0
-2
-4
-1
-2
2
3
-4
-5
-6
6
-7
-11
-8
-4
-2
2
4
-3
4
-8
4
1
-2
1
6
1
2
-2
5
5
5
-7
2
-3
-6
1
4
-5
-8
2
-1
-9
0
-1
-3
5
1
0
-8
-7
-1
5
-1
2
-4
0
-1
-6
-1
5
2
-10
-4
-6
-6
-9
0
-5
5
3
3
-10
1
-7
6
-2
2
-2
-6
-6
3
-8
2
-6
-7
-4
-9
-5
-2
-8
-10
-5
-6
-9
-2
-1
4
-3
-1
0
-3
-7
-3
5
-3
-7
3
1
-9
-9
-5
-6
-7
-2
4
0
-11
1
-4
-1
-1
5
-3
-3
1
3
-6
-4
-7
4
2
-2
5
-1
-1
-3
-2
-8
2
1
-1
-4
-2
-6
-9
-2
-6
-1
-1
3
-8
3
-1
-9
-6
-1
-6
1
-7
2
-1
1
3
-8
7
-6
-7
-8
2
-4
-11
-6
0
2
1
-4
-11
3
-4
-11
-4
-10
-2
-2
-1
3
-8
0
-4
-11
-8
-3
-1
5
-1
3
-2
-6
-2
-5
-3
-7
2
-3
-11
-5
-4
0
-10
-4
0
1
-1
0
-9
-6
-4
-3
-4
4
-7
-3
1
6
-2
0
3
5
7
-4
3
3
3
-10
3
-4
-2
-5
0
1
-6
-7
-5
-10
-6
-10
-2
-1
1
-3
4
2
0
-7
3
-3
3
7
-7
2
-1
-5
-4
-2
-6
1
2
0
5
-6
-6
2
2
-2
-3
-3
-8
-3
0
-6
-8
-2
0
-4
-5
-10
-7
-7
-5
-3
1
-7
3
-5
4
-4
-7
-6
-3
7
-2
-6
-5
-6
-3
-2
4
-3
-1
-3
-5
1
3
3
-6
-10
-10
-6
1
-6
2
-1
1
4
1
-8
-8
4
-1
-5
-6
1
-2
-3
-6
1
-7
3
-5
2
-7
1
-10
-9
5
-1
2
1
-8
-1
-4
-6
1
-10
2
6
-3
5
5
0
7
-4
5
2
-3
2
0
3
-8
-4
-8
-10
-7
-1
-2
-1
-9
-8
3
1
-4
1
1
-2
-6
-6
5
1
4
-3
-10
-4
13
2
-7
-4
12
4
4
2
-3
0
-1
3
-7
-2
-10
-10
-6
13
-3
-11
6
6
-2
-6
4
5
1
4
-10
-8
-2
-7
1
-8
-2
-5
-9
-2
-7
2
-6
0
-4
-2
-10
0
0
2
-1
-5
3
-3
-11
34
41
10
-11
-30
-48
-6
-9
-3
21
26
-13
21
-1
22
-6
7
51
7
0
-7
59
14
35
-4
-30
10
-39
-40
-19
24
18
40
12
21
15
-13
-15
-23
23
1
34
13
-2
10
-3
17
29
-49
-24
-1
-28
-12
-22
18
-6
21
55
-6
59
8
-29
-18
41
50
38
11
-17
36
-31
-7
46
32
41
-2
3
-4
8
-5
16
41
38
22
-57
41
-35
-53
-22
-47
-14
-1
-2
6
-4
4
2
-5
-5
1
19
37
17
-3
-1
23
35
2
23
-17
9
1
45
7
36
-14
-25
1
-30
20
22
-37
-10
-22
25
1
-12
-11
24
21
3
20
5
20
3
-5
1
6
9
-10
-8
-3
27
39
44
13
-36
-25
9
-55
6
-14
-70
-26
1
35
6
-40
-40
-46
28
19
-10
7
40
16
-14
-21
-10
-15
24
45
-16
-24
-5
17
19
15
32
36
35
-36
-4
5
-4
-35
-5
50
6
18
21
-2
-15
16
-23
-39
-21
-32
-15
37
-40
-77
37
-41
-19
-62
-26
2
-14
-12
15
-28
-28
-5
-17
-63
-44
31
-1
-16
-25
-55
-73
-39
-68
-29
11
15
19
9
15
28
2
-24
-12
20
-50
-95
19
-49
-32
-9
-28
-10
-16
26
50
-48
-14
-21
-20
-18
-28
36
13
30
1
17
12
-4
-5
-16
-26
-10
29
-19
-33
0
-46
-60
-29
-10
-25
-5
-14
-26
-17
-32
-52
-37
-4
0
3
7
3
4
17
19
20
9
-21
-35
8
-3
9
33
57
22
2
-17
7
20
11
34
-4
50
69
-1
10
46
-17
-4
6
-67
-67
20
-22
4
48
-29
-20
-25
-19
-86
-46
4
1
15
1
3
44
-5
-23
18
-8
21
11
4
11
-33
17
21
-122
26
24
24
15
29
52
-40
-57
17
10
-9
-16
-26
1
41
10
9
32
21
-2
-9
30
-3
-11
25
17
24
-18
-77
-73
-20
-9
-24
10
71
47
6
-5
-7
-2
-7
-6
6
-1
0
7
-8
21
7
13
35
15
30
34
4
9
21
-8
0
23
-52
-16
47
-13
9
-18
-5
0
-3
37
16
-24
12
15
18
-3
4
-6
-15
-17
-21
19
-1
-8
35
34
7
33
12
5
-84
29
83
-21
-40
38
-32
-53
-28
-4
-31
-110
8
-9
-48
36
-35
-80
54
5
-18
12
28
18
66
67
44
7
16
20
22
17
-12
-1
-14
-13
-18
3
28
-38
-2
36
-18
-40
-16
-26
-65
-31
-7
-97
-14
-38
-48
-2
-27
-36
42
-66
-18
-31
-63
1
33
-25
6
1
-16
-44
-12
7
-95
-53
-27
-128
-128
-11
-89
-23
17
66
33
9
24
16
-7
-5
-8
-4
1
-43
-47
-11
41
0
-5
46
-46
8
18
-31
7
-23
-45
-18
-36
-4
16
-35
23
8
25
-2
9
0
-6
-4
-34
-72
56
28
-49
-6
7
-28
-60
-75
-6
-1
-38
-5
-30
-8
10
-72
-20
-2
10
11
12
-4
2
4
21
1
7
-10
-13
3
16
13
-8
35
51
17
-17
-28
12
18
41
-1
22
71
-21
-20
3
-26
-35
17
-11
-25
-2
-43
-24
26
-14
-32
-42
-9
0
-45
-7
-29
-20
2
-4
22
-63
12
33
-17
16
42
-25
10
-14
0
17
5
13
45
70
21
8
-1
-33
-31
-14
46
2
-5
2
-2
14
10
-5
5
15
15
-18
-12
10
20
2
-2
14
-15
-28
-46
25
21
25
21
-5
56
-7
-5
7
7
5
-7
-3
-5
-4
6
19
-8
8
31
31
-18
25
50
-15
-30
-20
-9
-38
21
-30
-52
13
5
27
35
30
-30
2
52
2
-2
-7
6
11
27
-19
-1
18
-4
-20
-6
11
1
-10
-1
-1
16
5
-12
-95
-71
7
-5
-17
-61
-46
-29
-44
18
20
28
-15
15
17
-9
24
-18
48
32
16
17
-3
35
82
8
40
7
12
-19
-16
-8
-15
-30
-34
-2
14
-15
-5
17
-10
-17
0
-23
-9
-22
-47
-48
-18
-2
-38
-49
4
-10
-29
-106
-70
0
-30
2
-24
-9
34
-9
-10
5
-4
-28
-37
-19
-5
-60
-9
-20
-34
-9
30
-4
-13
23
24
10
0
3
-25
6
0
0
8
-6
-4
-59
-29
17
10
8
-39
-11
11
3
32
48
0
-10
15
3
5
-8
21
25
26
-6
14
1
-17
-2
-8
-85
-20
40
0
-41
-47
-29
-48
-92
5
-16
-20
-8
-13
-30
-13
-9
-57
17
-1
-29
-1
-9
-16
-28
-2
22
