-2
5
-41
-11
18
8
-63
11
-14
-27
17
-4
-23
-44
-67
32
11
26
18
-17
2
-10
-37
30
38
21
46
24
4
-6
19
3
-3
26
-47
0
-31
-15
-18
9
19
-24
26
-4
-13
-19
-94
9
-14
-61
-7
9
-2
16
-18
0
22
11
29
12
-63
-12
-11
8
23
25
10
-10
15
17
3
-5
0
-36
-21
-41
-24
14
-33
-20
36
11
-38
1
-26
29
-34
13
-67
-19
-111
-7
22
35
-123
7
-15
-23
-5
5
55
19
19
3
-26
23
-7
53
3
31
-3
-10
-38
-34
-45
-11
11
5
14
-2
-20
-58
-5
-47
-111
-14
17
5
-1
-33
12
-16
-62
4
2
1
-10
15
14
27
-34
-3
9
15
-51
10
0
1
-3
-73
-38
-41
-33
-38
-43
41
14
13
-53
10
-9
6
25
13
17
13
32
10
-7
5
-12
-44
0
-29
59
-21
9
-55
24
-89
-12
14
21
-9
-6
22
7
35
-4
-32
-10
0
-26
-51
22
-16
-46
-41
20
-14
-15
-33
4
-29
-11
-6
8
-3
-47
21
3
-12
-39
7
32
40
-53
-35
-62
-66
-31
23
-54
1
4
24
19
-9
28
-2
6
-12
2
10
12
-66
12
-11
34
-32
14
19
4
16
17
-6
-7
-2
-13
3
1
-31
26
-18
-39
-57
-61
13
-41
-29
36
-24
11
10
4
33
24
15
31
25
-5
-12
-35
9
-35
-13
7
49
2
-30
-15
22
-38
24
6
-67
33
4
-12
-71
-45
-8
-19
30
-30
-6
-21
7
-53
-33
-4
-45
-26
-14
-37
16
-16
1
18
-17
0
-7
-19
7
-24
-73
-85
14
14
21
-45
7
28
17
2
16
14
-11
-10
4
-26
-20
-2
-36
14
-3
7
-54
0
1
19
-3
34
-95
3
-12
27
-73
-12
-52
24
-3
4
4
-43
-13
13
-32
-25
-7
-11
2
-13
0
-3
37
32
23
12
25
-15
32
-49
-14
-20
1
-4
19
-11
6
14
-3
-18
-24
42
-2
19
17
-40
23
-58
-5
2
26
2
10
-16
0
-102
-44
35
-97
25
4
7
34
3
-23
21
4
49
1
-15
-61
15
12
-15
-9
-69
-12
-4
-29
8
-2
-8
-70
-2
6
9
33
32
21
-18
-9
3
-10
17
5
-51
4
3
3
0
41
-6
-6
-15
19
50
-9
17
-20
32
-27
12
-11
-14
8
-25
-6
18
35
46
15
2
6
-103
3
-4
-99
-11
33
-27
17
-103
15
3
19
-38
12
-9
-9
9
-9
-8
-2
33
0
-6
21
13
3
-5
-32
-50
-42
-14
-8
5
-4
-35
-6
12
-5
-9
-8
-38
-34
-7
-8
-3
20
-17
8
-4
-27
-62
-19
-17
-2
-16
20
3
22
-29
9
-54
11
3
26
-5
-4
-35
-5
31
-47
-7
-25
18
29
-61
-5
-6
5
5
-28
-30
-5
-7
-13
4
-3
-5
-17
9
-1
14
-6
-12
14
18
19
-8
2
1
8
18
-4
3
-39
17
22
16
-9
-18
7
-128
3
-30
-15
-25
-53
11
11
-1
-16
3
-9
35
11
-7
-10
-16
37
-1
-5
-6
-17
13
7
18
35
34
-69
-8
-12
29
10
8
12
-53
10
-14
-42
-60
-8
-16
-4
-40
9
5
-48
-49
1
12
19
18
20
11
-16
21
-6
-20
-6
3
-79
16
-14
-16
-16
